{"learner":{"attributes":{"scikit_learn":"{\"_estimator_type\": \"classifier\"}"},"feature_names":[],"feature_types":[],"gradient_booster":{"model":{"gbtree_model_param":{"num_parallel_tree":"1","num_trees":"650"},"iteration_indptr":[0,1,2,3,4,5,6,7,8,9,10,11,12,13,14,15,16,17,18,19,20,21,22,23,24,25,26,27,28,29,30,31,32,33,34,35,36,37,38,39,40,41,42,43,44,45,46,47,48,49,50,51,52,53,54,55,56,57,58,59,60,61,62,63,64,65,66,67,68,69,70,71,72,73,74,75,76,77,78,79,80,81,82,83,84,85,86,87,88,89,90,91,92,93,94,95,96,97,98,99,100,101,102,103,104,105,106,107,108,109,110,111,112,113,114,115,116,117,118,119,120,121,122,123,124,125,126,127,128,129,130,131,132,133,134,135,136,137,138,139,140,141,142,143,144,145,146,147,148,149,150,151,152,153,154,155,156,157,158,159,160,161,162,163,164,165,166,167,168,169,170,171,172,173,174,175,176,177,178,179,180,181,182,183,184,185,186,187,188,189,190,191,192,193,194,195,196,197,198,199,200,201,202,203,204,205,206,207,208,209,210,211,212,213,214,215,216,217,218,219,220,221,222,223,224,225,226,227,228,229,230,231,232,233,234,235,236,237,238,239,240,241,242,243,244,245,246,247,248,249,250,251,252,253,254,255,256,257,258,259,260,261,262,263,264,265,266,267,268,269,270,271,272,273,274,275,276,277,278,279,280,281,282,283,284,285,286,287,288,289,290,291,292,293,294,295,296,297,298,299,300,301,302,303,304,305,306,307,308,309,310,311,312,313,314,315,316,317,318,319,320,321,322,323,324,325,326,327,328,329,330,331,332,333,334,335,336,337,338,339,340,341,342,343,344,345,346,347,348,349,350,351,352,353,354,355,356,357,358,359,360,361,362,363,364,365,366,367,368,369,370,371,372,373,374,375,376,377,378,379,380,381,382,383,384,385,386,387,388,389,390,391,392,393,394,395,396,397,398,399,400,401,402,403,404,405,406,407,408,409,410,411,412,413,414,415,416,417,418,419,420,421,422,423,424,425,426,427,428,429,430,431,432,433,434,435,436,437,438,439,440,441,442,443,444,445,446,447,448,449,450,451,452,453,454,455,456,457,458,459,460,461,462,463,464,465,466,467,468,469,470,471,472,473,474,475,476,477,478,479,480,481,482,483,484,485,486,487,488,489,490,491,492,493,494,495,496,497,498,499,500,501,502,503,504,505,506,507,508,509,510,511,512,513,514,515,516,517,518,519,520,521,522,523,524,525,526,527,528,529,530,531,532,533,534,535,536,537,538,539,540,541,542,543,544,545,546,547,548,549,550,551,552,553,554,555,556,557,558,559,560,561,562,563,564,565,566,567,568,569,570,571,572,573,574,575,576,577,578,579,580,581,582,583,584,585,586,587,588,589,590,591,592,593,594,595,596,597,598,599,600,601,602,603,604,605,606,607,608,609,610,611,612,613,614,615,616,617,618,619,620,621,622,623,624,625,626,627,628,629,630,631,632,633,634,635,636,637,638,639,640,641,642,643,644,645,646,647,648,649,650],"tree_info":[0,0,0,0,0,0,0,0,0,0,0,0,0,0,0,0,0,0,0,0,0,0,0,0,0,0,0,0,0,0,0,0,0,0,0,0,0,0,0,0,0,0,0,0,0,0,0,0,0,0,0,0,0,0,0,0,0,0,0,0,0,0,0,0,0,0,0,0,0,0,0,0,0,0,0,0,0,0,0,0,0,0,0,0,0,0,0,0,0,0,0,0,0,0,0,0,0,0,0,0,0,0,0,0,0,0,0,0,0,0,0,0,0,0,0,0,0,0,0,0,0,0,0,0,0,0,0,0,0,0,0,0,0,0,0,0,0,0,0,0,0,0,0,0,0,0,0,0,0,0,0,0,0,0,0,0,0,0,0,0,0,0,0,0,0,0,0,0,0,0,0,0,0,0,0,0,0,0,0,0,0,0,0,0,0,0,0,0,0,0,0,0,0,0,0,0,0,0,0,0,0,0,0,0,0,0,0,0,0,0,0,0,0,0,0,0,0,0,0,0,0,0,0,0,0,0,0,0,0,0,0,0,0,0,0,0,0,0,0,0,0,0,0,0,0,0,0,0,0,0,0,0,0,0,0,0,0,0,0,0,0,0,0,0,0,0,0,0,0,0,0,0,0,0,0,0,0,0,0,0,0,0,0,0,0,0,0,0,0,0,0,0,0,0,0,0,0,0,0,0,0,0,0,0,0,0,0,0,0,0,0,0,0,0,0,0,0,0,0,0,0,0,0,0,0,0,0,0,0,0,0,0,0,0,0,0,0,0,0,0,0,0,0,0,0,0,0,0,0,0,0,0,0,0,0,0,0,0,0,0,0,0,0,0,0,0,0,0,0,0,0,0,0,0,0,0,0,0,0,0,0,0,0,0,0,0,0,0,0,0,0,0,0,0,0,0,0,0,0,0,0,0,0,0,0,0,0,0,0,0,0,0,0,0,0,0,0,0,0,0,0,0,0,0,0,0,0,0,0,0,0,0,0,0,0,0,0,0,0,0,0,0,0,0,0,0,0,0,0,0,0,0,0,0,0,0,0,0,0,0,0,0,0,0,0,0,0,0,0,0,0,0,0,0,0,0,0,0,0,0,0,0,0,0,0,0,0,0,0,0,0,0,0,0,0,0,0,0,0,0,0,0,0,0,0,0,0,0,0,0,0,0,0,0,0,0,0,0,0,0,0,0,0,0,0,0,0,0,0,0,0,0,0,0,0,0,0,0,0,0,0,0,0,0,0,0,0,0,0,0,0,0,0,0,0,0,0,0,0,0,0,0,0,0,0,0,0,0,0,0,0,0,0,0,0,0,0,0,0,0,0,0,0,0,0,0,0,0,0,0,0,0,0,0,0,0,0,0,0,0,0,0,0,0,0,0,0,0,0,0,0,0,0,0,0,0,0,0,0,0,0,0,0,0,0,0,0,0,0,0,0,0,0,0,0,0,0,0,0,0,0,0,0,0,0,0,0,0,0,0],"trees":[{"base_weights":[9.065997E-2,2.5970444E-1,-2.2591171E0,-3.235379E-1,8.687633E-1,-5.5695914E-2,1.3324241E-2,-1.4747653E0,5.071333E-1,9.713094E-1,-1.2151628E0,-1.897426E0,9.289918E-2,-3.854221E-1,1.1608045E0,1.029143E0,-4.469524E-2,-5.334264E-2,1.3324241E-2,-2.1822E0,5.600698E-1,7.4598557E-1,-3.526617E-2,-5.1929753E-2,-6.856431E-2,2.7114775E-2,4.156995E-3,1.1201547E0,4.460808E-1,-5.3872555E-2,-2.9137166E-2,-4.062017E-3,2.9197095E-2,-1.3454091E-2,2.9222295E-2,5.3502796E-3,-4.222319E-2,2.4896307E-2,4.833263E-3,-4.8494134E-2,2.0247554E-2],"categories":[],"categories_nodes":[],"categories_segments":[],"categories_sizes":[],"default_left":[0,0,0,0,0,0,0,0,0,0,0,0,0,0,0,0,0,0,0,0,0,0,0,0,0,0,0,0,0,0,0,0,0,0,0,0,0,0,0,0,0],"id":0,"left_children":[1,3,5,7,9,-1,-1,11,13,15,17,19,21,23,25,27,-1,-1,-1,29,31,33,-1,35,-1,-1,-1,37,39,-1,-1,-1,-1,-1,-1,-1,-1,-1,-1,-1,-1],"loss_changes":[5.6207806E1,4.689736E1,1.2653347E1,6.4490685E1,1.3800526E1,0E0,0E0,1.8731926E1,2.2855328E1,1.1217419E1,7.8374825E0,1.5584335E1,7.1054516E0,1.6335135E1,3.504736E0,3.2044525E0,0E0,0E0,0E0,6.75972E0,1.5170286E0,4.207094E0,0E0,9.354028E0,0E0,0E0,0E0,4.359375E0,1.2431261E1,0E0,0E0,0E0,0E0,0E0,0E0,0E0,0E0,0E0,0E0,0E0,0E0],"parents":[2147483647,0,0,1,1,2,2,3,3,4,4,7,7,8,8,9,9,10,10,11,11,12,12,13,13,14,14,15,15,19,19,20,20,21,21,23,23,27,27,28,28],"right_children":[2,4,6,8,10,-1,-1,12,14,16,18,20,22,24,26,28,-1,-1,-1,30,32,34,-1,36,-1,-1,-1,38,40,-1,-1,-1,-1,-1,-1,-1,-1,-1,-1,-1,-1],"split_conditions":[1E0,1E0,1E0,1E0,1E0,-5.5695914E-2,1.3324241E-2,1E0,1E0,1E0,1E0,1E0,1E0,1E0,1E0,1E0,-4.469524E-2,-5.334264E-2,1.3324241E-2,1E0,1E0,1E0,-3.526617E-2,1E0,-6.856431E-2,2.7114775E-2,4.156995E-3,1E0,1E0,-5.3872555E-2,-2.9137166E-2,-4.062017E-3,2.9197095E-2,-1.3454091E-2,2.9222295E-2,5.3502796E-3,-4.222319E-2,2.4896307E-2,4.833263E-3,-4.8494134E-2,2.0247554E-2],"split_indices":[1195,1452,769,1480,703,0,0,1604,695,149,1535,1729,807,1905,1077,1236,0,0,0,695,80,896,0,1066,0,0,0,1589,875,0,0,0,0,0,0,0,0,0,0,0,0],"split_type":[0,0,0,0,0,0,0,0,0,0,0,0,0,0,0,0,0,0,0,0,0,0,0,0,0,0,0,0,0,0,0,0,0,0,0,0,0,0,0,0,0],"sum_hessian":[1.4151343E2,1.3201697E2,9.49646E0,6.743617E1,6.458079E1,8.205643E0,1.2908168E0,2.826538E1,3.9170788E1,6.155287E1,3.0279174E0,2.2263952E1,6.001428E0,1.6558334E1,2.2612455E1,6.0444393E1,1.10848E0,1.7371005E0,1.2908168E0,1.9952639E1,2.3113146E0,4.413089E0,1.5883393E0,1.4882012E1,1.6763215E0,1.9341421E1,3.2710333E0,5.228041E1,8.163981E0,1.2578784E1,7.3738546E0,1.2300379E0,1.0812767E0,1.439578E0,2.9735107E0,1.2874593E1,2.0074196E0,4.72387E1,5.0417094E0,1.3180201E0,6.8459616E0],"tree_param":{"num_deleted":"0","num_feature":"2048","num_nodes":"41","size_leaf_vector":"1"}},{"base_weights":[2.2263888E-2,1.3092192E-1,-2.766706E0,2.718606E-1,-1.8653884E0,-2.921549E-2,-6.7367874E-2,3.6170688E-1,-6.639094E-2,-2.3443978E0,2.9081246E-2,4.451864E-1,-1.8170148E0,-1.8769113E0,-6.596893E-2,4.9489462E-1,-6.6819765E-2,-2.5132606E0,8.938077E-3,-1.3874139E0,-6.5950505E-2,1.1189782E-2,-6.6427976E-2,-6.703024E-2,-2.332514E-2,-5.2671652E-2,2.9735176E-3],"categories":[],"categories_nodes":[],"categories_segments":[],"categories_sizes":[],"default_left":[0,0,0,0,0,0,0,0,0,0,0,0,0,0,0,0,0,0,0,0,0,0,0,0,0,0,0],"id":1,"left_children":[1,3,5,7,9,-1,-1,11,-1,13,-1,15,17,19,-1,21,-1,23,-1,25,-1,-1,-1,-1,-1,-1,-1],"loss_changes":[4.0358116E1,3.6066597E1,3.4717941E0,3.7763786E1,1.3299541E1,0E0,0E0,2.1233269E1,0E0,3.0029144E0,0E0,2.0703737E1,6.761571E0,3.1449432E0,0E0,2.1121462E1,0E0,3.4164925E0,0E0,6.3862133E0,0E0,0E0,0E0,0E0,0E0,0E0,0E0],"parents":[2147483647,0,0,1,1,2,2,3,3,4,4,7,7,9,9,11,11,12,12,13,13,15,15,17,17,19,19],"right_children":[2,4,6,8,10,-1,-1,12,-1,14,-1,16,18,20,-1,22,-1,24,-1,26,-1,-1,-1,-1,-1,-1,-1],"split_conditions":[1E0,1E0,1E0,1E0,1E0,-2.921549E-2,-6.7367874E-2,1E0,-6.639094E-2,1E0,2.9081246E-2,1E0,1E0,1E0,-6.596893E-2,1E0,-6.6819765E-2,1E0,8.938077E-3,1E0,-6.5950505E-2,1.1189782E-2,-6.6427976E-2,-6.703024E-2,-2.332514E-2,-5.2671652E-2,2.9735176E-3],"split_indices":[1847,1195,1088,1867,769,0,0,1349,0,389,0,97,1039,197,0,547,0,1057,0,80,0,0,0,0,0,0,0],"split_type":[0,0,0,0,0,0,0,0,0,0,0,0,0,0,0,0,0,0,0,0,0,0,0,0,0,0,0],"sum_hessian":[1.3319215E2,1.2819836E2,4.993793E0,1.19745445E2,8.452913E0,1.3954849E0,3.5983083E0,1.16757904E2,2.987539E0,7.3774576E0,1.0754563E0,1.1245026E2,4.3076487E0,4.807683E0,2.5697746E0,1.1096208E2,1.4881765E0,3.2913668E0,1.0162818E0,3.5227957E0,1.2848873E0,1.09468994E2,1.4930879E0,2.1222937E0,1.1690732E0,1.9894464E0,1.5333492E0],"tree_param":{"num_deleted":"0","num_feature":"2048","num_nodes":"27","size_leaf_vector":"1"}},{"base_weights":[1.29136685E-2,1.8904755E-1,-2.0720165E0,-9.372913E-3,2.8932821E-2,-2.323929E0,-3.794668E-3,-6.3605815E-1,6.0103697E-1,-2.6594813E0,-3.3896838E-3,-2.1415396E0,-1.24585584E-1,6.956615E-1,-7.032129E-2,-3.9025642E-2,-5.9943963E-2,-2.5925937E0,-3.489345E-3,-1.1603141E-3,-6.676919E-2,8.0732673E-1,-5.2360233E-2,-5.9303664E-2,-1.9343942E-2,2.6518356E-3,-6.3475646E-2,1.8279824E-2,-4.913982E-2],"categories":[],"categories_nodes":[],"categories_segments":[],"categories_sizes":[],"default_left":[0,0,0,0,0,0,0,0,0,0,0,0,0,0,0,0,0,0,0,0,0,0,0,0,0,0,0,0,0],"id":2,"left_children":[1,3,5,7,-1,9,-1,11,13,15,-1,17,19,21,-1,-1,-1,23,-1,25,-1,27,-1,-1,-1,-1,-1,-1,-1],"loss_changes":[4.9379883E1,3.0078415E1,4.974144E0,4.0810184E1,0E0,6.6872635E0,0E0,4.053022E1,2.061079E1,1.5897903E0,0E0,1.1863529E1,1.5186117E1,1.915934E1,0E0,0E0,0E0,5.372383E0,0E0,1.5279267E1,0E0,1.3805351E1,0E0,0E0,0E0,0E0,0E0,0E0,0E0],"parents":[2147483647,0,0,1,1,2,2,3,3,5,5,7,7,8,8,9,9,11,11,12,12,13,13,17,17,19,19,21,21],"right_children":[2,4,6,8,-1,10,-1,12,14,16,-1,18,20,22,-1,-1,-1,24,-1,26,-1,28,-1,-1,-1,-1,-1,-1,-1],"split_conditions":[1E0,1E0,1E0,1E0,2.8932821E-2,1E0,-3.794668E-3,1E0,1E0,1E0,-3.3896838E-3,1E0,1E0,1E0,-7.032129E-2,-3.9025642E-2,-5.9943963E-2,1E0,-3.489345E-3,1E0,-6.676919E-2,1E0,-5.2360233E-2,-5.9303664E-2,-1.9343942E-2,2.6518356E-3,-6.3475646E-2,1.8279824E-2,-4.913982E-2],"split_indices":[1195,1729,656,1452,0,1655,0,935,1302,1380,0,145,110,703,0,0,0,401,0,547,0,750,0,0,0,0,0,0,0],"split_type":[0,0,0,0,0,0,0,0,0,0,0,0,0,0,0,0,0,0,0,0,0,0,0,0,0,0,0,0,0],"sum_hessian":[1.3447653E2,1.24001945E2,1.0474593E1,1.0668315E2,1.7318796E1,9.239963E0,1.234631E0,5.2641354E1,5.4041798E1,7.9960527E0,1.2439097E0,1.3348095E1,3.929326E1,5.2803013E1,1.2387849E0,2.076507E0,5.9195457E0,1.08618145E1,2.486281E0,3.7804474E1,1.4887838E0,5.104966E1,1.753355E0,9.187011E0,1.6748039E0,3.6274364E1,1.5301077E0,4.9740177E1,1.3094814E0],"tree_param":{"num_deleted":"0","num_feature":"2048","num_nodes":"29","size_leaf_vector":"1"}},{"base_weights":[1.22544244E-1,2.8535363E-1,-1.9388434E0,-2.1473846E0,3.625019E-1,-1.5294886E0,-6.3076526E-2,-1.9640353E-2,-5.530594E-2,4.182126E-1,-6.074789E-2,-5.769258E-1,-5.400553E-2,4.74626E-1,-5.2456114E-2,3.8236797E-1,-6.2280867E-2,6.710383E-1,-2.563289E-1,-2.0564422E-2,2.9164847E-2,1.4874947E-2,-6.632647E-2,-4.4610783E-2,6.6731726E-3],"categories":[],"categories_nodes":[],"categories_segments":[],"categories_sizes":[],"default_left":[0,0,0,0,0,0,0,0,0,0,0,0,0,0,0,0,0,0,0,0,0,0,0,0,0],"id":3,"left_children":[1,3,5,7,9,11,-1,-1,-1,13,-1,15,-1,17,-1,19,-1,21,23,-1,-1,-1,-1,-1,-1],"loss_changes":[4.563471E1,2.3650267E1,4.6279106E0,2.528761E0,2.2629812E1,7.700596E0,0E0,0E0,0E0,2.0174738E1,0E0,9.291927E0,0E0,1.6929274E1,0E0,4.0799294E0,0E0,1.981882E1,2.7899357E1,0E0,0E0,0E0,0E0,0E0,0E0],"parents":[2147483647,0,0,1,1,2,2,3,3,4,4,5,5,9,9,11,11,13,13,15,15,17,17,18,18],"right_children":[2,4,6,8,10,12,-1,-1,-1,14,-1,16,-1,18,-1,20,-1,22,24,-1,-1,-1,-1,-1,-1],"split_conditions":[1E0,1E0,1E0,1E0,1E0,1E0,-6.3076526E-2,-1.9640353E-2,-5.530594E-2,1E0,-6.074789E-2,1E0,-5.400553E-2,1E0,-5.2456114E-2,1E0,-6.2280867E-2,1E0,1E0,-2.0564422E-2,2.9164847E-2,1.4874947E-2,-6.632647E-2,-4.4610783E-2,6.6731726E-3],"split_indices":[1195,1380,1152,1917,1867,1683,0,0,0,1863,0,354,0,1765,0,1750,0,184,875,0,0,0,0,0,0],"split_type":[0,0,0,0,0,0,0,0,0,0,0,0,0,0,0,0,0,0,0,0,0,0,0,0,0],"sum_hessian":[1.359832E2,1.260303E2,9.952899E0,3.8730237E0,1.2215727E2,7.3216023E0,2.6312966E0,1.226814E0,2.6462097E0,1.2014547E2,2.0118039E0,3.933097E0,3.3885052E0,1.1791193E2,2.2335448E0,2.8295836E0,1.1035132E0,9.2940765E1,2.4971155E1,1.2126923E0,1.6168914E0,9.166035E1,1.2804211E0,5.8085203E0,1.9162634E1],"tree_param":{"num_deleted":"0","num_feature":"2048","num_nodes":"25","size_leaf_vector":"1"}},{"base_weights":[1.49773685E-2,-4.8715416E-1,5.7059425E-1,-9.2125136E-1,2.8603723E-2,7.090122E-1,-5.0192293E-2,-1.3352839E0,-1.6211948E-1,9.5753247E-1,-7.988681E-1,-1.5638282E0,2.253421E-2,2.0203216E-1,-4.688457E-2,1.0249794E0,-3.2390404E-2,-1.5389975E0,7.042677E-1,-1.7409025E0,2.9130492E-2,-8.798295E-1,6.1856145E-1,1.0765362E0,-2.397088E-2,-5.9018254E-2,2.0623966E-1,-4.5694443E-3,2.8931348E-2,-4.6851207E-2,-1.9452674E-2,-2.5907189E-2,1.0035158E-2,1.767917E-2,-1.9190395E-2,2.3154708E-2,-1.4983351E-2,2.8647365E-2,-1.3664181E-2],"categories":[],"categories_nodes":[],"categories_segments":[],"categories_sizes":[],"default_left":[0,0,0,0,0,0,0,0,0,0,0,0,0,0,0,0,0,0,0,0,0,0,0,0,0,0,0,0,0,0,0,0,0,0,0,0,0,0,0],"id":4,"left_children":[1,3,5,7,-1,9,-1,11,13,15,17,19,-1,21,-1,23,-1,25,27,29,-1,31,33,35,-1,-1,37,-1,-1,-1,-1,-1,-1,-1,-1,-1,-1,-1,-1],"loss_changes":[3.712603E1,5.7119537E1,2.6396671E1,1.7850029E1,0E0,2.2636236E1,0E0,2.045079E1,1.5517809E1,8.874954E0,9.509096E0,1.7760025E1,0E0,7.7118034E0,0E0,5.7150955E0,0E0,1.3399371E1,1.8502586E0,1.3674164E1,0E0,2.5025156E0,4.6855826E0,4.7296486E0,0E0,0E0,2.5873413E0,0E0,0E0,0E0,0E0,0E0,0E0,0E0,0E0,0E0,0E0,0E0,0E0],"parents":[2147483647,0,0,1,1,2,2,3,3,5,5,7,7,8,8,9,9,10,10,11,11,13,13,15,15,17,17,18,18,19,19,21,21,22,22,23,23,26,26],"right_children":[2,4,6,8,-1,10,-1,12,14,16,18,20,-1,22,-1,24,-1,26,28,30,-1,32,34,36,-1,-1,38,-1,-1,-1,-1,-1,-1,-1,-1,-1,-1,-1,-1],"split_conditions":[1E0,1E0,1E0,1E0,2.8603723E-2,1E0,-5.0192293E-2,1E0,1E0,1E0,1E0,1E0,2.253421E-2,1E0,-4.688457E-2,1E0,-3.2390404E-2,1E0,1E0,1E0,2.9130492E-2,1E0,1E0,1E0,-2.397088E-2,-5.9018254E-2,1E0,-4.5694443E-3,2.8931348E-2,-4.6851207E-2,-1.9452674E-2,-2.5907189E-2,1.0035158E-2,1.767917E-2,-1.9190395E-2,2.3154708E-2,-1.4983351E-2,2.8647365E-2,-1.3664181E-2],"split_indices":[1452,1729,1932,695,0,1791,0,552,1228,984,1070,1810,0,80,0,1820,0,787,74,1480,0,193,1573,197,0,0,114,0,0,0,0,0,0,0,0,0,0,0,0],"split_type":[0,0,0,0,0,0,0,0,0,0,0,0,0,0,0,0,0,0,0,0,0,0,0,0,0,0,0,0,0,0,0,0,0,0,0,0,0,0,0],"sum_hessian":[1.3307085E2,6.9898E1,6.3172844E1,5.6801067E1,1.309694E1,6.040419E1,2.7686534E0,3.675317E1,2.0047894E1,5.1858482E1,8.545707E0,3.3599815E1,3.1533568E0,1.711433E1,2.9335637E0,5.0516636E1,1.3418473E0,5.727039E0,2.818668E0,3.1718828E1,1.8809861E0,4.7562017E0,1.2358129E1,4.9357887E1,1.1587495E0,3.2401524E0,2.4868863E0,1.2183882E0,1.6002798E0,1.879277E1,1.2926058E1,3.7156901E0,1.0405115E0,1.0683598E1,1.6745309E0,4.7952724E1,1.4051621E0,1.0525044E0,1.4343818E0],"tree_param":{"num_deleted":"0","num_feature":"2048","num_nodes":"39","size_leaf_vector":"1"}},{"base_weights":[1.7309311E-1,3.1598008E-1,-1.815943E0,3.8626614E-1,-5.407533E-2,-2.1988757E0,2.0254517E-3,4.4699335E-1,-5.700386E-2,-1.7267708E0,-5.810812E-2,5.046479E-1,-5.953413E-2,-4.8065193E-2,-1.6610246E-2,-2.8690264E-1,6.866206E-1,-2.7799539E-3,-6.753442E-2,1.5071302E-2,-3.6748778E-2],"categories":[],"categories_nodes":[],"categories_segments":[],"categories_sizes":[],"default_left":[0,0,0,0,0,0,0,0,0,0,0,0,0,0,0,0,0,0,0,0,0],"id":5,"left_children":[1,3,5,7,-1,9,-1,11,-1,13,-1,15,-1,-1,-1,17,19,-1,-1,-1,-1],"loss_changes":[3.817401E1,2.6015654E1,6.604555E0,2.3538982E1,0E0,2.242611E0,0E0,2.3202528E1,0E0,2.4333315E0,0E0,1.7009132E1,0E0,0E0,0E0,1.0035564E1,1.1565361E1,0E0,0E0,0E0,0E0],"parents":[2147483647,0,0,1,1,2,2,3,3,5,5,7,7,9,9,11,11,15,15,16,16],"right_children":[2,4,6,8,-1,10,-1,12,-1,14,-1,16,-1,-1,-1,18,20,-1,-1,-1,-1],"split_conditions":[1E0,1E0,1E0,1E0,-5.407533E-2,1E0,2.0254517E-3,1E0,-5.700386E-2,1E0,-5.810812E-2,1E0,-5.953413E-2,-4.8065193E-2,-1.6610246E-2,1E0,1E0,-2.7799539E-3,-6.753442E-2,1.5071302E-2,-3.6748778E-2],"split_indices":[1195,1847,656,1867,0,1589,0,1863,0,1440,0,1088,0,0,0,622,1792,0,0,0,0],"split_type":[0,0,0,0,0,0,0,0,0,0,0,0,0,0,0,0,0,0,0,0,0],"sum_hessian":[1.343272E2,1.2532523E2,9.00196E0,1.22413246E2,2.911982E0,7.502507E0,1.4994527E0,1.2011087E2,2.3023787E0,4.307434E0,3.1950734E0,1.18080086E2,2.0307846E0,2.5713496E0,1.7360843E0,2.2069761E1,9.601032E1,2.101349E1,1.0562708E0,9.416557E1,1.844751E0],"tree_param":{"num_deleted":"0","num_feature":"2048","num_nodes":"21","size_leaf_vector":"1"}},{"base_weights":[6.885106E-2,2.346664E-1,-2.3666415E0,-2.2743538E-1,7.3374754E-1,-2.8511683E-2,-5.3258847E-2,-1.0443873E0,5.7850766E-1,8.64248E-1,-2.0719326E0,-1.3790214E0,2.0601114E-2,7.911744E-1,-4.3008983E-2,9.909154E-1,-3.7955126E-1,-2.5603194E-2,-6.0771234E-2,-1.6848851E0,6.327885E-1,9.2953473E-1,-5.0577905E-2,3.3979523E-1,1.2590731E0,-5.1169675E-2,6.1099374E-1,-4.570925E-2,-8.516534E-3,-1.3281964E-2,2.8841842E-2,2.1282522E-2,-1.4717383E-2,2.8789777E-3,2.8222004E-2,3.8917272E-3,2.7303776E-2,2.864277E-2,-7.5802375E-3],"categories":[],"categories_nodes":[],"categories_segments":[],"categories_sizes":[],"default_left":[0,0,0,0,0,0,0,0,0,0,0,0,0,0,0,0,0,0,0,0,0,0,0,0,0,0,0,0,0,0,0,0,0,0,0,0,0,0,0],"id":6,"left_children":[1,3,5,7,9,-1,-1,11,13,15,17,19,-1,21,-1,23,25,-1,-1,27,29,31,-1,33,35,-1,37,-1,-1,-1,-1,-1,-1,-1,-1,-1,-1,-1,-1],"loss_changes":[5.646526E1,3.019406E1,2.0047607E0,4.475708E1,2.3043839E1,0E0,0E0,2.3151863E1,1.9474836E1,9.477104E0,2.0460634E0,1.7859692E1,0E0,1.4288813E1,0E0,9.528137E0,1.1656262E1,0E0,0E0,1.7420868E1,3.7981796E0,5.4452324E0,0E0,3.289206E0,3.009426E0,0E0,2.9212039E0,0E0,0E0,0E0,0E0,0E0,0E0,0E0,0E0,0E0,0E0,0E0,0E0],"parents":[2147483647,0,0,1,1,2,2,3,3,4,4,7,7,8,8,9,9,10,10,11,11,13,13,15,15,16,16,19,19,20,20,21,21,23,23,24,24,26,26],"right_children":[2,4,6,8,10,-1,-1,12,14,16,18,20,-1,22,-1,24,26,-1,-1,28,30,32,-1,34,36,-1,38,-1,-1,-1,-1,-1,-1,-1,-1,-1,-1,-1,-1],"split_conditions":[1E0,1E0,1E0,1E0,1E0,-2.8511683E-2,-5.3258847E-2,1E0,1E0,1E0,1E0,1E0,2.0601114E-2,1E0,-4.3008983E-2,1E0,1E0,-2.5603194E-2,-6.0771234E-2,1E0,1E0,1E0,-5.0577905E-2,1E0,1E0,-5.1169675E-2,1E0,-4.570925E-2,-8.516534E-3,-1.3281964E-2,2.8841842E-2,2.1282522E-2,-1.4717383E-2,2.8789777E-3,2.8222004E-2,3.8917272E-3,2.7303776E-2,2.864277E-2,-7.5802375E-3],"split_indices":[1195,695,1380,1452,118,0,0,45,74,703,1199,552,0,1708,0,322,1252,0,0,1589,896,1214,0,1729,1917,0,1683,0,0,0,0,0,0,0,0,0,0,0,0],"split_type":[0,0,0,0,0,0,0,0,0,0,0,0,0,0,0,0,0,0,0,0,0,0,0,0,0,0,0,0,0,0,0,0,0,0,0,0,0,0,0],"sum_hessian":[1.3982997E2,1.3091762E2,8.912352E0,6.7975235E1,6.2942387E1,1.7104493E0,7.2019024E0,3.375822E1,3.4217014E1,6.0145603E1,2.7967823E0,2.9020517E1,4.7377048E0,3.1699175E1,2.517838E0,5.4587975E1,5.5576296E0,1.4564625E0,1.3403198E0,2.5191519E1,3.8289986E0,3.0408653E1,1.290523E0,1.59257345E1,3.866224E1,1.7722895E0,3.7853398E0,1.7624384E1,7.5671353E0,1.4416554E0,2.3873432E0,2.8527988E1,1.8806645E0,1.3359382E1,2.5663533E0,2.4685118E0,3.619373E1,2.1020584E0,1.6832814E0],"tree_param":{"num_deleted":"0","num_feature":"2048","num_nodes":"39","size_leaf_vector":"1"}},{"base_weights":[-2.1076508E-2,7.463292E-2,-5.1973775E-2,1.6926165E-1,-5.379299E-2,2.9809308E-1,-1.6291698E0,-1.1154709E-2,9.0307367E-1,-2.3436892E0,2.8688237E-2,-3.5330346E-1,9.411305E-1,1.0194999E0,-6.725128E-2,-5.4132592E-2,-3.28025E-2,-1.7724518E-2,8.72194E-3,2.1815324E-2,-1.3801788E-2,2.450506E-2,4.5056076E-4],"categories":[],"categories_nodes":[],"categories_segments":[],"categories_sizes":[],"default_left":[0,0,0,0,0,0,0,0,0,0,0,0,0,0,0,0,0,0,0,0,0,0,0],"id":7,"left_children":[1,3,-1,5,-1,7,9,11,13,15,-1,17,19,21,-1,-1,-1,-1,-1,-1,-1,-1,-1],"loss_changes":[3.2014175E1,3.27193E1,0E0,2.8680609E1,0E0,2.161473E1,1.7908407E1,2.4906118E1,1.9031366E1,1.4700241E0,0E0,2.2396748E1,4.01528E0,6.6696396E0,0E0,0E0,0E0,0E0,0E0,0E0,0E0,0E0,0E0],"parents":[2147483647,0,0,1,1,3,3,5,5,6,6,7,7,8,8,9,9,11,11,12,12,13,13],"right_children":[2,4,-1,6,-1,8,10,12,14,16,-1,18,20,22,-1,-1,-1,-1,-1,-1,-1,-1,-1],"split_conditions":[1E0,1E0,-5.1973775E-2,1E0,-5.379299E-2,1E0,1E0,1E0,1E0,1E0,2.8688237E-2,1E0,1E0,1E0,-6.725128E-2,-5.4132592E-2,-3.28025E-2,-1.7724518E-2,8.72194E-3,2.1815324E-2,-1.3801788E-2,2.450506E-2,4.5056076E-4],"split_indices":[41,118,0,119,0,322,796,980,1951,875,0,1855,1065,703,0,0,0,0,0,0,0,0,0],"split_type":[0,0,0,0,0,0,0,0,0,0,0,0,0,0,0,0,0,0,0,0,0,0,0],"sum_hessian":[1.330151E2,1.2813686E2,4.8782477E0,1.23796936E2,4.3399262E0,1.1552259E2,8.274345E0,7.6443794E1,3.9078796E1,6.6954203E0,1.5789244E0,5.6239468E1,2.0204323E1,3.8021286E1,1.0575129E0,4.782099E0,1.9133217E0,3.3950375E1,2.2289093E1,1.877431E1,1.4300127E0,3.2319675E1,5.7016096E0],"tree_param":{"num_deleted":"0","num_feature":"2048","num_nodes":"23","size_leaf_vector":"1"}},{"base_weights":[3.51027E-2,1.7790912E-1,-1.9733715E0,2.643439E-1,-4.5763943E-2,-1.2733259E0,-4.9211267E-2,3.3949712E-1,-2.1481528E0,-1.2798973E-2,-4.0368948E-2,3.8828954E-1,-5.889144E-2,-5.6215756E-2,-2.904687E-2,4.418836E-1,-5.2068986E-2,1.0523315E-2,-3.352739E-2],"categories":[],"categories_nodes":[],"categories_segments":[],"categories_sizes":[],"default_left":[0,0,0,0,0,0,0,0,0,0,0,0,0,0,0,0,0,0,0],"id":8,"left_children":[1,3,5,7,-1,9,-1,11,13,-1,-1,15,-1,-1,-1,17,-1,-1,-1],"loss_changes":[3.980978E1,2.6996075E1,2.7484283E0,2.2679714E1,0E0,1.5729761E0,0E0,1.9012527E1,1.6333046E0,0E0,0E0,1.8753063E1,0E0,0E0,0E0,1.742377E1,0E0,0E0,0E0],"parents":[2147483647,0,0,1,1,2,2,3,3,5,5,7,7,8,8,11,11,15,15],"right_children":[2,4,6,8,-1,10,-1,12,14,-1,-1,16,-1,-1,-1,18,-1,-1,-1],"split_conditions":[1E0,1E0,1E0,1E0,-4.5763943E-2,1E0,-4.9211267E-2,1E0,1E0,-1.2798973E-2,-4.0368948E-2,1E0,-5.889144E-2,-5.6215756E-2,-2.904687E-2,1E0,-5.2068986E-2,1.0523315E-2,-3.352739E-2],"split_indices":[1195,1847,1057,1035,0,389,0,97,389,0,0,1867,0,0,0,1989,0,0,0],"split_type":[0,0,0,0,0,0,0,0,0,0,0,0,0,0,0,0,0,0,0],"sum_hessian":[1.3880736E2,1.2959402E2,9.213323E0,1.2510862E2,4.485409E0,3.4938834E0,5.719439E0,1.21329895E2,3.778727E0,1.8095427E0,1.6843407E0,1.1951529E2,1.8146082E0,2.083019E0,1.695708E0,1.1736799E2,2.1472943E0,1.1346551E2,3.902486E0],"tree_param":{"num_deleted":"0","num_feature":"2048","num_nodes":"19","size_leaf_vector":"1"}},{"base_weights":[9.6507765E-2,-2.6412445E-1,7.734193E-1,-5.73316E-1,8.569633E-1,8.661873E-1,-6.468893E-2,-9.733192E-1,8.168077E-1,2.917964E-1,2.3386506E-2,9.3788385E-1,-3.723277E-2,-1.770607E0,-2.0556621E-1,2.442043E-2,-2.7767057E-2,-2.4377519E-1,2.8562443E-2,1.0105039E0,-1.9218545E-2,-2.0257227E0,1.5526511E-1,9.700472E-1,-8.62541E-1,-7.5464725E-1,2.8886553E-2,-1.9512735E-2,2.8373389E-2,1.069224E0,-2.082281E-2,-4.5588642E-2,-8.668933E-3,3.0433565E-2,-2.0119E-2,2.5455697E-2,4.948644E-4,-2.2288464E-2,2.8748188E-2,-4.1971415E-2,1.4310132E-2,2.3555567E-2,-5.012046E-3],"categories":[],"categories_nodes":[],"categories_segments":[],"categories_sizes":[],"default_left":[0,0,0,0,0,0,0,0,0,0,0,0,0,0,0,0,0,0,0,0,0,0,0,0,0,0,0,0,0,0,0,0,0,0,0,0,0,0,0,0,0,0,0],"id":9,"left_children":[1,3,5,7,9,11,-1,13,15,17,-1,19,-1,21,23,-1,25,27,-1,29,-1,31,33,35,37,39,-1,-1,-1,41,-1,-1,-1,-1,-1,-1,-1,-1,-1,-1,-1,-1,-1],"loss_changes":[3.2907475E1,3.04833E1,1.707452E1,3.8331055E1,3.047223E0,8.802288E0,0E0,3.2763786E1,4.8735504E0,3.7534816E0,0E0,6.072315E0,0E0,1.290535E1,2.1063494E1,0E0,4.939127E0,4.9298496E0,0E0,5.1074295E0,0E0,7.361412E0,4.6415277E0,2.510416E0,8.905766E0,5.903738E0,0E0,0E0,0E0,4.379032E0,0E0,0E0,0E0,0E0,0E0,0E0,0E0,0E0,0E0,0E0,0E0,0E0,0E0],"parents":[2147483647,0,0,1,1,2,2,3,3,4,4,5,5,7,7,8,8,9,9,11,11,13,13,14,14,16,16,17,17,19,19,21,21,22,22,23,23,24,24,25,25,29,29],"right_children":[2,4,6,8,10,12,-1,14,16,18,-1,20,-1,22,24,-1,26,28,-1,30,-1,32,34,36,38,40,-1,-1,-1,42,-1,-1,-1,-1,-1,-1,-1,-1,-1,-1,-1,-1,-1],"split_conditions":[1E0,1E0,1E0,1E0,1E0,1E0,-6.468893E-2,1E0,1E0,1E0,2.3386506E-2,1E0,-3.723277E-2,1E0,1E0,2.442043E-2,1E0,1E0,2.8562443E-2,1E0,-1.9218545E-2,1E0,1E0,1E0,1E0,1E0,2.8886553E-2,-1.9512735E-2,2.8373389E-2,1E0,-2.082281E-2,-4.5588642E-2,-8.668933E-3,3.0433565E-2,-2.0119E-2,2.5455697E-2,4.948644E-4,-2.2288464E-2,2.8748188E-2,-4.1971415E-2,1.4310132E-2,2.3555567E-2,-5.012046E-3],"split_indices":[322,1693,1951,896,1184,585,0,1480,736,1111,0,1087,0,841,2009,0,283,652,0,1990,0,1028,807,940,1840,1019,0,0,0,1365,0,0,0,0,0,0,0,0,0,0,0,0,0],"split_type":[0,0,0,0,0,0,0,0,0,0,0,0,0,0,0,0,0,0,0,0,0,0,0,0,0,0,0,0,0,0,0,0,0,0,0,0,0,0,0,0,0,0,0],"sum_hessian":[1.3479832E2,8.794297E1,4.6855354E1,6.893323E1,1.900974E1,4.5775166E1,1.0801907E0,5.353122E1,1.5402008E1,6.3583665E0,1.2651375E1,4.4584324E1,1.1908398E0,2.6259197E1,2.7272022E1,1.0672224E1,4.7297845E0,4.2771697E0,2.081197E0,4.2923317E1,1.6610084E0,2.3188463E1,3.0707345E0,9.775835E0,1.7496187E1,3.141844E0,1.5879405E0,2.981502E0,1.2956676E0,4.1715443E1,1.2078732E0,2.0635511E1,2.5529523E0,1.4161896E0,1.6545448E0,7.5925612E0,2.1832736E0,1.5917638E1,1.5785487E0,1.6630886E0,1.4787556E0,3.932594E1,2.3895044E0],"tree_param":{"num_deleted":"0","num_feature":"2048","num_nodes":"43","size_leaf_vector":"1"}},{"base_weights":[8.4724426E-2,-3.4340626E-1,6.359456E-1,-7.665162E-1,2.649564E-2,8.024999E-1,-5.1475123E-2,-1.3689344E0,-1.3733244E-1,8.8921195E-1,-5.8209803E-2,4.7880996E-2,-1.7653298E0,8.9777306E-2,-5.3788558E-2,9.66965E-1,-6.4605705E-2,2.1215538E-2,-5.5480238E-2,-1.9015442E0,2.8505124E-2,-1.7472017E-1,2.5355572E-2,1.0266328E0,-2.6922118E-2,-4.1247606E-2,1.0755936E-2,3.3086634E-3,-2.0994898E-2,2.1901017E-2,2.88399E-4],"categories":[],"categories_nodes":[],"categories_segments":[],"categories_sizes":[],"default_left":[0,0,0,0,0,0,0,0,0,0,0,0,0,0,0,0,0,0,0,0,0,0,0,0,0,0,0,0,0,0,0],"id":10,"left_children":[1,3,5,7,-1,9,-1,11,13,15,-1,17,19,21,-1,23,-1,-1,-1,25,-1,27,-1,29,-1,-1,-1,-1,-1,-1,-1],"loss_changes":[3.338996E1,5.5117966E1,3.2417023E1,2.3977982E1,0E0,1.8548923E1,0E0,1.815501E1,1.7482533E1,1.8023869E1,0E0,1.920422E1,1.08581085E1,8.606213E0,0E0,7.6592636E0,0E0,0E0,0E0,6.500656E0,0E0,6.58109E0,0E0,2.3172455E0,0E0,0E0,0E0,0E0,0E0,0E0,0E0],"parents":[2147483647,0,0,1,1,2,2,3,3,5,5,7,7,8,8,9,9,11,11,12,12,13,13,15,15,19,19,21,21,23,23],"right_children":[2,4,6,8,-1,10,-1,12,14,16,-1,18,20,22,-1,24,-1,-1,-1,26,-1,28,-1,30,-1,-1,-1,-1,-1,-1,-1],"split_conditions":[1E0,1E0,1E0,1E0,2.649564E-2,1E0,-5.1475123E-2,1E0,1E0,1E0,-5.8209803E-2,1E0,1E0,1E0,-5.3788558E-2,1E0,-6.4605705E-2,2.1215538E-2,-5.5480238E-2,1E0,2.8505124E-2,1E0,2.5355572E-2,1E0,-2.6922118E-2,-4.1247606E-2,1.0755936E-2,3.3086634E-3,-2.0994898E-2,2.1901017E-2,2.88399E-4],"split_indices":[1452,1729,370,1480,0,1349,0,807,97,186,0,321,1738,1097,0,750,0,0,0,1914,0,1683,0,715,0,0,0,0,0,0,0],"split_type":[0,0,0,0,0,0,0,0,0,0,0,0,0,0,0,0,0,0,0,0,0,0,0,0,0,0,0,0,0,0,0],"sum_hessian":[1.4148346E2,7.963103E1,6.1852436E1,6.326869E1,1.6362339E1,5.874414E1,3.1082954E0,3.23202E1,3.0948484E1,5.7378677E1,1.3654636E0,7.0646553E0,2.5255548E1,2.8357819E1,2.5906658E0,5.6296005E1,1.0826713E0,5.2014136E0,1.8632418E0,2.4211197E1,1.044351E0,2.304312E1,5.3146987E0,5.486137E1,1.4346371E0,2.3156307E1,1.0548886E0,1.6508636E1,6.5344825E0,5.268702E1,2.1743515E0],"tree_param":{"num_deleted":"0","num_feature":"2048","num_nodes":"31","size_leaf_vector":"1"}},{"base_weights":[-7.817718E-2,-5.778525E-1,4.786098E-1,-9.5462424E-1,2.7566452E-2,6.452736E-1,-3.766102E-2,-1.4096543E0,-4.4856995E-1,7.277796E-1,-6.149938E-2,-1.622819E0,2.0678079E-2,-3.0730057E-1,-5.430704E-2,8.226117E-1,-1.8172431E0,-1.9903033E0,-2.0345496E-1,-6.0886407E-1,2.0261766E-2,8.827452E-1,-4.581089E-2,-6.2126845E-2,-1.0004789E-2,-4.5973152E-2,-1.8580504E-2,6.7877397E-3,-3.409325E-2,-5.6112944E-3,-5.252347E-2,1.9326253E-2,-3.139447E-2],"categories":[],"categories_nodes":[],"categories_segments":[],"categories_sizes":[],"default_left":[0,0,0,0,0,0,0,0,0,0,0,0,0,0,0,0,0,0,0,0,0,0,0,0,0,0,0,0,0,0,0,0,0],"id":11,"left_children":[1,3,5,7,-1,9,-1,11,13,15,-1,17,-1,19,-1,21,23,25,27,29,-1,31,-1,-1,-1,-1,-1,-1,-1,-1,-1,-1,-1],"loss_changes":[3.7987965E1,5.212877E1,2.4922672E1,1.3852329E1,0E0,1.8115126E1,0E0,1.6333664E1,8.851752E0,1.4216475E1,0E0,1.518251E1,0E0,1.04608755E1,0E0,1.0439594E1,3.405332E0,6.3201447E0,4.6761317E0,1.4213105E1,0E0,8.072372E0,0E0,0E0,0E0,0E0,0E0,0E0,0E0,0E0,0E0,0E0,0E0],"parents":[2147483647,0,0,1,1,2,2,3,3,5,5,7,7,8,8,9,9,11,11,13,13,15,15,16,16,17,17,18,18,19,19,21,21],"right_children":[2,4,6,8,-1,10,-1,12,14,16,-1,18,-1,20,-1,22,24,26,28,30,-1,32,-1,-1,-1,-1,-1,-1,-1,-1,-1,-1,-1],"split_conditions":[1E0,1E0,1E0,1E0,2.7566452E-2,1E0,-3.766102E-2,1E0,1E0,1E0,-6.149938E-2,1E0,2.0678079E-2,1E0,-5.430704E-2,1E0,1E0,1E0,1E0,1E0,2.0261766E-2,1E0,-4.581089E-2,-6.2126845E-2,-1.0004789E-2,-4.5973152E-2,-1.8580504E-2,6.7877397E-3,-3.409325E-2,-5.6112944E-3,-5.252347E-2,1.9326253E-2,-3.139447E-2],"split_indices":[1452,1729,362,1480,0,1302,0,323,1114,750,0,841,0,980,0,1708,703,775,1,1019,0,14,0,0,0,0,0,0,0,0,0,0,0],"split_type":[0,0,0,0,0,0,0,0,0,0,0,0,0,0,0,0,0,0,0,0,0,0,0,0,0,0,0,0,0,0,0,0,0],"sum_hessian":[1.3654195E2,7.196347E1,6.457848E1,6.0172577E1,1.1790896E1,6.0243774E1,4.334708E0,3.168147E1,2.8491104E1,5.8911053E1,1.3327197E0,2.9115921E1,2.5655506E0,2.6773417E1,1.7176874E0,5.6795586E1,2.115469E0,2.3126814E1,5.989107E0,2.17199E1,5.053516E0,5.5700756E1,1.0948279E0,1.1050441E0,1.010425E0,1.8757416E1,4.369398E0,4.3828E0,1.6063071E0,1.8540142E1,3.1797585E0,5.4350086E1,1.3506715E0],"tree_param":{"num_deleted":"0","num_feature":"2048","num_nodes":"33","size_leaf_vector":"1"}},{"base_weights":[5.60464E-2,-2.6935038E-1,7.0554477E-1,-1.3035558E0,1.6328195E-1,9.0349454E-1,-4.2106833E-2,-1.8093419E0,1.9131832E-1,3.654187E-1,-3.81942E-2,1.0137602E0,-2.4961802E-1,-4.7393963E-1,-2.185789E0,-4.2183556E-2,1.9572627E-2,5.010629E-1,-1.9685254E0,1.080577E0,-6.3792616E-3,-2.443497E-2,1.6067863E-2,2.9920006E-1,-4.9870048E-2,-2.4642043E0,-2.6079558E-3,5.8925015E-1,-5.1002197E-2,-2.0282587E-2,-5.3174138E-2,2.3556285E-2,3.488848E-5,-1.1220646E-2,3.2770097E-2,-5.3935498E-2,-9.1349855E-3,1.3677183E-2,-5.9882145E-2],"categories":[],"categories_nodes":[],"categories_segments":[],"categories_sizes":[],"default_left":[0,0,0,0,0,0,0,0,0,0,0,0,0,0,0,0,0,0,0,0,0,0,0,0,0,0,0,0,0,0,0,0,0,0,0,0,0,0,0],"id":12,"left_children":[1,3,5,7,9,11,-1,13,15,17,-1,19,21,23,25,-1,-1,27,29,31,-1,-1,-1,33,-1,35,-1,37,-1,-1,-1,-1,-1,-1,-1,-1,-1,-1,-1],"loss_changes":[2.7934143E1,3.9399597E1,2.4097603E1,1.964E1,2.5427256E1,5.235569E0,0E0,9.750732E0,1.1271449E1,1.7868946E1,0E0,3.3278809E0,3.4985523E0,6.4693246E0,8.671112E0,0E0,0E0,1.4059858E1,1.8910656E0,2.6435127E0,0E0,0E0,0E0,3.3685246E0,0E0,4.486038E0,0E0,1.4177784E1,0E0,0E0,0E0,0E0,0E0,0E0,0E0,0E0,0E0,0E0,0E0],"parents":[2147483647,0,0,1,1,2,2,3,3,4,4,5,5,7,7,8,8,9,9,11,11,12,12,13,13,14,14,17,17,18,18,19,19,23,23,25,25,27,27],"right_children":[2,4,6,8,10,12,-1,14,16,18,-1,20,22,24,26,-1,-1,28,30,32,-1,-1,-1,34,-1,36,-1,38,-1,-1,-1,-1,-1,-1,-1,-1,-1,-1,-1],"split_conditions":[1E0,1E0,1E0,1E0,1E0,1E0,-4.2106833E-2,1E0,1E0,1E0,-3.81942E-2,1E0,1E0,1E0,1E0,-4.2183556E-2,1.9572627E-2,1E0,1E0,1E0,-6.3792616E-3,-2.443497E-2,1.6067863E-2,1E0,-4.9870048E-2,1E0,-2.6079558E-3,1E0,-5.1002197E-2,-2.0282587E-2,-5.3174138E-2,2.3556285E-2,3.488848E-5,-1.1220646E-2,3.2770097E-2,-5.3935498E-2,-9.1349855E-3,1.3677183E-2,-5.9882145E-2],"split_indices":[322,378,118,695,119,310,0,1380,1480,1349,0,289,781,1589,1855,0,0,1114,1152,1365,0,0,0,401,0,1631,0,1839,0,0,0,0,0,0,0,0,0,0,0],"split_type":[0,0,0,0,0,0,0,0,0,0,0,0,0,0,0,0,0,0,0,0,0,0,0,0,0,0,0,0,0,0,0,0,0,0,0,0,0,0,0],"sum_hessian":[1.3216922E2,8.805237E1,4.4116848E1,2.5971586E1,6.2080784E1,4.1164837E1,2.9520133E0,1.9406658E1,6.564928E0,5.645099E1,5.629794E0,3.757356E1,3.5912764E0,4.268833E0,1.5137826E1,1.6630496E0,4.9018784E0,5.335124E1,3.0997517E0,3.577111E1,1.8024504E0,1.87936E0,1.7119163E0,3.0601444E0,1.2086885E0,1.3333549E1,1.8042774E0,5.182303E1,1.528207E0,1.2095822E0,1.8901695E0,3.363224E1,2.1388695E0,1.8520927E0,1.2080518E0,1.2314394E1,1.0191537E0,5.069784E1,1.1251894E0],"tree_param":{"num_deleted":"0","num_feature":"2048","num_nodes":"39","size_leaf_vector":"1"}},{"base_weights":[-3.425191E-2,-2.6863033E-1,9.9153376E-1,-4.7378862E-1,1.0522087E0,1.0940261E0,-8.515261E-3,-2.84333E-1,-1.8919948E0,2.4053134E-2,-1.191345E-3,2.39382E-2,-9.834215E-3,-5.8714867E-1,4.4338214E-1,-2.4285815E0,-1.1441895E-1,-4.5025322E-1,-2.188592E0,6.3437E-1,-5.214931E-2,-5.359914E-2,-2.8804442E-2,-2.0078614E-2,1.4144757E-2,-6.6319574E-3,-5.0291292E-2,-5.5675305E-2,-8.344565E-3,1.654002E-2,-3.7822448E-2],"categories":[],"categories_nodes":[],"categories_segments":[],"categories_sizes":[],"default_left":[0,0,0,0,0,0,0,0,0,0,0,0,0,0,0,0,0,0,0,0,0,0,0,0,0,0,0,0,0,0,0],"id":13,"left_children":[1,3,5,7,9,11,-1,13,15,-1,-1,-1,-1,17,19,21,23,25,27,29,-1,-1,-1,-1,-1,-1,-1,-1,-1,-1,-1],"loss_changes":[3.1331894E1,2.8746853E1,3.496441E0,2.4668463E1,1.9207125E0,2.623211E0,0E0,1.7851254E1,1.0315624E1,0E0,0E0,0E0,0E0,1.2535965E1,1.35765E1,1.5747871E0,1.7471987E0,1.3372937E1,4.2254353E0,9.566344E0,0E0,0E0,0E0,0E0,0E0,0E0,0E0,0E0,0E0,0E0,0E0],"parents":[2147483647,0,0,1,1,2,2,3,3,4,4,5,5,7,7,8,8,13,13,14,14,15,15,16,16,17,17,18,18,19,19],"right_children":[2,4,6,8,10,12,-1,14,16,-1,-1,-1,-1,18,20,22,24,26,28,30,-1,-1,-1,-1,-1,-1,-1,-1,-1,-1,-1],"split_conditions":[1E0,1E0,1E0,1E0,1E0,1E0,-8.515261E-3,1E0,1E0,2.4053134E-2,-1.191345E-3,2.39382E-2,-9.834215E-3,1E0,1E0,1E0,1E0,1E0,1E0,1E0,-5.214931E-2,-5.359914E-2,-2.8804442E-2,-2.0078614E-2,1.4144757E-2,-6.6319574E-3,-5.0291292E-2,-5.5675305E-2,-8.344565E-3,1.654002E-2,-3.7822448E-2],"split_indices":[980,1729,1385,1,656,233,0,1866,656,0,0,0,0,314,1671,41,695,110,1722,1349,0,0,0,0,0,0,0,0,0,0,0],"split_type":[0,0,0,0,0,0,0,0,0,0,0,0,0,0,0,0,0,0,0,0,0,0,0,0,0,0,0,0,0,0,0],"sum_hessian":[1.3032587E2,1.06088104E2,2.423777E1,9.182672E1,1.4261385E1,2.2593275E1,1.6444938E0,8.1006676E1,1.0820041E1,1.2859815E1,1.4015709E0,2.158327E1,1.0100071E0,5.7205196E1,2.3801483E1,8.3103285E0,2.5097125E0,5.2701492E1,4.503704E0,2.2371933E1,1.4295496E0,7.0298724E0,1.2804556E0,1.2104176E0,1.2992947E0,4.9566612E1,3.1348782E0,3.4741244E0,1.0295796E0,2.0917576E1,1.4543571E0],"tree_param":{"num_deleted":"0","num_feature":"2048","num_nodes":"31","size_leaf_vector":"1"}},{"base_weights":[5.4709826E-2,-1.5129423E-1,9.7445804E-1,1.0246512E-2,-1.6230142E0,6.656136E-1,2.5959676E-2,-1.5919518E-1,2.5377844E-2,-2.2026465E0,2.7914755E-2,4.716526E-1,2.7295394E-2,9.4696484E-4,-1.6292644E0,-5.3294763E-2,-1.4539156E-2,9.186272E-1,-2.3131952E-2,9.972336E-2,-4.4067148E-2,-1.8981732E0,-8.100755E-3,-7.8209415E-3,2.3926463E-2,3.908075E-3,-4.711762E-2,-4.6331853E-2,-1.872697E-2],"categories":[],"categories_nodes":[],"categories_segments":[],"categories_sizes":[],"default_left":[0,0,0,0,0,0,0,0,0,0,0,0,0,0,0,0,0,0,0,0,0,0,0,0,0,0,0,0,0],"id":14,"left_children":[1,3,5,7,9,11,-1,13,-1,15,-1,17,-1,19,21,-1,-1,23,-1,25,-1,27,-1,-1,-1,-1,-1,-1,-1],"loss_changes":[2.5108467E1,2.5741095E1,2.1825047E0,2.0295788E1,1.8528934E1,1.518888E0,0E0,2.018322E1,0E0,5.313015E0,0E0,6.5298357E0,0E0,1.6416758E1,2.7903442E0,0E0,0E0,2.3082967E0,0E0,1.6111067E1,0E0,2.457981E0,0E0,0E0,0E0,0E0,0E0,0E0,0E0],"parents":[2147483647,0,0,1,1,2,2,3,3,4,4,5,5,7,7,9,9,11,11,13,13,14,14,17,17,19,19,21,21],"right_children":[2,4,6,8,10,12,-1,14,-1,16,-1,18,-1,20,22,-1,-1,24,-1,26,-1,28,-1,-1,-1,-1,-1,-1,-1],"split_conditions":[1E0,1E0,1E0,1E0,1E0,1E0,2.5959676E-2,1E0,2.5377844E-2,1E0,2.7914755E-2,1E0,2.7295394E-2,1E0,1E0,-5.3294763E-2,-1.4539156E-2,1E0,-2.3131952E-2,1E0,-4.4067148E-2,1E0,-8.100755E-3,-7.8209415E-3,2.3926463E-2,3.908075E-3,-4.711762E-2,-4.6331853E-2,-1.872697E-2],"split_indices":[980,314,935,1729,45,806,0,1,0,841,0,1,0,41,1325,0,0,389,0,1867,0,1028,0,0,0,0,0,0,0],"split_type":[0,0,0,0,0,0,0,0,0,0,0,0,0,0,0,0,0,0,0,0,0,0,0,0,0,0,0,0,0],"sum_hessian":[1.3250966E2,1.0825978E2,2.4249868E1,9.755109E1,1.07087E1,1.1786676E1,1.2463192E1,8.571945E1,1.1831632E1,8.967844E0,1.7408559E0,9.13038E0,2.656297E0,7.729783E1,8.421626E0,7.08268E0,1.8851643E0,7.1377406E0,1.9926394E0,7.3904495E1,3.3933282E0,6.9135447E0,1.5080813E0,1.1443348E0,5.993406E0,7.120585E1,2.6986463E0,5.053489E0,1.8600554E0],"tree_param":{"num_deleted":"0","num_feature":"2048","num_nodes":"29","size_leaf_vector":"1"}},{"base_weights":[4.1878823E-2,2.1170524E-1,-1.807056E0,4.4276625E-2,2.460464E-2,-1.3219858E0,-4.3181453E-2,-7.6778203E-1,3.6076325E-1,-1.5776832E-2,-4.9051538E-2,-1.0665503E0,7.723034E-1,4.665916E-1,-4.5356456E-2,-1.3230305E0,7.053055E-1,3.8862207E-3,2.7335206E-2,5.7077265E-1,-3.616449E-2,-3.152424E-2,1.8824035E-2,-1.1717008E-3,2.7365176E-2,1.3497664E-2,-4.536937E-2],"categories":[],"categories_nodes":[],"categories_segments":[],"categories_sizes":[],"default_left":[0,0,0,0,0,0,0,0,0,0,0,0,0,0,0,0,0,0,0,0,0,0,0,0,0,0,0],"id":15,"left_children":[1,3,5,7,-1,9,-1,11,13,-1,-1,15,17,19,-1,21,23,-1,-1,25,-1,-1,-1,-1,-1,-1,-1],"loss_changes":[4.1877594E1,2.0216755E1,1.6226997E0,2.6848166E1,0E0,2.5283475E0,0E0,1.3480196E1,2.046901E1,0E0,0E0,1.11518135E1,1.553216E0,1.6778557E1,0E0,1.0320721E1,1.4915161E0,0E0,0E0,1.683542E1,0E0,0E0,0E0,0E0,0E0,0E0,0E0],"parents":[2147483647,0,0,1,1,2,2,3,3,5,5,7,7,8,8,11,11,12,12,13,13,15,15,16,16,19,19],"right_children":[2,4,6,8,-1,10,-1,12,14,-1,-1,16,18,20,-1,22,24,-1,-1,26,-1,-1,-1,-1,-1,-1,-1],"split_conditions":[1E0,1E0,1E0,1E0,2.460464E-2,1E0,-4.3181453E-2,1E0,1E0,-1.5776832E-2,-4.9051538E-2,1E0,1E0,1E0,-4.5356456E-2,1E0,1E0,3.8862207E-3,2.7335206E-2,1E0,-3.616449E-2,-3.152424E-2,1.8824035E-2,-1.1717008E-3,2.7365176E-2,1.3497664E-2,-4.536937E-2],"split_indices":[1195,1729,1057,378,0,716,0,843,1867,0,0,1520,102,1847,0,1631,729,0,0,339,0,0,0,0,0,0,0],"split_type":[0,0,0,0,0,0,0,0,0,0,0,0,0,0,0,0,0,0,0,0,0,0,0,0,0,0,0],"sum_hessian":[1.3337845E2,1.2215916E2,1.1219291E1,1.0446802E2,1.769114E1,4.2849774E0,6.934313E0,2.9295025E1,7.517299E1,2.8281903E0,1.4567871E0,2.453638E1,4.758644E0,7.220446E1,2.9685338E0,2.1434761E1,3.1016204E0,2.3362494E0,2.4223948E0,6.898376E1,3.2207003E0,1.956101E1,1.8737496E0,1.4015118E0,1.7001085E0,6.687836E1,2.1054008E0],"tree_param":{"num_deleted":"0","num_feature":"2048","num_nodes":"27","size_leaf_vector":"1"}},{"base_weights":[5.5693798E-2,-3.9006442E-1,5.865641E-1,-7.667425E-1,2.3893649E-2,7.864532E-1,-3.4907386E-2,-1.1708941E0,-3.229306E-1,8.2940066E-1,-2.8713895E-2,-1.6165079E0,-3.2290345E-1,-5.9909582E-2,-4.730738E-2,9.5824426E-1,1.0023205E-1,-2.0625722E0,-5.663005E-1,-6.313988E-1,1.8106746E-2,1.7176293E-1,-3.920504E-2,1.0132014E0,-2.6565729E-2,2.2931768E-2,-7.3411864E-1,-4.535931E-2,-2.8354354E-2,-1.9113919E-2,2.208748E-3,-2.3372548E-3,-5.912214E-2,6.645014E-3,-5.063864E-2,2.325763E-2,6.2302803E-3,-2.4684753E-2,1.1534786E-2],"categories":[],"categories_nodes":[],"categories_segments":[],"categories_sizes":[],"default_left":[0,0,0,0,0,0,0,0,0,0,0,0,0,0,0,0,0,0,0,0,0,0,0,0,0,0,0,0,0,0,0,0,0,0,0,0,0,0,0],"id":16,"left_children":[1,3,5,7,-1,9,-1,11,13,15,-1,17,19,21,-1,23,25,27,29,31,-1,33,-1,35,-1,-1,37,-1,-1,-1,-1,-1,-1,-1,-1,-1,-1,-1,-1],"loss_changes":[3.1770063E1,4.2761135E1,2.8041464E1,1.0535015E1,0E0,5.293064E0,0E0,1.1614742E1,1.4614922E1,5.190933E0,0E0,9.436092E0,3.941351E0,1.06165905E1,0E0,5.8186607E0,7.0558753E0,1.4357185E0,1.4846779E0,9.827672E0,0E0,8.8454275E0,0E0,3.9443207E0,0E0,0E0,2.782738E0,0E0,0E0,0E0,0E0,0E0,0E0,0E0,0E0,0E0,0E0,0E0,0E0],"parents":[2147483647,0,0,1,1,2,2,3,3,5,5,7,7,8,8,9,9,11,11,12,12,13,13,15,15,16,16,17,17,18,18,19,19,21,21,23,23,26,26],"right_children":[2,4,6,8,-1,10,-1,12,14,16,-1,18,20,22,-1,24,26,28,30,32,-1,34,-1,36,-1,-1,38,-1,-1,-1,-1,-1,-1,-1,-1,-1,-1,-1,-1],"split_conditions":[1E0,1E0,1E0,1E0,2.3893649E-2,1E0,-3.4907386E-2,1E0,1E0,1E0,-2.8713895E-2,1E0,1E0,1E0,-4.730738E-2,1E0,1E0,1E0,1E0,1E0,1.8106746E-2,1E0,-3.920504E-2,1E0,-2.6565729E-2,2.2931768E-2,1E0,-4.535931E-2,-2.8354354E-2,-1.9113919E-2,2.208748E-3,-2.3372548E-3,-5.912214E-2,6.645014E-3,-5.063864E-2,2.325763E-2,6.2302803E-3,-2.4684753E-2,1.1534786E-2],"split_indices":[1452,1729,362,378,0,248,0,695,1114,1765,0,1928,91,1228,0,14,1199,1440,926,1,0,1035,0,1,0,0,193,0,0,0,0,0,0,0,0,0,0,0,0],"split_type":[0,0,0,0,0,0,0,0,0,0,0,0,0,0,0,0,0,0,0,0,0,0,0,0,0,0,0,0,0,0,0,0,0,0,0,0,0,0,0],"sum_hessian":[1.342531E2,7.297462E1,6.127849E1,5.8750385E1,1.4224228E1,5.635875E1,4.9197392E0,3.0746746E1,2.800364E1,5.5274338E1,1.0844133E0,2.0153725E1,1.0593022E1,2.4727907E1,3.2757325E0,4.697179E1,8.302546E0,1.4144191E1,6.0095334E0,8.436861E0,2.156161E0,2.1978523E1,2.7493842E0,4.5854763E1,1.1170253E0,3.7398365E0,4.56271E0,1.158128E1,2.5629113E0,3.8960898E0,2.1134436E0,6.8618746E0,1.5749866E0,2.0780693E1,1.1978302E0,3.9152702E1,6.7020607E0,3.349928E0,1.2127817E0],"tree_param":{"num_deleted":"0","num_feature":"2048","num_nodes":"39","size_leaf_vector":"1"}},{"base_weights":[-5.5855356E-2,-4.9243575E-1,4.7535688E-1,-8.1600195E-1,2.3301601E-2,6.6917837E-1,-3.5708085E-2,-1.2380342E0,-3.124205E-1,8.5943747E-1,-9.5924973E-1,-1.5018492E0,7.4017787E-1,-1.0247687E-1,-5.4965768E-2,9.418828E-1,-2.2673296E-2,-1.753695E0,2.7895076E-2,-1.7582488E0,-7.838809E-2,2.8878085E-2,-2.2534844E-2,-3.1530324E-1,1.6176093E-2,1.0140274E0,-3.1841785E-2,-1.0679767E0,-6.1067358E-2,-4.0163603E-2,-7.241085E-3,9.058632E-3,-2.0347616E-2,-1.3131644E-2,1.32160485E-2,2.188364E-2,-2.0683268E-2,-9.681657E-4,-4.304337E-2],"categories":[],"categories_nodes":[],"categories_segments":[],"categories_sizes":[],"default_left":[0,0,0,0,0,0,0,0,0,0,0,0,0,0,0,0,0,0,0,0,0,0,0,0,0,0,0,0,0,0,0,0,0,0,0,0,0,0,0],"id":17,"left_children":[1,3,5,7,-1,9,-1,11,13,15,17,19,21,23,-1,25,-1,27,-1,29,31,-1,-1,33,-1,35,-1,37,-1,-1,-1,-1,-1,-1,-1,-1,-1,-1,-1],"loss_changes":[3.122374E1,3.895529E1,2.6098236E1,1.3100689E1,0E0,1.7303892E1,0E0,1.7506657E1,1.3977173E1,8.1036415E0,1.0768293E1,1.079834E1,4.8537064E0,4.8997803E0,0E0,8.639381E0,0E0,3.6487856E0,0E0,7.0786133E0,2.1504076E0,0E0,0E0,6.51158E0,0E0,5.049988E0,0E0,2.9361873E0,0E0,0E0,0E0,0E0,0E0,0E0,0E0,0E0,0E0,0E0,0E0],"parents":[2147483647,0,0,1,1,2,2,3,3,5,5,7,7,8,8,9,9,10,10,11,11,12,12,13,13,15,15,17,17,19,19,20,20,23,23,25,25,27,27],"right_children":[2,4,6,8,-1,10,-1,12,14,16,18,20,22,24,-1,26,-1,28,-1,30,32,-1,-1,34,-1,36,-1,38,-1,-1,-1,-1,-1,-1,-1,-1,-1,-1,-1],"split_conditions":[1E0,1E0,1E0,1E0,2.3301601E-2,1E0,-3.5708085E-2,1E0,1E0,1E0,1E0,1E0,1E0,1E0,-5.4965768E-2,1E0,-2.2673296E-2,1E0,2.7895076E-2,1E0,1E0,2.8878085E-2,-2.2534844E-2,1E0,1.6176093E-2,1E0,-3.1841785E-2,1E0,-6.1067358E-2,-4.0163603E-2,-7.241085E-3,9.058632E-3,-2.0347616E-2,-1.3131644E-2,1.32160485E-2,2.188364E-2,-2.0683268E-2,-9.681657E-4,-4.304337E-2],"split_indices":[1452,1729,362,1480,0,1589,0,216,1701,352,216,841,118,193,0,14,0,289,0,145,1365,0,0,675,0,1989,0,1057,0,0,0,0,0,0,0,0,0,0,0],"split_type":[0,0,0,0,0,0,0,0,0,0,0,0,0,0,0,0,0,0,0,0,0,0,0,0,0,0,0,0,0,0,0,0,0,0,0,0,0,0,0],"sum_hessian":[1.3463295E2,7.3900734E1,6.0732212E1,6.165633E1,1.2244402E1,5.5851E1,4.8812084E0,3.354205E1,2.8114283E1,5.0009342E1,5.841661E0,2.9596102E1,3.9459481E0,2.5826397E1,2.2878864E0,4.7997078E1,2.0122638E0,4.3522015E0,1.4894595E0,2.5077642E1,4.51846E0,2.8948696E0,1.0510786E0,2.0851301E1,4.9750953E0,4.6649136E1,1.3479419E0,2.791692E0,1.5605096E0,2.1937439E1,3.1402025E0,2.8783395E0,1.64012E0,1.5575689E1,5.2756114E0,4.544803E1,1.2011069E0,1.4043471E0,1.387345E0],"tree_param":{"num_deleted":"0","num_feature":"2048","num_nodes":"39","size_leaf_vector":"1"}},{"base_weights":[4.7976706E-2,1.9218564E-1,-1.6906507E0,-2.1414548E-1,6.453108E-1,-4.1323636E-2,1.2804647E-2,-8.4844816E-1,4.1759524E-1,7.1490127E-1,-5.8643036E-2,-1.4862676E0,3.3633998E-1,7.0149136E-1,-3.599128E-1,8.8254726E-1,-3.125519E-1,-1.6777916E0,9.597053E-3,6.5758985E-1,-4.8158925E-2,1.19551755E-1,1.0548897E0,-6.6619885E-1,2.8509237E-2,9.5154816E-1,-3.2623228E-2,1.8315628E-2,-3.486207E-2,-4.1677997E-2,-1.7307835E-2,-5.754542E-3,2.0514015E-2,-2.8502771E-3,2.8266555E-2,2.5582835E-2,-2.942559E-2,-2.1337274E-2,2.9924674E-2,2.0520842E-2,-9.619009E-3],"categories":[],"categories_nodes":[],"categories_segments":[],"categories_sizes":[],"default_left":[0,0,0,0,0,0,0,0,0,0,0,0,0,0,0,0,0,0,0,0,0,0,0,0,0,0,0,0,0,0,0,0,0,0,0,0,0,0,0,0,0],"id":18,"left_children":[1,3,5,7,9,-1,-1,11,13,15,-1,17,19,21,23,25,27,29,-1,31,-1,33,35,37,-1,39,-1,-1,-1,-1,-1,-1,-1,-1,-1,-1,-1,-1,-1,-1,-1],"loss_changes":[3.3543232E1,2.2748621E1,7.7181797E0,2.6101816E1,1.4248381E1,0E0,0E0,2.4564634E1,7.2036977E0,9.867054E0,0E0,7.9118614E0,9.809736E0,4.9141665E0,4.6779346E0,8.405308E0,1.3450149E1,5.6943893E0,0E0,3.2723389E0,0E0,2.9446352E0,7.151451E0,5.916489E0,0E0,3.3709717E0,0E0,0E0,0E0,0E0,0E0,0E0,0E0,0E0,0E0,0E0,0E0,0E0,0E0,0E0,0E0],"parents":[2147483647,0,0,1,1,2,2,3,3,4,4,7,7,8,8,9,9,11,11,12,12,13,13,14,14,15,15,16,16,17,17,19,19,21,21,22,22,23,23,25,25],"right_children":[2,4,6,8,10,-1,-1,12,14,16,-1,18,20,22,24,26,28,30,-1,32,-1,34,36,38,-1,40,-1,-1,-1,-1,-1,-1,-1,-1,-1,-1,-1,-1,-1,-1,-1],"split_conditions":[1E0,1E0,1E0,1E0,1E0,-4.1323636E-2,1.2804647E-2,1E0,1E0,1E0,-5.8643036E-2,1E0,1E0,1E0,1E0,1E0,1E0,1E0,9.597053E-3,1E0,-4.8158925E-2,1E0,1E0,1E0,2.8509237E-2,1E0,-3.2623228E-2,1.8315628E-2,-3.486207E-2,-4.1677997E-2,-1.7307835E-2,-5.754542E-3,2.0514015E-2,-2.8502771E-3,2.8266555E-2,2.5582835E-2,-2.942559E-2,-2.1337274E-2,2.9924674E-2,2.0520842E-2,-9.619009E-3],"split_indices":[1195,1452,769,1480,1302,0,0,1160,1077,1765,0,145,79,695,675,217,1199,656,0,935,0,708,1601,203,0,197,0,0,0,0,0,0,0,0,0,0,0,0,0,0,0],"split_type":[0,0,0,0,0,0,0,0,0,0,0,0,0,0,0,0,0,0,0,0,0,0,0,0,0,0,0,0,0,0,0,0,0,0,0,0,0,0,0,0,0],"sum_hessian":[1.3379579E2,1.2354931E2,1.0246479E1,6.513585E1,5.8413456E1,8.985222E0,1.2612572E0,3.250351E1,3.263234E1,5.7277225E1,1.1362313E0,2.1129974E1,1.1373536E1,2.3905907E1,8.726432E0,4.9244114E1,8.033113E0,1.9245058E1,1.8849158E0,1.0159134E1,1.2144024E0,9.034466E0,1.487144E1,7.428034E0,1.2983984E0,4.790876E1,1.3353527E0,4.297747E0,3.7353654E0,1.3490685E1,5.754373E0,2.7188313E0,7.4403024E0,7.4942055E0,1.5402604E0,1.38020525E1,1.0693882E0,6.315888E0,1.1121459E0,4.6296917E1,1.6118418E0],"tree_param":{"num_deleted":"0","num_feature":"2048","num_nodes":"41","size_leaf_vector":"1"}},{"base_weights":[-7.646005E-2,-3.6162665E-1,5.3430337E-1,-6.527791E-1,8.298263E-1,6.799625E-1,-1.4848253E0,-1.026125E0,6.3631815E-1,9.499566E-1,-5.131562E-3,7.631237E-1,-3.567984E-2,-1.5124733E-2,-5.0906874E-2,-1.30263E0,3.246215E-1,8.1306237E-1,-1.3954705E-2,1.0539988E0,-7.7563236E-3,8.4905845E-1,-3.2618575E-2,-1.4682426E0,2.1667691E-2,6.274023E-1,-3.531915E-2,1.0270079E0,-8.232865E-3,2.4033628E-2,1.8056344E-3,9.125457E-1,-1.6379476E-2,-3.2307677E-2,1.7239626E-2,2.3040574E-2,-1.769137E-3,1.0914316E-2,2.7555574E-2,2.052222E-2,-4.845763E-3],"categories":[],"categories_nodes":[],"categories_segments":[],"categories_sizes":[],"default_left":[0,0,0,0,0,0,0,0,0,0,0,0,0,0,0,0,0,0,0,0,0,0,0,0,0,0,0,0,0,0,0,0,0,0,0,0,0,0,0,0,0],"id":19,"left_children":[1,3,5,7,9,11,13,15,17,19,-1,21,-1,-1,-1,23,25,27,-1,29,-1,31,-1,33,-1,35,-1,37,-1,-1,-1,39,-1,-1,-1,-1,-1,-1,-1,-1,-1],"loss_changes":[2.2734116E1,3.0868498E1,1.2217057E1,3.4418266E1,2.268752E0,7.798422E0,2.078065E0,2.0713196E1,3.7385712E0,2.1747818E0,0E0,7.578436E0,0E0,0E0,0E0,1.7989609E1,5.8391614E0,3.6811438E0,0E0,1.6659126E0,0E0,3.7823105E0,0E0,1.0709572E1,0E0,2.911265E0,0E0,1.8854418E0,0E0,0E0,0E0,3.5436764E0,0E0,0E0,0E0,0E0,0E0,0E0,0E0,0E0,0E0],"parents":[2147483647,0,0,1,1,2,2,3,3,4,4,5,5,6,6,7,7,8,8,9,9,11,11,15,15,16,16,17,17,19,19,21,21,23,23,25,25,27,27,31,31],"right_children":[2,4,6,8,10,12,14,16,18,20,-1,22,-1,-1,-1,24,26,28,-1,30,-1,32,-1,34,-1,36,-1,38,-1,-1,-1,40,-1,-1,-1,-1,-1,-1,-1,-1,-1],"split_conditions":[1E0,1E0,1E0,1E0,1E0,1E0,1E0,1E0,1E0,1E0,-5.131562E-3,1E0,-3.567984E-2,-1.5124733E-2,-5.0906874E-2,1E0,1E0,1E0,-1.3954705E-2,1E0,-7.7563236E-3,1E0,-3.2618575E-2,1E0,2.1667691E-2,1E0,-3.531915E-2,1E0,-8.232865E-3,2.4033628E-2,1.8056344E-3,1E0,-1.6379476E-2,-3.2307677E-2,1.7239626E-2,2.3040574E-2,-1.769137E-3,1.0914316E-2,2.7555574E-2,2.052222E-2,-4.845763E-3],"split_indices":[322,1693,118,896,987,1701,191,407,478,1325,0,456,0,0,0,147,878,310,0,694,0,1581,0,91,0,736,0,926,0,0,0,1501,0,0,0,0,0,0,0,0,0],"split_type":[0,0,0,0,0,0,0,0,0,0,0,0,0,0,0,0,0,0,0,0,0,0,0,0,0,0,0,0,0,0,0,0,0,0,0,0,0,0,0,0,0],"sum_hessian":[1.3053046E2,8.898593E1,4.154452E1,7.151231E1,1.7473627E1,3.875013E1,2.794391E0,5.5453484E1,1.605882E1,1.5726392E1,1.7472352E0,3.7463863E1,1.2862657E0,1.5997477E0,1.1946433E0,4.6031925E1,9.42156E0,1.4160094E1,1.8987253E0,1.45854435E1,1.1409482E0,3.6145424E1,1.3184401E0,4.3013824E1,3.0181017E0,8.208732E0,1.2128292E0,1.204089E1,2.1192052E0,1.2990794E1,1.5946491E0,3.480586E1,1.3395662E0,4.1096176E1,1.9176477E0,4.8422594E0,3.3664722E0,4.7075806E0,7.3333087E0,3.231612E1,2.489737E0],"tree_param":{"num_deleted":"0","num_feature":"2048","num_nodes":"41","size_leaf_vector":"1"}},{"base_weights":[4.6536952E-2,-2.5049284E-1,6.002136E-1,-5.3305376E-1,1.0240623E0,7.8251034E-1,-1.6276469E0,-8.363272E-1,6.5599716E-1,2.3205416E-2,-7.689483E-3,8.706426E-1,-7.041357E-1,-1.6364677E-2,-4.708943E-2,-1.1645408E0,3.900537E-2,8.102274E-1,-2.3184417E-2,9.773283E-1,-4.971051E-1,-6.981693E-2,2.6772428E-2,-1.2813721E0,2.7548091E-2,-1.3671397E0,4.223846E-1,9.926757E-1,-2.2608103E-2,1.0642778E0,-1.0974979E-2,-5.185467E-2,1.7429417E-2,-2.8536808E-2,2.8988345E-2,-4.7105037E-2,8.930903E-3,1.6147536E-3,2.8198002E-2,2.3192061E-2,8.171132E-4,2.3340859E-2,-5.144059E-3],"categories":[],"categories_nodes":[],"categories_segments":[],"categories_sizes":[],"default_left":[0,0,0,0,0,0,0,0,0,0,0,0,0,0,0,0,0,0,0,0,0,0,0,0,0,0,0,0,0,0,0,0,0,0,0,0,0,0,0,0,0,0,0],"id":20,"left_children":[1,3,5,7,9,11,13,15,17,-1,-1,19,21,-1,-1,23,25,27,-1,29,31,-1,-1,33,-1,35,37,39,-1,41,-1,-1,-1,-1,-1,-1,-1,-1,-1,-1,-1,-1,-1],"loss_changes":[2.2075474E1,3.1460434E1,1.9033358E1,2.5786554E1,2.395771E0,5.6768284E0,1.9617271E0,1.6371403E1,4.004272E0,0E0,0E0,5.969227E0,1.3166232E1,0E0,0E0,1.2144688E1,8.373757E0,4.6691694E0,0E0,4.991707E0,8.104643E0,0E0,0E0,1.181794E1,0E0,5.5870147E0,3.996015E0,1.6117115E0,0E0,3.51025E0,0E0,0E0,0E0,0E0,0E0,0E0,0E0,0E0,0E0,0E0,0E0,0E0,0E0],"parents":[2147483647,0,0,1,1,2,2,3,3,4,4,5,5,6,6,7,7,8,8,11,11,12,12,15,15,16,16,17,17,19,19,20,20,23,23,25,25,26,26,27,27,29,29],"right_children":[2,4,6,8,10,12,14,16,18,-1,-1,20,22,-1,-1,24,26,28,-1,30,32,-1,-1,34,-1,36,38,40,-1,42,-1,-1,-1,-1,-1,-1,-1,-1,-1,-1,-1,-1,-1],"split_conditions":[1E0,1E0,1E0,1E0,1E0,1E0,1E0,1E0,1E0,2.3205416E-2,-7.689483E-3,1E0,1E0,-1.6364677E-2,-4.708943E-2,1E0,1E0,1E0,-2.3184417E-2,1E0,1E0,-6.981693E-2,2.6772428E-2,1E0,2.7548091E-2,1E0,1E0,1E0,-2.2608103E-2,1E0,-1.0974979E-2,-5.185467E-2,1.7429417E-2,-2.8536808E-2,2.8988345E-2,-4.7105037E-2,8.930903E-3,1.6147536E-3,2.8198002E-2,2.3192061E-2,8.171132E-4,2.3340859E-2,-5.144059E-3],"split_indices":[322,1058,118,980,1722,1501,248,1160,90,0,0,119,1019,0,0,1482,935,1184,0,1972,80,0,0,192,0,534,699,1851,0,428,0,0,0,0,0,0,0,0,0,0,0,0,0],"split_type":[0,0,0,0,0,0,0,0,0,0,0,0,0,0,0,0,0,0,0,0,0,0,0,0,0,0,0,0,0,0,0,0,0,0,0,0,0,0,0,0,0,0,0],"sum_hessian":[1.34227E2,8.735855E1,4.6868454E1,7.150738E1,1.5851169E1,4.3324337E1,3.5441153E0,5.6976803E1,1.4530575E1,1.4717062E1,1.1341064E0,4.090096E1,2.4233775E0,1.5844642E0,1.9596511E0,4.144048E1,1.55363245E1,1.3377165E1,1.15341E0,3.7942814E1,2.958144E0,1.0342233E0,1.3891542E0,3.959703E1,1.8434488E0,3.327292E0,1.2209032E1,1.2213455E1,1.163709E0,3.5881668E1,2.0611455E0,1.1797688E0,1.7783751E0,3.8035435E1,1.5615959E0,2.1950545E0,1.1322374E0,8.975565E0,3.233467E0,1.0659817E1,1.5536385E0,3.3963303E1,1.9183661E0],"tree_param":{"num_deleted":"0","num_feature":"2048","num_nodes":"43","size_leaf_vector":"1"}},{"base_weights":[1.0467228E-1,-2.6567352E-1,5.9200597E-1,-5.684162E-1,1.0655109E0,7.1104354E-1,-3.1850766E-2,-7.247555E-1,1.5334569E-2,3.7895194E-1,2.6013184E-2,7.6957226E-1,-4.3348223E-2,-8.903155E-1,8.840126E-1,-2.3036104E-2,2.6527014E-2,8.2724875E-1,-3.747178E-2,-1.2056735E0,-8.104275E-2,2.9041182E-2,-1.5615184E-2,8.872039E-1,-3.6025573E-2,-2.9866481E-2,2.3973917E-3,5.837144E-3,-2.0684639E-2,1.9655142E-2,-1.7249534E-2],"categories":[],"categories_nodes":[],"categories_segments":[],"categories_sizes":[],"default_left":[0,0,0,0,0,0,0,0,0,0,0,0,0,0,0,0,0,0,0,0,0,0,0,0,0,0,0,0,0,0,0],"id":21,"left_children":[1,3,5,7,9,11,-1,13,-1,15,-1,17,-1,19,21,-1,-1,23,-1,25,27,-1,-1,29,-1,-1,-1,-1,-1,-1,-1],"loss_changes":[2.4418941E1,3.0979208E1,1.4921186E1,1.289039E1,1.9863853E0,9.152054E0,0E0,1.49111805E1,0E0,4.481082E0,0E0,8.122875E0,0E0,1.2952244E1,4.580003E0,0E0,0E0,8.219841E0,0E0,1.2141975E1,4.8338304E0,0E0,0E0,6.419998E0,0E0,0E0,0E0,0E0,0E0,0E0,0E0],"parents":[2147483647,0,0,1,1,2,2,3,3,4,4,5,5,7,7,9,9,11,11,13,13,14,14,17,17,19,19,20,20,23,23],"right_children":[2,4,6,8,10,12,-1,14,-1,16,-1,18,-1,20,22,-1,-1,24,-1,26,28,-1,-1,30,-1,-1,-1,-1,-1,-1,-1],"split_conditions":[1E0,1E0,1E0,1E0,1E0,1E0,-3.1850766E-2,1E0,1.5334569E-2,1E0,2.6013184E-2,1E0,-4.3348223E-2,1E0,1E0,-2.3036104E-2,2.6527014E-2,1E0,-3.747178E-2,1E0,1E0,2.9041182E-2,-1.5615184E-2,1E0,-3.6025573E-2,-2.9866481E-2,2.3973917E-3,5.837144E-3,-2.0684639E-2,1.9655142E-2,-1.7249534E-2],"split_indices":[1452,1729,577,980,1480,467,0,45,0,80,0,1349,0,1468,1508,0,0,1989,0,841,1683,0,0,750,0,0,0,0,0,0,0],"split_type":[0,0,0,0,0,0,0,0,0,0,0,0,0,0,0,0,0,0,0,0,0,0,0,0,0,0,0,0,0,0,0],"sum_hessian":[1.352948E2,7.687234E1,5.842246E1,6.2630253E1,1.4242084E1,5.5352707E1,3.0697525E0,5.5983387E1,6.646866E0,3.2581768E0,1.0983907E1,5.423019E1,1.1225142E0,5.0760784E1,5.2226005E0,1.2323629E0,2.0258138E0,5.3053005E1,1.1771848E0,3.65252E1,1.4235588E1,3.9464314E0,1.2761691E0,5.1851067E1,1.2019423E0,3.0694912E1,5.830286E0,1.0209369E1,4.0262194E0,4.97894E1,2.0616677E0],"tree_param":{"num_deleted":"0","num_feature":"2048","num_nodes":"31","size_leaf_vector":"1"}},{"base_weights":[-2.3243984E-3,-1.6808632E-1,1.0044972E0,-5.981155E-1,3.240186E-1,1.1338063E0,-2.4457388E-2,-8.153797E-1,8.358861E-1,4.7449827E-1,-2.6935391E-2,2.5277933E-2,-8.974129E-3,-1.0508802E0,3.3245653E-2,2.3496764E-2,-8.203432E-3,6.7039305E-1,-9.854389E-1,-1.2390612E0,3.890525E-1,1.7190268E-2,-6.5725124E-1,7.665634E-1,-5.344233E-2,-1.7526176E0,2.6849393E-2,-2.9136086E-2,1.5384877E-2,-2.485397E-3,2.8673034E-2,-2.283863E-2,1.4644628E-2,-2.3424461E-2,1.7310021E-2,-2.5525624E-2,-5.692591E-2],"categories":[],"categories_nodes":[],"categories_segments":[],"categories_sizes":[],"default_left":[0,0,0,0,0,0,0,0,0,0,0,0,0,0,0,0,0,0,0,0,0,0,0,0,0,0,0,0,0,0,0,0,0,0,0,0,0],"id":22,"left_children":[1,3,5,7,9,11,-1,13,15,17,-1,-1,-1,19,21,-1,-1,23,25,27,29,-1,31,33,-1,35,-1,-1,-1,-1,-1,-1,-1,-1,-1,-1,-1],"loss_changes":[2.140513E1,2.330741E1,5.1522217E0,1.8312447E1,1.2657626E1,2.6742592E0,0E0,1.0203316E1,2.9676852E0,1.3452274E1,0E0,0E0,0E0,1.0829086E1,6.1654773E0,0E0,0E0,1.3069326E1,9.798199E0,1.2817211E1,2.3815198E0,0E0,3.7406116E0,5.989435E0,0E0,2.1597214E0,0E0,0E0,0E0,0E0,0E0,0E0,0E0,0E0,0E0,0E0,0E0],"parents":[2147483647,0,0,1,1,2,2,3,3,4,4,5,5,7,7,8,8,9,9,13,13,14,14,17,17,18,18,19,19,20,20,22,22,23,23,25,25],"right_children":[2,4,6,8,10,12,-1,14,16,18,-1,-1,-1,20,22,-1,-1,24,26,28,30,-1,32,34,-1,36,-1,-1,-1,-1,-1,-1,-1,-1,-1,-1,-1],"split_conditions":[1E0,1E0,1E0,1E0,1E0,1E0,-2.4457388E-2,1E0,1E0,1E0,-2.6935391E-2,2.5277933E-2,-8.974129E-3,1E0,1E0,2.3496764E-2,-8.203432E-3,1E0,1E0,1E0,1E0,1.7190268E-2,1E0,1E0,-5.344233E-2,1E0,2.6849393E-2,-2.9136086E-2,1.5384877E-2,-2.485397E-3,2.8673034E-2,-2.283863E-2,1.4644628E-2,-2.3424461E-2,1.7310021E-2,-2.5525624E-2,-5.692591E-2],"split_indices":[407,1452,116,980,362,878,0,74,616,1589,0,0,0,1604,389,0,0,1302,193,1238,875,0,562,807,0,1057,0,0,0,0,0,0,0,0,0,0,0],"split_type":[0,0,0,0,0,0,0,0,0,0,0,0,0,0,0,0,0,0,0,0,0,0,0,0,0,0,0,0,0,0,0,0,0,0,0,0,0],"sum_hessian":[1.2826619E2,1.10135605E2,1.8130592E1,5.8776886E1,5.1358715E1,1.7123926E1,1.0066657E0,5.1044563E1,7.7323246E0,4.703861E1,4.3201075E0,1.6107317E1,1.0166106E0,3.9958088E1,1.1086473E1,6.181804E0,1.5505203E0,4.1474876E1,5.5637326E0,3.534083E1,4.6172557E0,5.118932E0,5.967541E0,4.029322E1,1.1816521E0,4.1705756E0,1.393157E0,3.2375847E1,2.9649866E0,3.065941E0,1.5513146E0,4.477565E0,1.4899763E0,1.5777664E0,3.8715458E1,2.7904656E0,1.3801103E0],"tree_param":{"num_deleted":"0","num_feature":"2048","num_nodes":"37","size_leaf_vector":"1"}},{"base_weights":[1.2458939E-2,-1.4316657E-1,9.0894234E-1,-3.6261097E-1,8.502143E-1,1.047603E0,-3.231454E-2,-7.127916E-1,2.399843E-1,9.975371E-1,-3.0450951E-2,2.3270743E-2,-4.0519694E-3,-1.1127074E0,3.7833756E-1,4.8048362E-1,-3.7604887E-2,1.1620965E0,2.980688E-1,-1.1941588E0,2.9360566E-2,6.7835844E-1,-1.0276446E0,5.9664446E-1,-3.2697972E-2,2.6115175E-2,-2.5918577E-3,-5.0559784E-3,2.7763985E-2,-2.6021112E-2,3.0367764E-2,2.0399503E-2,-2.338813E-2,1.0311736E-2,-4.372844E-2,1.5274423E-2,-2.461336E-2],"categories":[],"categories_nodes":[],"categories_segments":[],"categories_sizes":[],"default_left":[0,0,0,0,0,0,0,0,0,0,0,0,0,0,0,0,0,0,0,0,0,0,0,0,0,0,0,0,0,0,0,0,0,0,0,0,0],"id":23,"left_children":[1,3,5,7,9,11,-1,13,15,17,-1,-1,-1,19,21,23,-1,25,27,29,-1,31,33,35,-1,-1,-1,-1,-1,-1,-1,-1,-1,-1,-1,-1,-1],"loss_changes":[1.8454105E1,2.4566004E1,6.7418633E0,1.9479328E1,7.015215E0,2.0234451E0,0E0,2.5477398E1,1.6922457E1,2.2049122E0,0E0,0E0,0E0,8.856392E0,6.604247E0,7.3278646E0,0E0,2.2400246E0,2.1054585E0,8.331306E0,0E0,7.4373617E0,4.661126E0,7.6825037E0,0E0,0E0,0E0,0E0,0E0,0E0,0E0,0E0,0E0,0E0,0E0,0E0,0E0],"parents":[2147483647,0,0,1,1,2,2,3,3,4,4,5,5,7,7,8,8,9,9,13,13,14,14,15,15,17,17,18,18,19,19,21,21,22,22,23,23],"right_children":[2,4,6,8,10,12,-1,14,16,18,-1,-1,-1,20,22,24,-1,26,28,30,-1,32,34,36,-1,-1,-1,-1,-1,-1,-1,-1,-1,-1,-1,-1,-1],"split_conditions":[1E0,1E0,1E0,1E0,1E0,1E0,-3.231454E-2,1E0,1E0,1E0,-3.0450951E-2,2.3270743E-2,-4.0519694E-3,1E0,1E0,1E0,-3.7604887E-2,1E0,1E0,1E0,2.9360566E-2,1E0,1E0,1E0,-3.2697972E-2,2.6115175E-2,-2.5918577E-3,-5.0559784E-3,2.7763985E-2,-2.6021112E-2,3.0367764E-2,2.0399503E-2,-2.338813E-2,1.0311736E-2,-4.372844E-2,1.5274423E-2,-2.461336E-2],"split_indices":[1693,407,352,322,110,1097,0,896,118,1609,0,0,0,192,1754,1972,0,2023,1866,376,0,217,1964,9,0,0,0,0,0,0,0,0,0,0,0,0,0],"split_type":[0,0,0,0,0,0,0,0,0,0,0,0,0,0,0,0,0,0,0,0,0,0,0,0,0,0,0,0,0,0,0,0,0,0,0,0,0],"sum_hessian":[1.3226189E2,1.1269628E2,1.9565601E1,9.2307045E1,2.0389233E1,1.8532482E1,1.0331198E0,5.8382763E1,3.3924286E1,1.9180328E1,1.208905E0,1.7315926E1,1.2165563E0,4.27251E1,1.56576605E1,3.0400799E1,3.523486E0,1.5525036E1,3.6552925E0,4.1400898E1,1.3242056E0,1.290525E1,2.7524111E0,2.8790525E1,1.6102744E0,1.4286259E1,1.238777E0,2.4105403E0,1.2447522E0,4.0269653E1,1.1312455E0,1.0992347E1,1.9129026E0,1.1535667E0,1.5988444E0,2.6594677E1,2.1958485E0],"tree_param":{"num_deleted":"0","num_feature":"2048","num_nodes":"37","size_leaf_vector":"1"}},{"base_weights":[5.5460796E-2,-2.8732955E-1,4.595468E-1,-1.4127847E0,9.344672E-2,5.7859087E-1,-3.8780376E-2,-1.7903126E0,-5.3410214E-1,-1.4915666E-1,2.58287E-2,7.5538975E-1,-9.058071E-1,-3.963579E-2,-1.2990998E-2,1.2968376E-2,-4.160037E-2,-5.429684E-1,4.0362665E-1,8.1850755E-1,-2.234747E-2,-1.4109758E0,1.3583597E-2,-8.845846E-1,9.714302E-1,5.3889805E-1,-2.635914E-2,8.717784E-1,-3.0074636E-2,-2.7466968E-3,-3.947716E-2,-2.7219335E-2,1.0683886E-2,-1.3536017E-4,2.7831433E-2,2.0217834E-2,2.5508206E-3,2.011055E-2,2.0129322E-3],"categories":[],"categories_nodes":[],"categories_segments":[],"categories_sizes":[],"default_left":[0,0,0,0,0,0,0,0,0,0,0,0,0,0,0,0,0,0,0,0,0,0,0,0,0,0,0,0,0,0,0,0,0,0,0,0,0,0,0],"id":24,"left_children":[1,3,5,7,9,11,-1,13,15,17,-1,19,21,-1,-1,-1,-1,23,25,27,-1,29,-1,31,33,35,-1,37,-1,-1,-1,-1,-1,-1,-1,-1,-1,-1,-1],"loss_changes":[1.7155361E1,2.8716679E1,1.5909188E1,5.61483E0,1.4170533E1,1.4199408E1,0E0,1.9573402E0,8.887241E0,9.022217E0,0E0,5.631624E0,4.5632677E0,0E0,0E0,0E0,0E0,1.2521606E1,3.9386177E0,5.691288E0,0E0,2.859521E0,0E0,1.23076935E1,1.6851516E0,2.9577112E0,0E0,3.8595657E0,0E0,0E0,0E0,0E0,0E0,0E0,0E0,0E0,0E0,0E0,0E0],"parents":[2147483647,0,0,1,1,2,2,3,3,4,4,5,5,7,7,8,8,9,9,11,11,12,12,17,17,18,18,19,19,21,21,23,23,24,24,25,25,27,27],"right_children":[2,4,6,8,10,12,-1,14,16,18,-1,20,22,-1,-1,-1,-1,24,26,28,-1,30,-1,32,34,36,-1,38,-1,-1,-1,-1,-1,-1,-1,-1,-1,-1,-1],"split_conditions":[1E0,1E0,1E0,1E0,1E0,1E0,-3.8780376E-2,1E0,1E0,1E0,2.58287E-2,1E0,1E0,-3.963579E-2,-1.2990998E-2,1.2968376E-2,-4.160037E-2,1E0,1E0,1E0,-2.234747E-2,1E0,1.3583597E-2,1E0,1E0,1E0,-2.635914E-2,1E0,-3.0074636E-2,-2.7466968E-3,-3.947716E-2,-2.7219335E-2,1.0683886E-2,-1.3536017E-4,2.7831433E-2,2.0217834E-2,2.5508206E-3,2.011055E-2,2.0129322E-3],"split_indices":[1452,935,370,1440,1729,1589,0,1990,1718,1589,0,14,699,0,0,0,0,896,838,984,0,1381,0,980,378,389,0,1,0,0,0,0,0,0,0,0,0,0,0],"split_type":[0,0,0,0,0,0,0,0,0,0,0,0,0,0,0,0,0,0,0,0,0,0,0,0,0,0,0,0,0,0,0,0,0,0,0,0,0,0,0],"sum_hessian":[1.238478E2,6.700342E1,5.6844387E1,1.6939693E1,5.0063725E1,5.4106014E1,2.7383757E0,1.1847206E1,5.092486E0,4.144329E1,8.620432E0,4.8348793E1,5.7572217E0,1.0540296E1,1.3069108E0,2.8598115E0,2.2326746E0,2.420367E1,1.7239622E1,4.6751015E1,1.597777E0,4.355595E0,1.4016266E0,1.974984E1,4.4538307E0,1.5962756E1,1.276865E0,4.56871E1,1.0639137E0,1.2525487E0,3.1030467E0,1.5016501E1,4.7333384E0,1.2595898E0,3.1942408E0,7.6742697E0,8.2884865E0,4.0030598E1,5.6565046E0],"tree_param":{"num_deleted":"0","num_feature":"2048","num_nodes":"39","size_leaf_vector":"1"}},{"base_weights":[-4.152027E-2,-1.8269421E-1,2.2968099E-2,-6.2801874E-1,4.105214E-1,-1.4667838E0,-2.6557526E-1,5.124147E-1,-5.0562244E-2,-1.8043556E0,-8.271112E-1,-4.933552E-1,9.7243017E-1,6.078087E-1,-3.6433086E-2,-4.0023193E-2,-2.9913473E-3,1.6778518E-2,-1.1629918E0,-1.2367321E0,-1.8440247E-1,2.7123144E-1,2.756186E-2,7.008757E-1,-9.196602E-1,-1.5916597E-2,-4.1882664E-2,-3.1426884E-2,9.99311E-3,-1.028444E-3,-4.4639915E-2,-1.9806964E-2,2.8539522E-2,1.7957287E-2,-2.3051796E-3,-3.6787767E-2,-2.1518688E-3],"categories":[],"categories_nodes":[],"categories_segments":[],"categories_sizes":[],"default_left":[0,0,0,0,0,0,0,0,0,0,0,0,0,0,0,0,0,0,0,0,0,0,0,0,0,0,0,0,0,0,0,0,0,0,0,0,0],"id":25,"left_children":[1,3,-1,5,7,9,11,13,-1,15,17,19,21,23,-1,-1,-1,-1,25,27,29,31,-1,33,35,-1,-1,-1,-1,-1,-1,-1,-1,-1,-1,-1,-1],"loss_changes":[2.116437E1,3.0394838E1,0E0,1.9976234E1,1.4458739E1,4.2764816E0,1.2940582E1,1.0405132E1,0E0,3.1826897E0,3.7878628E0,8.899779E0,1.8573108E0,6.5022106E0,0E0,0E0,0E0,0E0,1.9306417E0,5.8160877E0,7.3225813E0,3.432844E0,0E0,6.142668E0,1.8680277E0,0E0,0E0,0E0,0E0,0E0,0E0,0E0,0E0,0E0,0E0,0E0,0E0],"parents":[2147483647,0,0,1,1,3,3,4,4,5,5,6,6,7,7,9,9,10,10,11,11,12,12,13,13,18,18,19,19,20,20,21,21,23,23,24,24],"right_children":[2,4,-1,6,8,10,12,14,-1,16,18,20,22,24,-1,-1,-1,-1,26,28,30,32,-1,34,36,-1,-1,-1,-1,-1,-1,-1,-1,-1,-1,-1,-1],"split_conditions":[1E0,1E0,2.2968099E-2,1E0,1E0,1E0,1E0,1E0,-5.0562244E-2,1E0,1E0,1E0,1E0,1E0,-3.6433086E-2,-4.0023193E-2,-2.9913473E-3,1.6778518E-2,1E0,1E0,1E0,1E0,2.756186E-2,1E0,1E0,-1.5916597E-2,-4.1882664E-2,-3.1426884E-2,9.99311E-3,-1.028444E-3,-4.4639915E-2,-1.9806964E-2,2.8539522E-2,1.7957287E-2,-2.3051796E-3,-3.6787767E-2,-2.1518688E-3],"split_indices":[1729,1452,0,935,1302,1143,896,339,0,606,1917,1480,378,401,0,0,0,0,197,1028,354,637,0,1765,448,0,0,0,0,0,0,0,0,0,0,0,0],"split_type":[0,0,0,0,0,0,0,0,0,0,0,0,0,0,0,0,0,0,0,0,0,0,0,0,0,0,0,0,0,0,0,0,0,0,0,0,0],"sum_hessian":[1.2903154E2,1.1505456E2,1.3976974E1,6.572117E1,4.9333397E1,1.9828499E1,4.589267E1,4.764672E1,1.6866744E0,1.2976987E1,6.8515105E0,3.8762413E1,7.130256E0,4.5741943E1,1.9047792E0,1.1912238E1,1.0647496E0,1.1603988E0,5.6911116E0,1.1378304E1,2.738411E1,2.4738462E0,4.65641E0,4.3116238E1,2.6257043E0,3.9560843E0,1.7350273E0,9.710463E0,1.667841E0,2.565733E1,1.7267784E0,1.1750369E0,1.2988094E0,3.547927E1,7.6369677E0,1.2648348E0,1.3608694E0],"tree_param":{"num_deleted":"0","num_feature":"2048","num_nodes":"37","size_leaf_vector":"1"}},{"base_weights":[8.099408E-3,-2.0824014E-1,8.619763E-1,-5.360848E-1,4.0796214E-1,9.557557E-1,-2.2093132E-2,-7.740978E-1,5.600365E-1,5.7983816E-1,-1.3444077E0,2.3888089E-2,4.871348E-1,-1.0083663E0,4.7552407E-1,7.7586573E-1,-3.451569E-3,8.106611E-1,-8.291788E-1,-1.3378101E-2,-4.2759728E-2,-1.6255196E-2,1.894398E-2,-1.2362738E0,8.177283E-2,1.690344E-2,-3.3677332E-2,2.3704577E-2,6.0005956E-3,9.1662234E-1,-1.6252145E-2,-4.205834E-2,9.177252E-3,-2.7126051E-2,3.0822227E-2,1.0328328E-2,-4.4370126E-2,2.06965E-2,-1.0848607E-2],"categories":[],"categories_nodes":[],"categories_segments":[],"categories_sizes":[],"default_left":[0,0,0,0,0,0,0,0,0,0,0,0,0,0,0,0,0,0,0,0,0,0,0,0,0,0,0,0,0,0,0,0,0,0,0,0,0,0,0],"id":26,"left_children":[1,3,5,7,9,11,-1,13,15,17,19,-1,21,23,25,27,-1,29,31,-1,-1,-1,-1,33,35,-1,-1,-1,-1,37,-1,-1,-1,-1,-1,-1,-1,-1,-1],"loss_changes":[2.3057234E1,2.0117111E1,4.5897236E0,1.6958334E1,1.0413631E1,2.360489E0,0E0,1.5635281E1,1.8240235E0,1.0242254E1,1.5785127E0,0E0,4.162591E0,1.1176334E1,6.2323E0,1.641882E0,0E0,4.5980587E0,6.921044E0,0E0,0E0,0E0,0E0,8.867123E0,7.3686414E0,0E0,0E0,0E0,0E0,3.4143162E0,0E0,0E0,0E0,0E0,0E0,0E0,0E0,0E0,0E0],"parents":[2147483647,0,0,1,1,2,2,3,3,4,4,5,5,7,7,8,8,9,9,10,10,12,12,13,13,14,14,15,15,17,17,18,18,23,23,24,24,29,29],"right_children":[2,4,6,8,10,12,-1,14,16,18,20,-1,22,24,26,28,-1,30,32,-1,-1,-1,-1,34,36,-1,-1,-1,-1,38,-1,-1,-1,-1,-1,-1,-1,-1,-1],"split_conditions":[1E0,1E0,1E0,1E0,1E0,1E0,-2.2093132E-2,1E0,1E0,1E0,1E0,2.3888089E-2,1E0,1E0,1E0,1E0,-3.451569E-3,1E0,1E0,-1.3378101E-2,-4.2759728E-2,-1.6255196E-2,1.894398E-2,1E0,1E0,1.690344E-2,-3.3677332E-2,2.3704577E-2,6.0005956E-3,1E0,-1.6252145E-2,-4.205834E-2,9.177252E-3,-2.7126051E-2,3.0822227E-2,1.0328328E-2,-4.4370126E-2,2.06965E-2,-1.0848607E-2],"split_indices":[980,322,1825,1693,118,1851,0,407,114,703,1357,0,389,896,716,121,0,203,1252,0,0,0,0,203,675,0,0,0,0,1745,0,0,0,0,0,0,0,0,0],"split_type":[0,0,0,0,0,0,0,0,0,0,0,0,0,0,0,0,0,0,0,0,0,0,0,0,0,0,0,0,0,0,0,0,0,0,0,0,0,0,0],"sum_hessian":[1.24810646E2,9.957901E1,2.5231634E1,6.4999664E1,3.457934E1,2.4069029E1,1.1626059E0,5.340502E1,1.1594646E1,3.1491741E1,3.0876E0,1.6628616E1,7.440412E0,4.4975037E1,8.429985E0,8.946429E0,2.6482172E0,2.7060194E1,4.431548E0,1.5988103E0,1.4887898E0,1.8924271E0,5.547985E0,3.7199707E1,7.7753296E0,7.23825E0,1.191736E0,5.002535E0,3.9438946E0,2.5384012E1,1.6761823E0,2.2646747E0,2.1668735E0,3.605558E1,1.1441276E0,6.546247E0,1.2290827E0,2.3851168E1,1.5328432E0],"tree_param":{"num_deleted":"0","num_feature":"2048","num_nodes":"39","size_leaf_vector":"1"}},{"base_weights":[9.325305E-2,-9.530054E-2,9.521793E-1,-2.8807035E-1,2.2864347E-2,1.0556487E0,-8.740976E-3,-5.668777E-1,5.2120566E-1,2.4033068E-2,3.5112846E-1,-8.8504964E-1,1.4451164E-1,-5.1840526E-1,9.055023E-1,-3.501538E-3,2.6332762E-2,-1.1669595E0,4.98576E-1,3.902813E-1,-1.2826159E0,-4.2118073E-2,1.982256E-2,6.5111434E-1,2.7318662E-2,-2.8217567E-2,8.93314E-3,-2.1372229E-2,2.2825962E-2,3.3571075E-3,2.6190292E-2,-1.2092268E-2,-4.165392E-2,9.002961E-3,2.7886325E-2],"categories":[],"categories_nodes":[],"categories_segments":[],"categories_sizes":[],"default_left":[0,0,0,0,0,0,0,0,0,0,0,0,0,0,0,0,0,0,0,0,0,0,0,0,0,0,0,0,0,0,0,0,0,0,0],"id":27,"left_children":[1,3,5,7,-1,9,-1,11,13,-1,15,17,19,21,23,-1,-1,25,27,29,31,-1,-1,33,-1,-1,-1,-1,-1,-1,-1,-1,-1,-1,-1],"loss_changes":[2.1061033E1,2.4882778E1,3.340313E0,2.075396E1,0E0,1.7880287E0,0E0,1.5486483E1,9.416349E0,0E0,1.5114805E0,1.8440659E1,7.4133015E0,1.4513457E1,1.8660355E0,0E0,0E0,1.3192547E1,7.5823617E0,3.6223707E0,1.6064954E0,0E0,0E0,1.6180649E0,0E0,0E0,0E0,0E0,0E0,0E0,0E0,0E0,0E0,0E0,0E0],"parents":[2147483647,0,0,1,1,2,2,3,3,5,5,7,7,8,8,10,10,11,11,12,12,13,13,14,14,17,17,18,18,19,19,20,20,23,23],"right_children":[2,4,6,8,-1,10,-1,12,14,-1,16,18,20,22,24,-1,-1,26,28,30,32,-1,-1,34,-1,-1,-1,-1,-1,-1,-1,-1,-1,-1,-1],"split_conditions":[1E0,1E0,1E0,1E0,2.2864347E-2,1E0,-8.740976E-3,1E0,1E0,2.4033068E-2,1E0,1E0,1E0,1E0,1E0,-3.501538E-3,2.6332762E-2,1E0,1E0,1E0,1E0,-4.2118073E-2,1.982256E-2,1E0,2.7318662E-2,-2.8217567E-2,8.93314E-3,-2.1372229E-2,2.2825962E-2,3.3571075E-3,2.6190292E-2,-1.2092268E-2,-4.165392E-2,9.002961E-3,2.7886325E-2],"split_indices":[534,1729,694,1160,0,511,0,322,935,0,875,980,585,1,561,0,0,45,1480,1249,1036,0,0,785,0,0,0,0,0,0,0,0,0,0,0],"split_type":[0,0,0,0,0,0,0,0,0,0,0,0,0,0,0,0,0,0,0,0,0,0,0,0,0,0,0,0,0,0,0,0,0,0,0],"sum_hessian":[1.3003326E2,1.0662465E2,2.340862E1,9.198072E1,1.4643925E1,2.1775671E1,1.6329508E0,6.841363E1,2.3567093E1,1.8677872E1,3.0977983E0,4.7273167E1,2.1140463E1,6.3591385E0,1.7207954E1,1.9855936E0,1.1122048E0,3.9272835E1,8.00033E0,1.8035883E1,3.10458E0,3.126705E0,3.2324336E0,1.0788153E1,6.419802E0,3.473269E1,4.540147E0,2.2808235E0,5.7195063E0,1.4369948E1,3.6659355E0,1.6146951E0,1.489885E0,8.30843E0,2.4797235E0],"tree_param":{"num_deleted":"0","num_feature":"2048","num_nodes":"35","size_leaf_vector":"1"}},{"base_weights":[-1.2725705E-2,-1.4280835E-1,9.443661E-1,-5.721337E-1,3.960759E-1,2.411434E-2,-4.4564504E-2,-7.5239813E-1,8.8994825E-1,5.3432316E-1,-3.1142833E-2,-1.013798E0,5.7430338E-2,2.2280907E-2,-5.1725493E-3,6.455384E-1,-1.5222892E0,-1.5983052E0,-5.5831265E-1,2.5711992E-1,-3.3261865E-2,7.1405303E-1,-3.618066E-2,-5.22805E-2,-3.546055E-3,-3.5301026E-2,1.1248145E-2,-6.289259E-3,-4.08597E-2,1.8903833E-2,-2.790819E-3,1.599546E-2,-3.5085194E-2],"categories":[],"categories_nodes":[],"categories_segments":[],"categories_sizes":[],"default_left":[0,0,0,0,0,0,0,0,0,0,0,0,0,0,0,0,0,0,0,0,0,0,0,0,0,0,0,0,0,0,0,0,0],"id":28,"left_children":[1,3,5,7,9,-1,-1,11,13,15,-1,17,19,-1,-1,21,23,25,27,29,-1,31,-1,-1,-1,-1,-1,-1,-1,-1,-1,-1,-1],"loss_changes":[1.6639668E1,2.722453E1,1.1566818E1,1.7261929E1,1.3813721E1,0E0,0E0,1.2345005E1,1.6188059E0,1.1129378E1,0E0,1.1731796E1,4.770219E0,0E0,0E0,7.623247E0,3.4568653E0,5.1319847E0,8.937451E0,3.3273697E0,0E0,7.2119675E0,0E0,0E0,0E0,0E0,0E0,0E0,0E0,0E0,0E0,0E0,0E0],"parents":[2147483647,0,0,1,1,2,2,3,3,4,4,7,7,8,8,9,9,11,11,12,12,15,15,16,16,17,17,18,18,19,19,21,21],"right_children":[2,4,6,8,10,-1,-1,12,14,16,-1,18,20,-1,-1,22,24,26,28,30,-1,32,-1,-1,-1,-1,-1,-1,-1,-1,-1,-1,-1],"split_conditions":[1E0,1E0,1E0,1E0,1E0,2.411434E-2,-4.4564504E-2,1E0,1E0,1E0,-3.1142833E-2,1E0,1E0,2.2280907E-2,-5.1725493E-3,1E0,1E0,1E0,1E0,1E0,-3.3261865E-2,1E0,-3.618066E-2,-5.22805E-2,-3.546055E-3,-3.5301026E-2,1.1248145E-2,-6.289259E-3,-4.08597E-2,1.8903833E-2,-2.790819E-3,1.599546E-2,-3.5085194E-2],"split_indices":[1729,1452,1808,45,1932,0,0,1468,687,703,0,1057,1349,0,0,1708,378,496,1589,389,0,1283,0,0,0,0,0,0,0,0,0,0,0],"split_type":[0,0,0,0,0,0,0,0,0,0,0,0,0,0,0,0,0,0,0,0,0,0,0,0,0,0,0,0,0,0,0,0,0],"sum_hessian":[1.336629E2,1.17671715E2,1.5991188E1,6.549547E1,5.2176247E1,1.4884539E1,1.1066499E0,5.8307888E1,7.1875834E0,4.866469E1,3.5115569E0,4.408143E1,1.4226459E1,6.131913E0,1.0556704E0,4.6169025E1,2.4956625E0,1.930436E1,2.4777071E1,1.2716235E1,1.5102234E0,4.489388E1,1.2751482E0,1.4155676E0,1.0800947E0,1.8253088E1,1.0512714E0,2.1083174E1,3.693896E0,4.727005E0,7.9892306E0,4.3701256E1,1.192624E0],"tree_param":{"num_deleted":"0","num_feature":"2048","num_nodes":"33","size_leaf_vector":"1"}},{"base_weights":[-5.2135605E-2,-3.297228E-1,5.562113E-1,-5.969502E-1,8.203499E-1,7.1573764E-1,-3.2204524E-2,-8.809201E-1,7.8098226E-1,1.8657267E-2,-9.228727E-3,9.2553365E-1,-3.7978765E-1,-1.2509764E0,2.3278803E-1,1.9632462E-2,-1.9187968E-2,9.90813E-1,-9.136991E-3,-4.5358226E-2,4.3383458E-1,-1.3539046E0,6.6892844E-1,4.878326E-1,-4.2895045E-2,1.0462123E0,-6.6647767E-3,2.7717637E-2,-4.0331522E-1,-2.9899944E-2,9.803548E-3,2.9104754E-2,-5.2122083E-3,-1.721876E-2,1.4736119E-2,2.2527533E-2,-7.213205E-3,1.0511946E-2,-2.5622094E-2],"categories":[],"categories_nodes":[],"categories_segments":[],"categories_sizes":[],"default_left":[0,0,0,0,0,0,0,0,0,0,0,0,0,0,0,0,0,0,0,0,0,0,0,0,0,0,0,0,0,0,0,0,0,0,0,0,0,0,0],"id":29,"left_children":[1,3,5,7,9,11,-1,13,15,-1,-1,17,19,21,23,-1,-1,25,-1,-1,27,29,31,33,-1,35,-1,-1,37,-1,-1,-1,-1,-1,-1,-1,-1,-1,-1],"loss_changes":[2.1653818E1,2.7061588E1,1.3632178E1,2.7959517E1,1.8949652E0,8.591064E0,0E0,2.4419178E1,3.7048573E0,0E0,0E0,2.8090725E0,8.9594965E0,8.789398E0,8.759424E0,0E0,0E0,2.1844501E0,0E0,0E0,3.1988447E0,8.097664E0,1.5702578E0,4.084513E0,0E0,2.1201458E0,0E0,0E0,1.687929E0,0E0,0E0,0E0,0E0,0E0,0E0,0E0,0E0,0E0,0E0],"parents":[2147483647,0,0,1,1,2,2,3,3,4,4,5,5,7,7,8,8,11,11,12,12,13,13,14,14,17,17,20,20,21,21,22,22,23,23,25,25,28,28],"right_children":[2,4,6,8,10,12,-1,14,16,-1,-1,18,20,22,24,-1,-1,26,-1,-1,28,30,32,34,-1,36,-1,-1,38,-1,-1,-1,-1,-1,-1,-1,-1,-1,-1],"split_conditions":[1E0,1E0,1E0,1E0,1E0,1E0,-3.2204524E-2,1E0,1E0,1.8657267E-2,-9.228727E-3,1E0,1E0,1E0,1E0,1.9632462E-2,-1.9187968E-2,1E0,-9.136991E-3,-4.5358226E-2,1E0,1E0,1E0,1E0,-4.2895045E-2,1E0,-6.6647767E-3,2.7717637E-2,1E0,-2.9899944E-2,9.803548E-3,2.9104754E-2,-5.2122083E-3,-1.721876E-2,1.4736119E-2,2.2527533E-2,-7.213205E-3,1.0511946E-2,-2.5622094E-2],"split_indices":[322,1693,118,407,1722,703,0,896,716,0,0,1195,1252,147,79,0,0,1803,0,0,1683,91,1399,378,0,9,0,0,784,0,0,0,0,0,0,0,0,0,0],"split_type":[0,0,0,0,0,0,0,0,0,0,0,0,0,0,0,0,0,0,0,0,0,0,0,0,0,0,0,0,0,0,0,0,0,0,0,0,0,0,0],"sum_hessian":[1.2823058E2,8.805466E1,4.017592E1,7.145363E1,1.6601027E1,3.7374115E1,2.8018043E0,5.924551E1,1.2208122E1,1.5506634E1,1.0943928E0,3.1368692E1,6.0054226E0,4.4470737E1,1.4774773E1,1.1069848E1,1.1382744E0,2.9944595E1,1.4240975E0,1.8469127E0,4.1585097E0,4.2208908E1,2.2618308E0,1.331525E1,1.459522E0,2.8736311E1,1.2082843E0,1.984192E0,2.1743178E0,3.992852E1,2.280388E0,1.2484336E0,1.0133973E0,1.9721397E0,1.134311E1,2.769315E1,1.0431623E0,1.0432191E0,1.1310987E0],"tree_param":{"num_deleted":"0","num_feature":"2048","num_nodes":"39","size_leaf_vector":"1"}},{"base_weights":[-2.9481128E-2,-1.8115635E-1,9.7717124E-1,-3.679034E-1,1.0307447E0,1.1478735E0,-2.9801322E-2,-5.382057E-1,5.5653995E-1,4.245735E-1,2.5144776E-2,2.5997546E-2,6.0046967E-3,-6.407049E-1,2.54851E-2,7.7444446E-1,-4.2141452E-2,-2.0228155E-2,2.5424203E-2,-7.6650614E-1,2.067491E-2,1.0198969E0,-2.7465197E-1,-1.8222572E-2,2.0281091E-2,2.4078883E-2,2.4352227E-3,-3.41804E-2,1.3218843E-2],"categories":[],"categories_nodes":[],"categories_segments":[],"categories_sizes":[],"default_left":[0,0,0,0,0,0,0,0,0,0,0,0,0,0,0,0,0,0,0,0,0,0,0,0,0,0,0,0,0],"id":30,"left_children":[1,3,5,7,9,11,-1,13,15,17,-1,-1,-1,19,-1,21,-1,-1,-1,23,-1,25,27,-1,-1,-1,-1,-1,-1],"loss_changes":[1.8836756E1,2.4266144E1,6.7031145E0,1.4627433E1,1.6965332E0,1.5501385E0,0E0,1.4325222E1,8.224207E0,4.0284114E0,0E0,0E0,0E0,1.5392996E1,0E0,3.4365387E0,0E0,0E0,0E0,1.4819416E1,0E0,1.5050001E0,3.23944E0,0E0,0E0,0E0,0E0,0E0,0E0],"parents":[2147483647,0,0,1,1,2,2,3,3,4,4,5,5,7,7,8,8,9,9,13,13,15,15,19,19,21,21,22,22],"right_children":[2,4,6,8,10,12,-1,14,16,18,-1,-1,-1,20,-1,22,-1,-1,-1,24,-1,26,28,-1,-1,-1,-1,-1,-1],"split_conditions":[1E0,1E0,1E0,1E0,1E0,1E0,-2.9801322E-2,1E0,1E0,1E0,2.5144776E-2,2.5997546E-2,6.0046967E-3,1E0,2.54851E-2,1E0,-4.2141452E-2,-2.0228155E-2,2.5424203E-2,1E0,2.067491E-2,1E0,1E0,-1.8222572E-2,2.0281091E-2,2.4078883E-2,2.4352227E-3,-3.41804E-2,1.3218843E-2],"split_indices":[1693,1729,29,980,935,694,0,1846,90,102,0,0,0,45,0,736,0,0,0,1476,0,978,1019,0,0,0,0,0,0],"split_type":[0,0,0,0,0,0,0,0,0,0,0,0,0,0,0,0,0,0,0,0,0,0,0,0,0,0,0,0,0],"sum_hessian":[1.2338037E2,1.0722628E2,1.6154093E1,9.2910904E1,1.4315378E1,1.5094971E1,1.059122E0,7.845917E1,1.4451738E1,3.498606E0,1.0816772E1,1.3230283E1,1.8646877E0,7.419151E1,4.267648E0,1.333982E1,1.1119189E0,1.2805426E0,2.2180636E0,6.893464E1,5.2568765E0,1.081201E1,2.5278099E0,6.444231E1,4.492337E0,9.225698E0,1.5863117E0,1.0060076E0,1.5218024E0],"tree_param":{"num_deleted":"0","num_feature":"2048","num_nodes":"29","size_leaf_vector":"1"}},{"base_weights":[-5.8911998E-2,-2.2732115E-1,8.0604804E-1,-4.7307196E-1,4.8844177E-1,9.523807E-1,-3.1705973E-1,-7.762914E-1,2.6088488E-1,-3.0215573E-1,7.6019573E-1,2.1319611E-2,-5.8995164E-3,-2.92285E-2,2.5371166E-2,-1.0276773E0,6.117967E-1,5.986195E-1,-3.3678487E-2,-1.4443736E-2,3.8044554E-1,8.515196E-1,-1.1136144E-2,-1.2308167E0,4.273984E-1,-2.606838E-2,9.3457437E-1,7.881682E-1,-2.3241712E-2,-9.643326E-3,2.760014E-2,9.9985105E-1,-6.539049E-2,-2.6679667E-2,3.0215785E-2,1.8611722E-2,-2.6974216E-2,2.682304E-2,-6.6115307E-3,1.887539E-2,-2.053777E-3,2.2496331E-2,-3.1403338E-3,-2.1948507E-2,1.5008851E-2],"categories":[],"categories_nodes":[],"categories_segments":[],"categories_sizes":[],"default_left":[0,0,0,0,0,0,0,0,0,0,0,0,0,0,0,0,0,0,0,0,0,0,0,0,0,0,0,0,0,0,0,0,0,0,0,0,0,0,0,0,0,0,0,0,0],"id":31,"left_children":[1,3,5,7,9,11,13,15,17,19,21,-1,-1,-1,-1,23,25,27,-1,-1,29,31,-1,33,35,-1,37,39,-1,-1,-1,41,43,-1,-1,-1,-1,-1,-1,-1,-1,-1,-1,-1,-1],"loss_changes":[1.876104E1,1.8964127E1,3.4507475E0,1.7862638E1,5.920734E0,2.01997E0,4.1689405E0,1.9819973E1,1.50837345E1,1.9364189E0,2.4417171E0,0E0,0E0,0E0,0E0,1.4216019E1,5.293347E0,6.5432844E0,0E0,0E0,2.1484876E0,2.608467E0,0E0,8.067577E0,4.9334245E0,0E0,3.496667E0,2.1179237E0,0E0,0E0,0E0,1.8580589E0,2.139201E0,0E0,0E0,0E0,0E0,0E0,0E0,0E0,0E0,0E0,0E0,0E0,0E0],"parents":[2147483647,0,0,1,1,2,2,3,3,4,4,5,5,6,6,7,7,8,8,9,9,10,10,15,15,16,16,17,17,20,20,21,21,23,23,24,24,26,26,27,27,31,31,32,32],"right_children":[2,4,6,8,10,12,14,16,18,20,22,-1,-1,-1,-1,24,26,28,-1,-1,30,32,-1,34,36,-1,38,40,-1,-1,-1,42,44,-1,-1,-1,-1,-1,-1,-1,-1,-1,-1,-1,-1],"split_conditions":[1E0,1E0,1E0,1E0,1E0,1E0,1E0,1E0,1E0,1E0,1E0,2.1319611E-2,-5.8995164E-3,-2.92285E-2,2.5371166E-2,1E0,1E0,1E0,-3.3678487E-2,-1.4443736E-2,1E0,1E0,-1.1136144E-2,1E0,1E0,-2.606838E-2,1E0,1E0,-2.3241712E-2,-9.643326E-3,2.760014E-2,1E0,1E0,-2.6679667E-2,3.0215785E-2,1.8611722E-2,-2.6974216E-2,2.682304E-2,-6.6115307E-3,1.887539E-2,-2.053777E-3,2.2496331E-2,-3.1403338E-3,-2.1948507E-2,1.5008851E-2],"split_indices":[980,736,841,718,80,1410,1760,896,118,656,675,0,0,0,0,407,935,1280,0,0,1855,289,0,192,715,0,217,119,0,0,0,352,935,0,0,0,0,0,0,0,0,0,0,0,0],"split_type":[0,0,0,0,0,0,0,0,0,0,0,0,0,0,0,0,0,0,0,0,0,0,0,0,0,0,0,0,0,0,0,0,0,0,0,0,0,0,0,0,0,0,0,0,0],"sum_hessian":[1.2880121E2,1.0781228E2,2.0988926E1,8.0258835E1,2.7553442E1,1.8570984E1,2.4179406E0,5.6796932E1,2.3461903E1,7.0464826E0,2.050696E1,1.7346687E1,1.2242976E0,1.4121122E0,1.0058284E0,4.8089264E1,8.707666E0,1.99278E1,3.534104E0,4.434697E0,2.611785E0,1.9165657E1,1.341303E0,4.219927E1,5.8899956E0,1.2730234E0,7.4346433E0,1.7963518E1,1.9642805E0,1.3875937E0,1.2241913E0,1.6498688E1,2.666969E0,4.1125366E1,1.0739031E0,4.618168E0,1.2718276E0,5.73139E0,1.7032536E0,1.5632035E1,2.3314834E0,1.5212988E1,1.2857001E0,1.1808642E0,1.486105E0],"tree_param":{"num_deleted":"0","num_feature":"2048","num_nodes":"45","size_leaf_vector":"1"}},{"base_weights":[3.6916375E-2,1.5382257E-1,-3.0879809E-2,1.9749874E-1,-3.9601877E-2,2.5079662E-1,-3.267948E-2,3.0728537E-1,-2.8436933E-2,-1.0263797E-1,5.460654E-1,-2.055889E-2,1.1259403E-2,1.2204171E-2,-4.530828E-2],"categories":[],"categories_nodes":[],"categories_segments":[],"categories_sizes":[],"default_left":[0,0,0,0,0,0,0,0,0,0,0,0,0,0,0],"id":32,"left_children":[1,3,-1,5,-1,7,-1,9,-1,11,13,-1,-1,-1,-1],"loss_changes":[2.349608E1,1.10258665E1,0E0,1.1321999E1,0E0,1.0654209E1,0E0,1.0897763E1,0E0,2.4048943E1,9.553715E0,0E0,0E0,0E0,0E0],"parents":[2147483647,0,0,1,1,3,3,5,5,7,7,9,9,10,10],"right_children":[2,4,-1,6,-1,8,-1,10,-1,12,14,-1,-1,-1,-1],"split_conditions":[1E0,1E0,-3.0879809E-2,1E0,-3.9601877E-2,1E0,-3.267948E-2,1E0,-2.8436933E-2,1E0,1E0,-2.055889E-2,1.1259403E-2,1.2204171E-2,-4.530828E-2],"split_indices":[1195,1035,0,318,0,118,0,378,0,695,1302,0,0,0,0],"split_type":[0,0,0,0,0,0,0,0,0,0,0,0,0,0,0],"sum_hessian":[1.302424E2,1.21072464E2,9.169941E0,1.1859012E2,2.4823437E0,1.1516542E2,3.4246974E0,1.11327446E2,3.837974E0,4.097539E1,7.035206E1,1.7210503E1,2.3764887E1,6.911703E1,1.2350318E0],"tree_param":{"num_deleted":"0","num_feature":"2048","num_nodes":"15","size_leaf_vector":"1"}},{"base_weights":[6.534946E-2,-8.208466E-2,9.88165E-1,-4.3328682E-1,6.012984E-1,2.4506446E-2,1.9128048E-1,-7.9665715E-1,2.8620055E-1,8.261946E-1,-2.848339E-2,-1.3169464E-2,1.6226478E-2,-1.0766807E0,5.1034105E-1,5.294972E-1,-4.0783744E-2,9.1602117E-1,-2.1879114E-2,-1.2456326E0,1.2852696E-2,7.790296E-1,-2.7778815E-2,6.831192E-1,-3.0609423E-2,1.116449E0,5.142111E-1,-2.788208E-2,2.633459E-2,2.2715932E-2,-5.091292E-3,-1.6316187E-2,1.7476065E-2,2.4670262E-2,1.3927517E-3,-3.4025297E-2,2.0032825E-2],"categories":[],"categories_nodes":[],"categories_segments":[],"categories_sizes":[],"default_left":[0,0,0,0,0,0,0,0,0,0,0,0,0,0,0,0,0,0,0,0,0,0,0,0,0,0,0,0,0,0,0,0,0,0,0,0,0],"id":33,"left_children":[1,3,5,7,9,-1,11,13,15,17,-1,-1,-1,19,21,23,-1,25,-1,27,-1,29,-1,31,-1,33,35,-1,-1,-1,-1,-1,-1,-1,-1,-1,-1],"loss_changes":[1.7209785E1,2.6173286E1,2.8761005E0,1.883419E1,1.6572714E1,0E0,1.8017774E0,1.7519323E1,1.338041E1,5.6571865E0,0E0,0E0,0E0,1.1348064E1,4.2316356E0,6.784178E0,0E0,2.5542488E0,0E0,1.0393181E1,0E0,2.4978113E0,0E0,5.0858355E0,0E0,1.930542E0,1.064134E1,0E0,0E0,0E0,0E0,0E0,0E0,0E0,0E0,0E0,0E0],"parents":[2147483647,0,0,1,1,2,2,3,3,4,4,6,6,7,7,8,8,9,9,13,13,14,14,15,15,17,17,19,19,21,21,23,23,25,25,26,26],"right_children":[2,4,6,8,10,-1,12,14,16,18,-1,-1,-1,20,22,24,-1,26,-1,28,-1,30,-1,32,-1,34,36,-1,-1,-1,-1,-1,-1,-1,-1,-1,-1],"split_conditions":[1E0,1E0,1E0,1E0,1E0,2.4506446E-2,1E0,1E0,1E0,1E0,-2.848339E-2,-1.3169464E-2,1.6226478E-2,1E0,1E0,1E0,-4.0783744E-2,1E0,-2.1879114E-2,1E0,1.2852696E-2,1E0,-2.7778815E-2,1E0,-3.0609423E-2,1E0,1E0,-2.788208E-2,2.633459E-2,2.2715932E-2,-5.091292E-3,-1.6316187E-2,1.7476065E-2,2.4670262E-2,1.3927517E-3,-3.4025297E-2,2.0032825E-2],"split_indices":[1693,322,114,1855,585,0,1754,980,1114,1990,0,0,0,1164,1670,750,0,559,0,455,0,978,0,935,0,1,1252,0,0,0,0,0,0,0,0,0,0],"split_type":[0,0,0,0,0,0,0,0,0,0,0,0,0,0,0,0,0,0,0,0,0,0,0,0,0,0,0,0,0,0,0,0,0,0,0,0,0],"sum_hessian":[1.264789E2,1.0905389E2,1.7425013E1,7.203614E1,3.701775E1,1.3825657E1,3.599356E0,4.7865013E1,2.4171127E1,3.3261303E1,3.7564468E0,1.5053821E0,2.093974E0,3.9420647E1,8.444365E0,2.1837437E1,2.3336904E0,3.1755901E1,1.5054003E0,3.5865078E1,3.5555713E0,7.38218E0,1.0621841E0,2.0296932E1,1.5405045E0,2.1184053E1,1.057185E1,3.4312878E1,1.5521972E0,5.592556E0,1.7896241E0,2.0846117E0,1.821232E1,1.955884E1,1.6252123E0,1.8554989E0,8.716351E0],"tree_param":{"num_deleted":"0","num_feature":"2048","num_nodes":"37","size_leaf_vector":"1"}},{"base_weights":[1.6136809E-1,2.3872359E-1,-1.468372E0,3.0624202E-1,-3.709118E-2,-1.6911803E-2,-4.2011816E-2,4.4629872E-1,-5.526149E-1,5.048864E-1,-3.674896E-2,-9.473069E-1,2.6022578E-2,5.4293734E-1,-4.1597866E-2,-1.3717424E0,3.7178215E-1,1.2016875E-2,-3.6291435E-2,-3.440461E-2,-1.2983992E-3,-8.482827E-3,2.6080811E-2],"categories":[],"categories_nodes":[],"categories_segments":[],"categories_sizes":[],"default_left":[0,0,0,0,0,0,0,0,0,0,0,0,0,0,0,0,0,0,0,0,0,0,0],"id":34,"left_children":[1,3,5,7,-1,-1,-1,9,11,13,-1,15,-1,17,-1,19,21,-1,-1,-1,-1,-1,-1],"loss_changes":[1.5239706E1,1.595876E1,2.041994E0,1.3441105E1,0E0,0E0,0E0,1.2600763E1,1.1265298E1,9.0254345E0,0E0,7.211441E0,0E0,9.232159E0,0E0,3.905264E0,2.2186053E0,0E0,0E0,0E0,0E0,0E0,0E0],"parents":[2147483647,0,0,1,1,2,2,3,3,7,7,8,8,9,9,11,11,13,13,15,15,16,16],"right_children":[2,4,6,8,-1,-1,-1,10,12,14,-1,16,-1,18,-1,20,22,-1,-1,-1,-1,-1,-1],"split_conditions":[1E0,1E0,1E0,1E0,-3.709118E-2,-1.6911803E-2,-4.2011816E-2,1E0,1E0,1E0,-3.674896E-2,1E0,2.6022578E-2,1E0,-4.1597866E-2,1E0,1E0,1.2016875E-2,-3.6291435E-2,-3.440461E-2,-1.2983992E-3,-8.482827E-3,2.6080811E-2],"split_indices":[41,110,1380,1,0,0,0,547,291,1951,0,896,0,1867,0,1204,561,0,0,0,0,0,0],"split_type":[0,0,0,0,0,0,0,0,0,0,0,0,0,0,0,0,0,0,0,0,0,0,0],"sum_hessian":[1.2090168E2,1.1542435E2,5.4773297E0,1.1174171E2,3.6826427E0,2.6010044E0,2.8763256E0,9.607648E1,1.566523E1,9.362749E1,2.4489887E0,1.2876951E1,2.7882788E0,9.224327E1,1.384217E0,9.74334E0,3.1336117E0,9.055029E1,1.6929768E0,7.8924203E0,1.8509192E0,1.6724844E0,1.4611273E0],"tree_param":{"num_deleted":"0","num_feature":"2048","num_nodes":"23","size_leaf_vector":"1"}},{"base_weights":[8.792122E-2,-5.478405E-2,8.0137706E-1,-2.280078E-1,8.6785793E-1,3.2471445E-1,2.1269333E-2,-4.8324472E-1,2.9184285E-1,9.970119E-1,-1.0911241E-2,-2.3127624E-1,2.5783438E-2,-6.927043E-1,5.614536E-1,4.7519514E-1,-3.0479282E-2,2.3565201E-2,7.312452E-3,6.2871736E-1,-4.0327534E-2,-8.1152433E-1,1.7927244E-2,7.799873E-1,-2.6065214E-2,7.366979E-1,-6.00603E-1,2.6686728E-2,-6.9591543E-3,-1.9595345E-2,4.232761E-3,2.1212474E-2,-1.9187355E-2,1.7420577E-2,-2.5064746E-2,-5.8633197E-2,3.6224201E-3],"categories":[],"categories_nodes":[],"categories_segments":[],"categories_sizes":[],"default_left":[0,0,0,0,0,0,0,0,0,0,0,0,0,0,0,0,0,0,0,0,0,0,0,0,0,0,0,0,0,0,0,0,0,0,0,0,0],"id":35,"left_children":[1,3,5,7,9,11,-1,13,15,17,-1,19,-1,21,23,25,-1,-1,-1,27,-1,29,-1,31,-1,33,35,-1,-1,-1,-1,-1,-1,-1,-1,-1,-1],"loss_changes":[1.3194978E1,1.7257103E1,2.4293308E0,1.2063628E1,3.0872746E0,3.716499E0,0E0,1.3344082E1,9.761255E0,1.5235262E0,0E0,6.699281E0,0E0,9.459393E0,4.078138E0,7.6354413E0,0E0,0E0,0E0,1.9563355E0,0E0,6.941826E0,0E0,3.9789362E0,0E0,4.8389626E0,9.324532E0,0E0,0E0,0E0,0E0,0E0,0E0,0E0,0E0,0E0,0E0],"parents":[2147483647,0,0,1,1,2,2,3,3,4,4,5,5,7,7,8,8,9,9,11,11,13,13,14,14,15,15,19,19,21,21,23,23,25,25,26,26],"right_children":[2,4,6,8,10,12,-1,14,16,18,-1,20,-1,22,24,26,-1,-1,-1,28,-1,30,-1,32,-1,34,36,-1,-1,-1,-1,-1,-1,-1,-1,-1,-1],"split_conditions":[1E0,1E0,1E0,1E0,1E0,1E0,2.1269333E-2,1E0,1E0,1E0,-1.0911241E-2,1E0,2.5783438E-2,1E0,1E0,1E0,-3.0479282E-2,2.3565201E-2,7.312452E-3,1E0,-4.0327534E-2,1E0,1.7927244E-2,1E0,-2.6065214E-2,1E0,1E0,2.6686728E-2,-6.9591543E-3,-1.9595345E-2,4.232761E-3,2.1212474E-2,-1.9187355E-2,1.7420577E-2,-2.5064746E-2,-5.8633197E-2,3.6224201E-3],"split_indices":[534,407,1754,322,878,875,0,980,118,168,0,926,0,45,1410,703,0,0,0,434,0,323,0,1535,0,1416,559,0,0,0,0,0,0,0,0,0,0],"split_type":[0,0,0,0,0,0,0,0,0,0,0,0,0,0,0,0,0,0,0,0,0,0,0,0,0,0,0,0,0,0,0,0,0,0,0,0,0],"sum_hessian":[1.2958476E2,1.07983376E2,2.1601377E1,9.0916245E1,1.7067133E1,7.1600194E0,1.4441358E1,6.097993E1,2.9936314E1,1.5627035E1,1.4400973E0,4.4853473E0,2.6746721E0,5.0797104E1,1.0182829E1,2.713984E1,2.7964754E0,1.2617684E1,3.009351E0,2.9987679E0,1.4865794E0,4.7218517E1,3.5785882E0,9.099116E0,1.0837125E0,2.1834236E1,5.305603E0,1.7700827E0,1.2286851E0,4.1355045E1,5.863471E0,7.923691E0,1.1754256E0,2.0643505E1,1.1907293E0,1.3585125E0,3.9470906E0],"tree_param":{"num_deleted":"0","num_feature":"2048","num_nodes":"37","size_leaf_vector":"1"}},{"base_weights":[3.486785E-2,-9.1081604E-2,9.539854E-1,-3.036155E-1,7.2985333E-1,2.1936737E-2,-7.356907E-3,-5.223136E-1,6.587773E-1,5.1843673E-1,2.5442963E-2,-6.5435433E-1,2.4747519E-2,7.953854E-1,-1.5161285E-2,-5.9464335E-2,1.6015816E-2,-7.79348E-1,6.999306E-1,9.40248E-1,-1.60512E-2,-1.7341113E-2,2.9128905E-2,5.087957E-3,2.689181E-2,2.1757469E-2,-2.4868273E-3],"categories":[],"categories_nodes":[],"categories_segments":[],"categories_sizes":[],"default_left":[0,0,0,0,0,0,0,0,0,0,0,0,0,0,0,0,0,0,0,0,0,0,0,0,0,0,0],"id":36,"left_children":[1,3,5,7,9,-1,-1,11,13,15,-1,17,-1,19,-1,-1,-1,21,23,25,-1,-1,-1,-1,-1,-1,-1],"loss_changes":[1.3964916E1,1.8507923E1,2.2182531E0,1.773587E1,2.3546524E0,0E0,0E0,1.5680376E1,2.98062E0,1.3869205E1,0E0,1.0799501E1,0E0,3.2506104E0,0E0,0E0,0E0,8.557255E0,1.4866955E0,1.6761856E0,0E0,0E0,0E0,0E0,0E0,0E0,0E0],"parents":[2147483647,0,0,1,1,2,2,3,3,4,4,7,7,8,8,9,9,11,11,13,13,17,17,18,18,19,19],"right_children":[2,4,6,8,10,-1,-1,12,14,16,-1,18,-1,20,-1,-1,-1,22,24,26,-1,-1,-1,-1,-1,-1,-1],"split_conditions":[1E0,1E0,1E0,1E0,1E0,2.1936737E-2,-7.356907E-3,1E0,1E0,1E0,2.5442963E-2,1E0,2.4747519E-2,1E0,-1.5161285E-2,-5.9464335E-2,1.6015816E-2,1E0,1E0,1E0,-1.60512E-2,-1.7341113E-2,2.9128905E-2,5.087957E-3,2.689181E-2,2.1757469E-2,-2.4868273E-3],"split_indices":[1729,534,950,896,875,0,0,1285,802,1564,0,1586,0,1243,0,0,0,1840,1468,718,0,0,0,0,0,0,0],"split_type":[0,0,0,0,0,0,0,0,0,0,0,0,0,0,0,0,0,0,0,0,0,0,0,0,0,0,0],"sum_hessian":[1.2061987E2,1.0608126E2,1.4538608E1,8.4267456E1,2.1813805E1,1.3358362E1,1.1802448E0,6.866564E1,1.5601815E1,1.543556E1,6.3782444E0,6.3796375E1,4.869268E0,1.4214609E1,1.3872064E0,1.1012858E0,1.4334274E1,5.8407154E1,5.3892217E0,1.30208435E1,1.1937658E0,5.6692303E1,1.7148513E0,3.1023266E0,2.286895E0,1.1688848E1,1.3319955E0],"tree_param":{"num_deleted":"0","num_feature":"2048","num_nodes":"27","size_leaf_vector":"1"}},{"base_weights":[7.451685E-2,-1.6129903E-1,5.7930917E-1,-3.7017578E-1,8.5396457E-1,7.307674E-1,-3.8412284E-2,-6.7268276E-1,6.2003225E-1,2.079712E-2,-3.8402816E-3,8.0875754E-1,-2.2472495E-2,-9.5711917E-1,5.6112176E-1,8.383948E-1,-4.5064546E-2,8.831707E-1,-2.253176E-1,-1.057629E0,6.660509E-1,8.462707E-1,-3.0331502E-2,-7.337379E-3,2.1033918E-2,9.808876E-1,2.5849572E-1,-2.6713895E-2,1.2390187E-2,-2.3417803E-2,2.0859847E-2,2.9015873E-2,-2.6997554E-3,2.2917068E-2,4.1390895E-3,2.457902E-2,1.1421544E-2,1.7620241E-2,-8.329788E-3],"categories":[],"categories_nodes":[],"categories_segments":[],"categories_sizes":[],"default_left":[0,0,0,0,0,0,0,0,0,0,0,0,0,0,0,0,0,0,0,0,0,0,0,0,0,0,0,0,0,0,0,0,0,0,0,0,0,0,0],"id":37,"left_children":[1,3,5,7,9,11,-1,13,15,-1,-1,17,-1,19,21,23,-1,25,27,29,31,33,-1,-1,-1,35,37,-1,-1,-1,-1,-1,-1,-1,-1,-1,-1,-1,-1],"loss_changes":[1.5056202E1,1.8279562E1,1.4961593E1,2.1416103E1,2.4606686E0,5.4045563E0,0E0,1.9220362E1,1.0293197E1,0E0,0E0,2.8007221E0,0E0,7.261936E0,5.9688897E0,3.48771E0,0E0,2.0693417E0,2.1841576E0,7.371628E0,1.5534265E0,1.5733533E0,0E0,0E0,0E0,2.7089806E0,1.8366594E0,0E0,0E0,0E0,0E0,0E0,0E0,0E0,0E0,0E0,0E0,0E0,0E0],"parents":[2147483647,0,0,1,1,2,2,3,3,4,4,5,5,7,7,8,8,11,11,13,13,14,14,15,15,17,17,18,18,19,19,20,20,21,21,25,25,26,26],"right_children":[2,4,6,8,10,12,-1,14,16,-1,-1,18,-1,20,22,24,-1,26,28,30,32,34,-1,-1,-1,36,38,-1,-1,-1,-1,-1,-1,-1,-1,-1,-1,-1,-1],"split_conditions":[1E0,1E0,1E0,1E0,1E0,1E0,-3.8412284E-2,1E0,1E0,2.079712E-2,-3.8402816E-3,1E0,-2.2472495E-2,1E0,1E0,1E0,-4.5064546E-2,1E0,1E0,1E0,1E0,1E0,-3.0331502E-2,-7.337379E-3,2.1033918E-2,1E0,1E0,-2.6713895E-2,1.2390187E-2,-2.3417803E-2,2.0859847E-2,2.9015873E-2,-2.6997554E-3,2.2917068E-2,4.1390895E-3,2.457902E-2,1.1421544E-2,1.7620241E-2,-8.329788E-3],"split_indices":[322,1693,1808,896,1325,118,0,407,473,0,0,1745,0,313,838,378,0,1536,1399,147,744,736,0,0,0,1077,378,0,0,0,0,0,0,0,0,0,0,0,0],"split_type":[0,0,0,0,0,0,0,0,0,0,0,0,0,0,0,0,0,0,0,0,0,0,0,0,0,0,0,0,0,0,0,0,0,0,0,0,0,0,0],"sum_hessian":[1.26475334E2,8.6201996E1,4.027334E1,7.149486E1,1.4707136E1,3.7932255E1,2.3410811E0,5.4765926E1,1.6728931E1,1.2743874E1,1.9632623E0,3.6380405E1,1.5518492E0,4.450703E1,1.0258897E1,1.5526721E1,1.2022108E0,3.3939922E1,2.440485E0,4.1912926E1,2.5941062E0,9.002078E0,1.2568189E0,2.1042173E0,1.3422503E1,2.9346212E1,4.5937104E0,1.0625049E0,1.37798E0,4.026939E1,1.6435349E0,1.3387649E0,1.2553413E0,6.3300776E0,2.672E0,1.936968E1,9.976531E0,2.4140716E0,2.1796389E0],"tree_param":{"num_deleted":"0","num_feature":"2048","num_nodes":"39","size_leaf_vector":"1"}},{"base_weights":[6.9632777E-3,1.0441542E-1,-1.33581E0,-2.072065E-1,4.8679328E-1,-6.804906E-1,-3.3122644E-2,-7.906133E-1,4.0478486E-1,5.4786175E-1,-4.133661E-2,9.6160015E-3,-3.2818954E-2,-9.148862E-1,1.9732803E-2,-2.86538E-2,5.556983E-1,6.019954E-1,-3.59963E-2,-1.0796967E0,4.93881E-1,3.2241157E-1,2.4389667E-2,6.991719E-1,-1.612233E-2,-2.457042E-2,2.6294278E-2,3.1449735E-2,2.9552463E-4,2.6513052E-3,2.8578581E-2,1.5660623E-2,-1.6410625E-2],"categories":[],"categories_nodes":[],"categories_segments":[],"categories_sizes":[],"default_left":[0,0,0,0,0,0,0,0,0,0,0,0,0,0,0,0,0,0,0,0,0,0,0,0,0,0,0,0,0,0,0,0,0],"id":38,"left_children":[1,3,5,7,9,11,-1,13,15,17,-1,-1,-1,19,-1,-1,21,23,-1,25,27,29,-1,31,-1,-1,-1,-1,-1,-1,-1,-1,-1],"loss_changes":[1.634942E1,1.3883084E1,1.5466509E0,2.2918959E1,7.9950876E0,2.6826763E0,0E0,7.1603374E0,8.520163E0,6.3673534E0,0E0,0E0,0E0,7.126686E0,0E0,0E0,4.273078E0,6.7327976E0,0E0,7.7183495E0,1.5997458E0,4.370249E0,0E0,4.531683E0,0E0,0E0,0E0,0E0,0E0,0E0,0E0,0E0,0E0],"parents":[2147483647,0,0,1,1,2,2,3,3,4,4,5,5,7,7,8,8,9,9,13,13,16,16,17,17,19,19,20,20,21,21,23,23],"right_children":[2,4,6,8,10,12,-1,14,16,18,-1,-1,-1,20,-1,-1,22,24,-1,26,28,30,-1,32,-1,-1,-1,-1,-1,-1,-1,-1,-1],"split_conditions":[1E0,1E0,1E0,1E0,1E0,1E0,-3.3122644E-2,1E0,1E0,1E0,-4.133661E-2,9.6160015E-3,-3.2818954E-2,1E0,1.9732803E-2,-2.86538E-2,1E0,1E0,-3.59963E-2,1E0,1E0,1E0,2.4389667E-2,1E0,-1.612233E-2,-2.457042E-2,2.6294278E-2,3.1449735E-2,2.9552463E-4,2.6513052E-3,2.8578581E-2,1.5660623E-2,-1.6410625E-2],"split_indices":[1195,1452,1380,1480,186,1718,0,1060,1088,1951,0,0,0,1356,0,0,1729,289,0,974,1267,1928,0,263,0,0,0,0,0,0,0,0,0],"split_type":[0,0,0,0,0,0,0,0,0,0,0,0,0,0,0,0,0,0,0,0,0,0,0,0,0,0,0,0,0,0,0,0,0],"sum_hessian":[1.24959724E2,1.1650582E2,8.453904E0,6.418929E1,5.231653E1,2.532907E0,5.920997E0,3.286368E1,3.132561E1,5.1071487E1,1.2450418E0,1.1254038E0,1.4075031E0,3.0689487E1,2.1741939E0,2.4189355E0,2.8906673E1,4.9899906E1,1.1715802E0,2.7476429E1,3.213057E0,2.1134356E1,7.7723184E0,4.6637314E1,3.2625937E0,2.6160553E1,1.3158773E0,1.0123222E0,2.2007349E0,1.7909765E1,3.2245908E0,4.470721E1,1.930101E0],"tree_param":{"num_deleted":"0","num_feature":"2048","num_nodes":"33","size_leaf_vector":"1"}},{"base_weights":[-6.1262816E-2,4.0876884E-2,-1.4675304E0,1.2960508E-1,-1.3250669E0,-3.54261E-2,4.381703E-3,1.7815743E-1,-4.149776E-2,-1.8403454E0,2.5558118E-3,4.4232048E-2,9.57944E-1,-2.9455723E-2,-6.643135E-2,-1.1032343E-1,7.731162E-1,2.3426583E-2,-6.659732E-3,-1.0518822E-2,9.638702E-3,1.8933339E-2,-2.343325E-3],"categories":[],"categories_nodes":[],"categories_segments":[],"categories_sizes":[],"default_left":[0,0,0,0,0,0,0,0,0,0,0,0,0,0,0,0,0,0,0,0,0,0,0],"id":39,"left_children":[1,3,5,7,9,-1,-1,11,-1,13,-1,15,17,-1,-1,19,21,-1,-1,-1,-1,-1,-1],"loss_changes":[1.629813E1,1.2816359E1,3.3698463E0,1.0383024E1,4.82156E0,0E0,0E0,1.014147E1,0E0,2.6793098E0,0E0,9.339531E0,3.3771658E0,0E0,0E0,1.599239E1,1.9386892E0,0E0,0E0,0E0,0E0,0E0,0E0],"parents":[2147483647,0,0,1,1,2,2,3,3,4,4,7,7,9,9,11,11,12,12,15,15,16,16],"right_children":[2,4,6,8,10,-1,-1,12,-1,14,-1,16,18,-1,-1,20,22,-1,-1,-1,-1,-1,-1],"split_conditions":[1E0,1E0,1E0,1E0,1E0,-3.54261E-2,4.381703E-3,1E0,-4.149776E-2,1E0,2.5558118E-3,1E0,1E0,-2.9455723E-2,-6.643135E-2,1E0,1E0,2.3426583E-2,-6.659732E-3,-1.0518822E-2,9.638702E-3,1.8933339E-2,-2.343325E-3],"split_indices":[1195,1114,1928,97,1452,0,0,407,0,218,0,1693,1609,0,0,322,1356,0,0,0,0,0,0],"split_type":[0,0,0,0,0,0,0,0,0,0,0,0,0,0,0,0,0,0,0,0,0,0,0],"sum_hessian":[1.134493E2,1.0576608E2,7.6832185E0,9.931627E1,6.4498177E0,6.652979E0,1.0302395E0,9.7127914E1,2.1883504E0,4.7594633E0,1.6903541E0,8.289381E1,1.4234112E1,3.6962276E0,1.063236E0,6.838967E1,1.4504136E1,1.2442581E1,1.7915305E0,4.037664E1,2.8013027E1,1.2402903E1,2.101233E0],"tree_param":{"num_deleted":"0","num_feature":"2048","num_nodes":"23","size_leaf_vector":"1"}},{"base_weights":[-4.3806624E-2,-1.7947361E-1,2.178717E-2,-3.287358E-1,7.6922363E-1,-5.487481E-1,2.4758294E-1,3.3428916E-1,2.0761056E-2,-6.738473E-1,7.411704E-1,4.0362722E-1,-2.7812134E-2,1.5713224E-2,-1.7258938E-2,-8.0238837E-1,7.150648E-1,2.6420057E-2,3.0824195E-3,6.98872E-1,-5.315272E-1,-1.8287282E-2,1.9841455E-2,2.0532796E-2,-9.683709E-3,1.7722273E-2,-2.175993E-2,-4.5150194E-2,9.835887E-3],"categories":[],"categories_nodes":[],"categories_segments":[],"categories_sizes":[],"default_left":[0,0,0,0,0,0,0,0,0,0,0,0,0,0,0,0,0,0,0,0,0,0,0,0,0,0,0,0,0],"id":40,"left_children":[1,3,-1,5,7,9,11,13,-1,15,17,19,-1,-1,-1,21,23,-1,-1,25,27,-1,-1,-1,-1,-1,-1,-1,-1],"loss_changes":[1.8004364E1,1.5127833E1,0E0,1.1705885E1,1.5357046E0,1.0781313E1,6.382742E0,2.6517763E0,0E0,1.0874126E1,1.9080043E0,6.41782E0,0E0,0E0,0E0,8.853588E0,1.7563641E0,0E0,0E0,5.152067E0,9.426563E0,0E0,0E0,0E0,0E0,0E0,0E0,0E0,0E0],"parents":[2147483647,0,0,1,1,3,3,4,4,5,5,6,6,7,7,9,9,10,10,11,11,15,15,16,16,19,19,20,20],"right_children":[2,4,-1,6,8,10,12,14,-1,16,18,20,-1,-1,-1,22,24,-1,-1,26,28,-1,-1,-1,-1,-1,-1,-1,-1],"split_conditions":[1E0,1E0,2.178717E-2,1E0,1E0,1E0,1E0,1E0,2.0761056E-2,1E0,1E0,1E0,-2.7812134E-2,1.5713224E-2,-1.7258938E-2,1E0,1E0,2.6420057E-2,3.0824195E-3,1E0,1E0,-1.8287282E-2,1.9841455E-2,2.0532796E-2,-9.683709E-3,1.7722273E-2,-2.175993E-2,-4.5150194E-2,9.835887E-3],"split_indices":[1729,1693,0,322,1243,45,585,1535,0,1099,450,703,0,0,0,91,1039,0,0,39,1252,0,0,0,0,0,0,0,0],"split_type":[0,0,0,0,0,0,0,0,0,0,0,0,0,0,0,0,0,0,0,0,0,0,0,0,0,0,0,0,0],"sum_hessian":[1.1993286E2,1.06837105E2,1.3095751E1,9.231494E1,1.4522166E1,6.681235E1,2.5502592E1,5.2158327E0,9.306334E0,6.0906994E1,5.9053564E0,2.324314E1,2.2594526E0,3.8154101E0,1.4004228E0,5.5748966E1,5.158026E0,3.0628066E0,2.8425498E0,1.7667328E1,5.575812E0,5.306126E1,2.6877067E0,4.156543E0,1.0014838E0,1.6148771E1,1.5185567E0,2.1029444E0,3.4728675E0],"tree_param":{"num_deleted":"0","num_feature":"2048","num_nodes":"29","size_leaf_vector":"1"}},{"base_weights":[1.7044606E-2,-1.09019026E-1,2.1599002E-2,-2.6154825E-1,8.2984746E-1,-4.406154E-1,4.48796E-1,1.92637E-2,-1.2773847E-2,-7.097412E-1,3.0313703E-1,6.3192636E-1,-4.301464E-2,-8.0175245E-1,2.5764119E-2,6.7838264E-1,-2.4290778E-2,8.948066E-1,-1.4186558E-1,-1.836366E-2,2.8147958E-2,1.7951682E-2,-3.0563716E-2,2.2505207E-2,-9.69976E-3,-1.2983651E-2,2.6235595E-2],"categories":[],"categories_nodes":[],"categories_segments":[],"categories_sizes":[],"default_left":[0,0,0,0,0,0,0,0,0,0,0,0,0,0,0,0,0,0,0,0,0,0,0,0,0,0,0],"id":41,"left_children":[1,3,-1,5,7,9,11,-1,-1,13,15,17,-1,19,-1,21,-1,23,25,-1,-1,-1,-1,-1,-1,-1,-1],"loss_changes":[1.5182615E1,1.4830906E1,0E0,1.1333326E1,2.3114052E0,1.4244931E1,8.363984E0,0E0,0E0,9.454899E0,1.0556515E1,3.4054217E0,0E0,1.0212841E1,0E0,6.463442E0,0E0,3.4713192E0,2.9628763E0,0E0,0E0,0E0,0E0,0E0,0E0,0E0,0E0],"parents":[2147483647,0,0,1,1,3,3,4,4,5,5,6,6,9,9,10,10,11,11,13,13,15,15,17,17,18,18],"right_children":[2,4,-1,6,8,10,12,-1,-1,14,16,18,-1,20,-1,22,-1,24,26,-1,-1,-1,-1,-1,-1,-1,-1],"split_conditions":[1E0,1E0,2.1599002E-2,1E0,1E0,1E0,1E0,1.92637E-2,-1.2773847E-2,1E0,1E0,1E0,-4.301464E-2,1E0,2.5764119E-2,1E0,-2.4290778E-2,1E0,1E0,-1.836366E-2,2.8147958E-2,1.7951682E-2,-3.0563716E-2,2.2505207E-2,-9.69976E-3,-1.2983651E-2,2.6235595E-2],"split_indices":[1729,1693,0,896,1722,718,473,0,0,1993,118,1964,0,1840,0,39,0,654,1039,0,0,0,0,0,0,0,0],"split_type":[0,0,0,0,0,0,0,0,0,0,0,0,0,0,0,0,0,0,0,0,0,0,0,0,0,0,0],"sum_hessian":[1.1616903E2,1.0357175E2,1.2597287E1,8.9098785E1,1.4472956E1,7.116252E1,1.7936262E1,1.3456658E1,1.0162982E0,5.225625E1,1.8906275E1,1.6733997E1,1.2022653E0,4.992159E1,2.334662E0,1.50999565E1,3.8063183E0,1.2492407E1,4.241591E0,4.7852745E1,2.068841E0,1.3841746E1,1.2582103E0,1.0879043E1,1.6133636E0,3.1529667E0,1.0886241E0],"tree_param":{"num_deleted":"0","num_feature":"2048","num_nodes":"27","size_leaf_vector":"1"}},{"base_weights":[6.043458E-2,1.3632047E-1,-3.596768E-2,2.0531735E-1,-1.316196E0,2.5809973E-1,-3.3547435E-2,-1.6472677E-2,-3.9279543E-2,-4.176983E-2,6.1224276E-1,-2.201342E-1,2.187587E-2,6.7866087E-1,-5.046755E-2,-7.897975E-3,2.170655E-2,1.6801143E-2,-1.0032746E-2],"categories":[],"categories_nodes":[],"categories_segments":[],"categories_sizes":[],"default_left":[0,0,0,0,0,0,0,0,0,0,0,0,0,0,0,0,0,0,0],"id":42,"left_children":[1,3,-1,5,7,9,-1,-1,-1,11,13,15,-1,17,-1,-1,-1,-1,-1],"loss_changes":[1.6240593E1,1.1342968E1,0E0,1.0503683E1,1.5730095E0,1.1158212E1,0E0,0E0,0E0,1.1250238E1,9.83301E0,1.035034E1,0E0,7.7639046E0,0E0,0E0,0E0,0E0,0E0],"parents":[2147483647,0,0,1,1,3,3,4,4,5,5,9,9,10,10,11,11,13,13],"right_children":[2,4,-1,6,8,10,-1,-1,-1,12,14,16,-1,18,-1,-1,-1,-1,-1],"split_conditions":[1E0,1E0,-3.596768E-2,1E0,1E0,1E0,-3.3547435E-2,-1.6472677E-2,-3.9279543E-2,1E0,1E0,1E0,2.187587E-2,1E0,-5.046755E-2,-7.897975E-3,2.170655E-2,1.6801143E-2,-1.0032746E-2],"split_indices":[110,41,0,370,1750,1452,0,0,0,1729,1447,1604,0,74,0,0,0,0,0],"split_type":[0,0,0,0,0,0,0,0,0,0,0,0,0,0,0,0,0,0,0],"sum_hessian":[1.17934265E2,1.1320245E2,4.7318096E0,1.0807036E2,5.132093E0,1.0506074E2,3.009623E0,2.769351E0,2.362742E0,5.6886753E1,4.8173985E1,4.9006218E1,7.880536E0,4.715589E1,1.0180943E0,4.3403553E1,5.602663E0,4.2080223E1,5.0756655E0],"tree_param":{"num_deleted":"0","num_feature":"2048","num_nodes":"19","size_leaf_vector":"1"}},{"base_weights":[9.8411605E-2,1.6330747E-1,-1.4695488E0,2.256421E-1,-3.3486944E-2,-3.714122E-2,-1.104073E-2,2.9479992E-1,-3.1800937E-2,3.3548015E-1,-5.786834E-2,3.8648424E-1,-3.689784E-2,9.378596E-3,-2.5069816E-2],"categories":[],"categories_nodes":[],"categories_segments":[],"categories_sizes":[],"default_left":[0,0,0,0,0,0,0,0,0,0,0,0,0,0,0],"id":43,