{"learner":{"attributes":{"scikit_learn":"{\"_estimator_type\": \"classifier\"}"},"feature_names":[],"feature_types":[],"gradient_booster":{"model":{"gbtree_model_param":{"num_parallel_tree":"1","num_trees":"500"},"iteration_indptr":[0,1,2,3,4,5,6,7,8,9,10,11,12,13,14,15,16,17,18,19,20,21,22,23,24,25,26,27,28,29,30,31,32,33,34,35,36,37,38,39,40,41,42,43,44,45,46,47,48,49,50,51,52,53,54,55,56,57,58,59,60,61,62,63,64,65,66,67,68,69,70,71,72,73,74,75,76,77,78,79,80,81,82,83,84,85,86,87,88,89,90,91,92,93,94,95,96,97,98,99,100,101,102,103,104,105,106,107,108,109,110,111,112,113,114,115,116,117,118,119,120,121,122,123,124,125,126,127,128,129,130,131,132,133,134,135,136,137,138,139,140,141,142,143,144,145,146,147,148,149,150,151,152,153,154,155,156,157,158,159,160,161,162,163,164,165,166,167,168,169,170,171,172,173,174,175,176,177,178,179,180,181,182,183,184,185,186,187,188,189,190,191,192,193,194,195,196,197,198,199,200,201,202,203,204,205,206,207,208,209,210,211,212,213,214,215,216,217,218,219,220,221,222,223,224,225,226,227,228,229,230,231,232,233,234,235,236,237,238,239,240,241,242,243,244,245,246,247,248,249,250,251,252,253,254,255,256,257,258,259,260,261,262,263,264,265,266,267,268,269,270,271,272,273,274,275,276,277,278,279,280,281,282,283,284,285,286,287,288,289,290,291,292,293,294,295,296,297,298,299,300,301,302,303,304,305,306,307,308,309,310,311,312,313,314,315,316,317,318,319,320,321,322,323,324,325,326,327,328,329,330,331,332,333,334,335,336,337,338,339,340,341,342,343,344,345,346,347,348,349,350,351,352,353,354,355,356,357,358,359,360,361,362,363,364,365,366,367,368,369,370,371,372,373,374,375,376,377,378,379,380,381,382,383,384,385,386,387,388,389,390,391,392,393,394,395,396,397,398,399,400,401,402,403,404,405,406,407,408,409,410,411,412,413,414,415,416,417,418,419,420,421,422,423,424,425,426,427,428,429,430,431,432,433,434,435,436,437,438,439,440,441,442,443,444,445,446,447,448,449,450,451,452,453,454,455,456,457,458,459,460,461,462,463,464,465,466,467,468,469,470,471,472,473,474,475,476,477,478,479,480,481,482,483,484,485,486,487,488,489,490,491,492,493,494,495,496,497,498,499,500],"tree_info":[0,0,0,0,0,0,0,0,0,0,0,0,0,0,0,0,0,0,0,0,0,0,0,0,0,0,0,0,0,0,0,0,0,0,0,0,0,0,0,0,0,0,0,0,0,0,0,0,0,0,0,0,0,0,0,0,0,0,0,0,0,0,0,0,0,0,0,0,0,0,0,0,0,0,0,0,0,0,0,0,0,0,0,0,0,0,0,0,0,0,0,0,0,0,0,0,0,0,0,0,0,0,0,0,0,0,0,0,0,0,0,0,0,0,0,0,0,0,0,0,0,0,0,0,0,0,0,0,0,0,0,0,0,0,0,0,0,0,0,0,0,0,0,0,0,0,0,0,0,0,0,0,0,0,0,0,0,0,0,0,0,0,0,0,0,0,0,0,0,0,0,0,0,0,0,0,0,0,0,0,0,0,0,0,0,0,0,0,0,0,0,0,0,0,0,0,0,0,0,0,0,0,0,0,0,0,0,0,0,0,0,0,0,0,0,0,0,0,0,0,0,0,0,0,0,0,0,0,0,0,0,0,0,0,0,0,0,0,0,0,0,0,0,0,0,0,0,0,0,0,0,0,0,0,0,0,0,0,0,0,0,0,0,0,0,0,0,0,0,0,0,0,0,0,0,0,0,0,0,0,0,0,0,0,0,0,0,0,0,0,0,0,0,0,0,0,0,0,0,0,0,0,0,0,0,0,0,0,0,0,0,0,0,0,0,0,0,0,0,0,0,0,0,0,0,0,0,0,0,0,0,0,0,0,0,0,0,0,0,0,0,0,0,0,0,0,0,0,0,0,0,0,0,0,0,0,0,0,0,0,0,0,0,0,0,0,0,0,0,0,0,0,0,0,0,0,0,0,0,0,0,0,0,0,0,0,0,0,0,0,0,0,0,0,0,0,0,0,0,0,0,0,0,0,0,0,0,0,0,0,0,0,0,0,0,0,0,0,0,0,0,0,0,0,0,0,0,0,0,0,0,0,0,0,0,0,0,0,0,0,0,0,0,0,0,0,0,0,0,0,0,0,0,0,0,0,0,0,0,0,0,0,0,0,0,0,0,0,0,0,0,0,0,0,0,0,0,0,0,0,0,0,0,0,0,0,0,0,0,0,0,0,0,0,0,0,0,0,0,0],"trees":[{"base_weights":[4.2976942E-2,-1.9240353E-1,9.0208805E-1,-6.227727E-1,5.735049E-1,9.9052864E-1,-5.088255E-2,-1.1475312E-1,4.399174E-2,8.223484E-2,-1.0534848E-1,1.125762E-1,-5.6849667E-3],"categories":[],"categories_nodes":[],"categories_segments":[],"categories_sizes":[],"default_left":[0,0,0,0,0,0,0,0,0,0,0,0,0],"id":0,"left_children":[1,3,5,7,9,11,-1,-1,-1,-1,-1,-1,-1],"loss_changes":[3.6624912E1,4.8440056E1,6.4948616E0,4.2398247E1,1.7442205E1,1.7349167E0,0E0,0E0,0E0,0E0,0E0,0E0,0E0],"parents":[2147483647,0,0,1,1,2,2,3,3,4,4,5,5],"right_children":[2,4,6,8,10,12,-1,-1,-1,-1,-1,-1,-1],"split_conditions":[1E0,1E0,1E0,1E0,1E0,1E0,-5.088255E-2,-1.1475312E-1,4.399174E-2,8.223484E-2,-1.0534848E-1,1.125762E-1,-5.6849667E-3],"split_indices":[980,322,154,736,585,2004,0,0,0,0,0,0,0],"split_type":[0,0,0,0,0,0,0,0,0,0,0,0,0],"sum_hessian":[1.7390219E2,1.388676E2,3.50346E1,8.937349E1,4.9494106E1,3.391089E1,1.12371E0,6.3051014E1,2.6322475E1,4.612298E1,3.3711302E0,3.2742645E1,1.1682444E0],"tree_param":{"num_deleted":"0","num_feature":"2048","num_nodes":"13","size_leaf_vector":"1"}},{"base_weights":[-2.5077706E-4,-4.4477472E-1,5.4237175E-1,-1.5230402E0,1.1972212E-2,7.004122E-1,-1.3979943E-1,-1.8137264E-1,1.5438449E-2,-3.8704187E-2,8.961513E-2,9.2727E-2,-3.0645082E-2],"categories":[],"categories_nodes":[],"categories_segments":[],"categories_sizes":[],"default_left":[0,0,0,0,0,0,0,0,0,0,0,0,0],"id":1,"left_children":[1,3,5,7,9,11,-1,-1,-1,-1,-1,-1,-1],"loss_changes":[4.302223E1,4.8355766E1,2.6584974E1,7.4823E0,2.2605783E1,1.1966438E1,0E0,0E0,0E0,0E0,0E0,0E0,0E0],"parents":[2147483647,0,0,1,1,2,2,3,3,4,4,5,5],"right_children":[2,4,6,8,10,12,-1,-1,-1,-1,-1,-1,-1],"split_conditions":[1E0,1E0,1E0,1E0,1E0,1E0,-1.3979943E-1,-1.8137264E-1,1.5438449E-2,-3.8704187E-2,8.961513E-2,9.2727E-2,-3.0645082E-2],"split_indices":[1452,935,1932,841,407,1468,0,0,0,0,0,0,0],"split_type":[0,0,0,0,0,0,0,0,0,0,0,0,0],"sum_hessian":[1.7059677E2,9.4159775E1,7.6437E1,2.5320917E1,6.883885E1,7.252931E1,3.9076917E0,2.3430302E1,1.8906162E0,4.8873486E1,1.9965368E1,6.3508827E1,9.02048E0],"tree_param":{"num_deleted":"0","num_feature":"2048","num_nodes":"13","size_leaf_vector":"1"}},{"base_weights":[2.4930231E-2,1.860846E-1,-1.4361203E0,-2.1654351E-1,6.588508E-1,-1.6473216E-1,-1.829765E-2,-6.336451E-2,1.2255031E-1,8.911495E-2,-2.9314253E-2],"categories":[],"categories_nodes":[],"categories_segments":[],"categories_sizes":[],"default_left":[0,0,0,0,0,0,0,0,0,0,0],"id":2,"left_children":[1,3,5,7,9,-1,-1,-1,-1,-1,-1],"loss_changes":[4.1635326E1,3.076813E1,5.8358E-1,4.5520164E1,1.1538181E1,0E0,0E0,0E0,0E0,0E0,0E0],"parents":[2147483647,0,0,1,1,2,2,3,3,4,4],"right_children":[2,4,6,8,10,-1,-1,-1,-1,-1,-1],"split_conditions":[1E0,1E0,1E0,1E0,1E0,-1.6473216E-1,-1.829765E-2,-6.336451E-2,1.2255031E-1,8.911495E-2,-2.9314253E-2],"split_indices":[1195,1452,1655,1729,1765,0,0,0,0,0,0],"split_type":[0,0,0,0,0,0,0,0,0,0,0],"sum_hessian":[1.685416E2,1.5484918E2,1.369241E1,8.476419E1,7.0084984E1,1.2288022E1,1.4043887E0,6.840293E1,1.636126E1,6.0394012E1,9.690974E0],"tree_param":{"num_deleted":"0","num_feature":"2048","num_nodes":"11","size_leaf_vector":"1"}},{"base_weights":[5.1715408E-2,-1.15848035E-1,9.0804315E-1,-3.010798E-1,8.1623524E-1,1.0398905E-1,4.503953E-3,-8.507592E-2,1.3745742E-2,1.0377541E-1,-5.39954E-2],"categories":[],"categories_nodes":[],"categories_segments":[],"categories_sizes":[],"default_left":[0,0,0,0,0,0,0,0,0,0,0],"id":3,"left_children":[1,3,5,7,9,-1,-1,-1,-1,-1,-1],"loss_changes":[2.5758099E1,2.7058388E1,9.3535995E-1,2.6620106E1,6.353554E0,0E0,0E0,0E0,0E0,0E0,0E0],"parents":[2147483647,0,0,1,1,2,2,3,3,4,4],"right_children":[2,4,6,8,10,-1,-1,-1,-1,-1,-1],"split_conditions":[1E0,1E0,1E0,1E0,1E0,1.0398905E-1,4.503953E-3,-8.507592E-2,1.3745742E-2,1.0377541E-1,-5.39954E-2],"split_indices":[1693,1758,1722,875,1604,0,0,0,0,0,0],"split_type":[0,0,0,0,0,0,0,0,0,0,0],"sum_hessian":[1.7278459E2,1.4731519E2,2.5469402E1,1.2508516E2,2.223003E1,2.3914648E1,1.5547559E0,5.7571964E1,6.75132E1,2.115846E1,1.0715699E0],"tree_param":{"num_deleted":"0","num_feature":"2048","num_nodes":"11","size_leaf_vector":"1"}},{"base_weights":[3.453161E-2,-3.1715766E-1,4.1926327E-1,-6.412606E-1,8.20609E-1,6.9793636E-1,-4.409683E-1,-1.0375737E-1,5.0960887E-2,9.6117236E-2,-6.8289354E-3,9.368227E-2,-4.3546014E-2,3.8222313E-2,-1.3411707E-1],"categories":[],"categories_nodes":[],"categories_segments":[],"categories_sizes":[],"default_left":[0,0,0,0,0,0,0,0,0,0,0,0,0,0,0],"id":4,"left_children":[1,3,5,7,9,11,13,-1,-1,-1,-1,-1,-1,-1,-1],"loss_changes":[2.4318651E1,3.6747833E1,2.1735E1,2.7388025E1,1.3728132E0,1.2836044E1,1.6153553E1,0E0,0E0,0E0,0E0,0E0,0E0,0E0,0E0],"parents":[2147483647,0,0,1,1,2,2,3,3,4,4,5,5,6,6],"right_children":[2,4,6,8,10,12,14,-1,-1,-1,-1,-1,-1,-1,-1],"split_conditions":[1E0,1E0,1E0,1E0,1E0,1E0,1E0,-1.0375737E-1,5.0960887E-2,9.6117236E-2,-6.8289354E-3,9.368227E-2,-4.3546014E-2,3.8222313E-2,-1.3411707E-1],"split_indices":[695,1693,739,896,987,703,1683,0,0,0,0,0,0,0,0],"split_type":[0,0,0,0,0,0,0,0,0,0,0,0,0,0,0],"sum_hessian":[1.7203389E2,9.0232635E1,8.180126E1,7.154611E1,1.8686527E1,6.233888E1,1.946238E1,5.6433826E1,1.5112284E1,1.7548624E1,1.1379037E0,5.519965E1,7.1392293E0,1.0772942E1,8.689438E0],"tree_param":{"num_deleted":"0","num_feature":"2048","num_nodes":"15","size_leaf_vector":"1"}},{"base_weights":[8.117247E-2,1.7168376E-1,-1.4829679E-1,-3.8712963E-1,4.7861946E-1,-8.55628E-2,9.2688754E-2,6.28058E-2,-1.1305726E-1],"categories":[],"categories_nodes":[],"categories_segments":[],"categories_sizes":[],"default_left":[0,0,0,0,0,0,0,0,0],"id":5,"left_children":[1,3,-1,5,7,-1,-1,-1,-1],"loss_changes":[2.3779013E1,2.9688019E1,0E0,3.28342E1,1.8319437E1,0E0,0E0,0E0,0E0],"parents":[2147483647,0,0,1,1,3,3,4,4],"right_children":[2,4,-1,6,8,-1,-1,-1,-1],"split_conditions":[1E0,1E0,-1.4829679E-1,1E0,1E0,-8.55628E-2,9.2688754E-2,6.28058E-2,-1.1305726E-1],"split_indices":[339,378,0,1729,1847,0,0,0,0],"split_type":[0,0,0,0,0,0,0,0,0],"sum_hessian":[1.7198752E2,1.6501257E2,6.974944E0,5.8142643E1,1.06869934E2,4.5121822E1,1.3020823E1,1.0277946E2,4.090473E0],"tree_param":{"num_deleted":"0","num_feature":"2048","num_nodes":"9","size_leaf_vector":"1"}},{"base_weights":[-1.1277268E-2,-1.6202246E-1,7.82725E-1,-3.6798012E-1,6.8648624E-1,8.9938086E-1,-4.780571E-2,-5.5159513E-2,8.967198E-2,-4.7600886E-4,9.638038E-2,1.0985985E-1,-1.6890515E-2],"categories":[],"categories_nodes":[],"categories_segments":[],"categories_sizes":[],"default_left":[0,0,0,0,0,0,0,0,0,0,0,0,0],"id":6,"left_children":[1,3,5,7,9,11,-1,-1,-1,-1,-1,-1,-1],"loss_changes":[2.085162E1,2.6525312E1,5.482889E0,2.1064629E1,4.037839E0,3.5529995E0,0E0,0E0,0E0,0E0,0E0,0E0,0E0],"parents":[2147483647,0,0,1,1,2,2,3,3,4,4,5,5],"right_children":[2,4,6,8,10,12,-1,-1,-1,-1,-1,-1,-1],"split_conditions":[1E0,1E0,1E0,1E0,1E0,1E0,-4.780571E-2,-5.5159513E-2,8.967198E-2,-4.7600886E-4,9.638038E-2,1.0985985E-1,-1.6890515E-2],"split_indices":[407,534,715,102,389,116,0,0,0,0,0,0,0],"split_type":[0,0,0,0,0,0,0,0,0,0,0,0,0],"sum_hessian":[1.6621562E2,1.4229082E2,2.3924818E1,1.16267685E2,2.6023125E1,2.276724E1,1.1575769E0,1.06299934E2,9.96775E0,6.5567155E0,1.946641E1,2.086829E1,1.8989509E0],"tree_param":{"num_deleted":"0","num_feature":"2048","num_nodes":"13","size_leaf_vector":"1"}},{"base_weights":[-4.929427E-2,-1.7381567E-1,8.445618E-1,-3.4630367E-1,5.940375E-1,9.3867147E-1,5.7761695E-2,-6.005679E-2,4.4082236E-2,7.800573E-2,-4.2195745E-2,1.1090701E-1,5.2938974E-3,3.284707E-2,-2.364971E-2],"categories":[],"categories_nodes":[],"categories_segments":[],"categories_sizes":[],"default_left":[0,0,0,0,0,0,0,0,0,0,0,0,0,0,0],"id":7,"left_children":[1,3,5,7,9,11,13,-1,-1,-1,-1,-1,-1,-1,-1],"loss_changes":[1.9469471E1,2.096452E1,1.3759422E0,2.0125885E1,4.4963646E0,1.0762177E0,6.791159E-1,0E0,0E0,0E0,0E0,0E0,0E0,0E0,0E0],"parents":[2147483647,0,0,1,1,2,2,3,3,4,4,5,5,6,6],"right_children":[2,4,6,8,10,12,14,-1,-1,-1,-1,-1,-1,-1,-1],"split_conditions":[1E0,1E0,1E0,1E0,1E0,1E0,1E0,-6.005679E-2,4.4082236E-2,7.800573E-2,-4.2195745E-2,1.1090701E-1,5.2938974E-3,3.284707E-2,-2.364971E-2],"split_indices":[1729,534,1754,896,987,428,13,0,0,0,0,0,0,0,0],"split_type":[0,0,0,0,0,0,0,0,0,0,0,0,0,0,0],"sum_hessian":[1.6591953E2,1.4837653E2,1.7542992E1,1.22899864E2,2.547666E1,1.4999579E1,2.5434127E0,9.7539696E1,2.5360174E1,2.3655802E1,1.8208582E0,1.3331465E1,1.6681151E0,1.1512136E0,1.392199E0],"tree_param":{"num_deleted":"0","num_feature":"2048","num_nodes":"15","size_leaf_vector":"1"}},{"base_weights":[-1.1458499E-2,-1.7047487E-1,6.7259794E-1,-3.0191594E-1,6.1707795E-1,7.9461825E-1,-6.634178E-2,-5.1378552E-2,6.174625E-2,8.813813E-2,-6.742435E-2,9.4846465E-2,-2.0404482E-2],"categories":[],"categories_nodes":[],"categories_segments":[],"categories_sizes":[],"default_left":[0,0,0,0,0,0,0,0,0,0,0,0,0],"id":8,"left_children":[1,3,5,7,9,11,-1,-1,-1,-1,-1,-1,-1],"loss_changes":[1.8964476E1,1.5343616E1,7.0057554E0,1.9010735E1,6.929414E0,2.8860798E0,0E0,0E0,0E0,0E0,0E0,0E0,0E0],"parents":[2147483647,0,0,1,1,2,2,3,3,4,4,5,5],"right_children":[2,4,6,8,10,12,-1,-1,-1,-1,-1,-1,-1],"split_conditions":[1E0,1E0,1E0,1E0,1E0,1E0,-6.634178E-2,-5.1378552E-2,6.174625E-2,8.813813E-2,-6.742435E-2,9.4846465E-2,-2.0404482E-2],"split_indices":[980,407,403,534,715,1385,0,0,0,0,0,0,0],"split_type":[0,0,0,0,0,0,0,0,0,0,0,0,0],"sum_hessian":[1.6637015E2,1.37355E2,2.9015163E1,1.1976088E2,1.7594114E1,2.7830833E1,1.1843292E0,1.01815674E2,1.79452E1,1.6426258E1,1.1678572E0,2.6334118E1,1.4967163E0],"tree_param":{"num_deleted":"0","num_feature":"2048","num_nodes":"13","size_leaf_vector":"1"}},{"base_weights":[3.3262648E-2,-1.0679903E-1,6.7179024E-1,-3.5530123E-1,5.8085835E-1,8.205076E-1,-5.5967785E-2,-5.8901496E-2,5.3660274E-2,8.505798E-2,-7.6696694E-2,9.898444E-2,-2.1891087E-2],"categories":[],"categories_nodes":[],"categories_segments":[],"categories_sizes":[],"default_left":[0,0,0,0,0,0,0,0,0,0,0,0,0],"id":9,"left_children":[1,3,5,7,9,11,-1,-1,-1,-1,-1,-1,-1],"loss_changes":[1.5052167E1,2.4524128E1,6.9539843E0,1.7205555E1,1.1788446E1,3.1497993E0,0E0,0E0,0E0,0E0,0E0,0E0,0E0],"parents":[2147483647,0,0,1,1,2,2,3,3,4,4,5,5],"right_children":[2,4,6,8,10,12,-1,-1,-1,-1,-1,-1,-1],"split_conditions":[1E0,1E0,1E0,1E0,1E0,1E0,-5.5967785E-2,-5.8901496E-2,5.3660274E-2,8.505798E-2,-7.6696694E-2,9.898444E-2,-2.1891087E-2],"split_indices":[896,718,486,1693,118,145,0,0,0,0,0,0,0],"split_type":[0,0,0,0,0,0,0,0,0,0,0,0,0],"sum_hessian":[1.6131001E2,1.3494281E2,2.6367205E1,1.005006E2,3.4442215E1,2.4481544E1,1.8856606E0,8.3766174E1,1.673443E1,3.1182257E1,3.2599566E0,2.3015596E1,1.4659486E0],"tree_param":{"num_deleted":"0","num_feature":"2048","num_nodes":"13","size_leaf_vector":"1"}},{"base_weights":[3.4409102E-2,-8.872981E-2,8.763745E-1,-4.308191E-1,3.4934574E-1,1.03408255E-1,-1.5382526E-3,-9.639726E-2,7.922765E-3,5.550939E-2,-1.08751416E-1],"categories":[],"categories_nodes":[],"categories_segments":[],"categories_sizes":[],"default_left":[0,0,0,0,0,0,0,0,0,0,0],"id":10,"left_children":[1,3,5,7,9,-1,-1,-1,-1,-1,-1],"loss_changes":[1.7950005E1,2.3367022E1,1.40979E0,1.9997793E1,1.6582817E1,0E0,0E0,0E0,0E0,0E0,0E0],"parents":[2147483647,0,0,1,1,2,2,3,3,4,4],"right_children":[2,4,6,8,10,-1,-1,-1,-1,-1,-1],"split_conditions":[1E0,1E0,1E0,1E0,1E0,1.03408255E-1,-1.5382526E-3,-9.639726E-2,7.922765E-3,5.550939E-2,-1.08751416E-1],"split_indices":[1729,1452,1803,1480,1505,0,0,0,0,0,0],"split_type":[0,0,0,0,0,0,0,0,0,0,0],"sum_hessian":[1.6633766E2,1.4814415E2,1.8193516E1,8.322152E1,6.492264E1,1.6660807E1,1.5327086E0,4.2371414E1,4.08501E1,6.0245964E1,4.67667E0],"tree_param":{"num_deleted":"0","num_feature":"2048","num_nodes":"11","size_leaf_vector":"1"}},{"base_weights":[-4.5821525E-2,5.4150835E-2,-9.5761263E-1,-2.1185642E-1,3.3921322E-1,-1.19203806E-1,1.5960013E-2,-1.0794116E-1,1.708587E-2,4.6308324E-2,-7.499953E-2],"categories":[],"categories_nodes":[],"categories_segments":[],"categories_sizes":[],"default_left":[0,0,0,0,0,0,0,0,0,0,0],"id":11,"left_children":[1,3,5,7,9,-1,-1,-1,-1,-1,-1],"loss_changes":[1.4909492E1,1.1583981E1,2.9750013E0,2.3280996E1,7.465475E0,0E0,0E0,0E0,0E0,0E0,0E0],"parents":[2147483647,0,0,1,1,2,2,3,3,4,4],"right_children":[2,4,6,8,10,-1,-1,-1,-1,-1,-1],"split_conditions":[1E0,1E0,1E0,1E0,1E0,-1.19203806E-1,1.5960013E-2,-1.0794116E-1,1.708587E-2,4.6308324E-2,-7.499953E-2],"split_indices":[1195,695,1928,378,1671,0,0,0,0,0,0],"split_type":[0,0,0,0,0,0,0,0,0,0,0],"sum_hessian":[1.5747366E2,1.4520428E2,1.2269391E1,7.5628296E1,6.957598E1,1.0999002E1,1.2703887E0,2.2249866E1,5.337843E1,6.6400276E1,3.1757023E0],"tree_param":{"num_deleted":"0","num_feature":"2048","num_nodes":"11","size_leaf_vector":"1"}},{"base_weights":[2.9117214E-2,-8.2306206E-2,8.5069174E-1,-3.4841353E-1,2.7867544E-1,8.839511E-1,6.1309263E-3,-8.4243275E-2,1.6012864E-2,4.1849907E-2,-7.466553E-2,1.0058076E-1,5.694718E-3],"categories":[],"categories_nodes":[],"categories_segments":[],"categories_sizes":[],"default_left":[0,0,0,0,0,0,0,0,0,0,0,0,0],"id":12,"left_children":[1,3,5,7,9,11,-1,-1,-1,-1,-1,-1,-1],"loss_changes":[1.5212015E1,1.4522077E1,3.318243E-1,1.8490986E1,7.474749E0,3.7112808E-1,0E0,0E0,0E0,0E0,0E0,0E0,0E0],"parents":[2147483647,0,0,1,1,2,2,3,3,4,4,5,5],"right_children":[2,4,6,8,10,12,-1,-1,-1,-1,-1,-1,-1],"split_conditions":[1E0,1E0,1E0,1E0,1E0,1E0,6.1309263E-3,-8.4243275E-2,1.6012864E-2,4.1849907E-2,-7.466553E-2,1.0058076E-1,5.694718E-3],"split_indices":[1729,1452,191,1480,577,1034,0,0,0,0,0,0,0],"split_type":[0,0,0,0,0,0,0,0,0,0,0,0,0],"sum_hessian":[1.5932303E2,1.4337172E2,1.5951306E1,8.260925E1,6.0762474E1,1.4891699E1,1.0596074E0,4.342729E1,3.9181957E1,5.694159E1,3.820884E0,1.3886927E1,1.0047715E0],"tree_param":{"num_deleted":"0","num_feature":"2048","num_nodes":"13","size_leaf_vector":"1"}},{"base_weights":[3.248881E-2,-1.1649279E-1,6.890768E-1,-3.4993818E-1,3.1339887E-1,8.103358E-1,-4.1978057E-2,-5.6527417E-2,3.944909E-2,5.5491753E-2,-8.82727E-2,9.457623E-2,-1.2919307E-2],"categories":[],"categories_nodes":[],"categories_segments":[],"categories_sizes":[],"default_left":[0,0,0,0,0,0,0,0,0,0,0,0,0],"id":13,"left_children":[1,3,5,7,9,11,-1,-1,-1,-1,-1,-1,-1],"loss_changes":[1.5703081E1,1.362927E1,5.066105E0,1.1053597E1,1.2097664E1,1.8050156E0,0E0,0E0,0E0,0E0,0E0,0E0,0E0],"parents":[2147483647,0,0,1,1,2,2,3,3,4,4,5,5],"right_children":[2,4,6,8,10,12,-1,-1,-1,-1,-1,-1,-1],"split_conditions":[1E0,1E0,1E0,1E0,1E0,1E0,-4.1978057E-2,-5.6527417E-2,3.944909E-2,5.5491753E-2,-8.82727E-2,9.457623E-2,-1.2919307E-2],"split_indices":[980,322,90,896,585,1025,0,0,0,0,0,0,0],"split_type":[0,0,0,0,0,0,0,0,0,0,0,0,0],"sum_hessian":[1.5346364E2,1.2768479E2,2.5778843E1,8.3217125E1,4.446767E1,2.4014631E1,1.7642121E0,6.824731E1,1.4969813E1,3.971652E1,4.7511506E0,2.293765E1,1.0769804E0],"tree_param":{"num_deleted":"0","num_feature":"2048","num_nodes":"13","size_leaf_vector":"1"}},{"base_weights":[-6.8880455E-3,-1.339251E-1,6.693093E-1,-2.5777236E-1,5.794206E-1,8.045808E-1,-4.5157567E-2,-5.550376E-2,2.3893204E-2,6.5662974E-4,8.97923E-2,9.430835E-2,-9.478195E-3],"categories":[],"categories_nodes":[],"categories_segments":[],"categories_sizes":[],"default_left":[0,0,0,0,0,0,0,0,0,0,0,0,0],"id":14,"left_children":[1,3,5,7,9,11,-1,-1,-1,-1,-1,-1,-1],"loss_changes":[1.3806939E1,1.2518248E1,5.0117826E0,1.4442085E1,2.915348E0,1.5197744E0,0E0,0E0,0E0,0E0,0E0,0E0,0E0],"parents":[2147483647,0,0,1,1,2,2,3,3,4,4,5,5],"right_children":[2,4,6,8,10,12,-1,-1,-1,-1,-1,-1,-1],"split_conditions":[1E0,1E0,1E0,1E0,1E0,1E0,-4.5157567E-2,-5.550376E-2,2.3893204E-2,6.5662974E-4,8.97923E-2,9.430835E-2,-9.478195E-3],"split_indices":[407,1693,838,322,1243,191,0,0,0,0,0,0,0],"split_type":[0,0,0,0,0,0,0,0,0,0,0,0,0],"sum_hessian":[1.5279611E2,1.3125108E2,2.1545029E1,1.1394733E2,1.7303762E1,2.0036331E1,1.5086985E0,7.4585236E1,3.9362087E1,6.3079853E0,1.0995777E1,1.893682E1,1.0995123E0],"tree_param":{"num_deleted":"0","num_feature":"2048","num_nodes":"13","size_leaf_vector":"1"}},{"base_weights":[3.4757957E-3,-1.4135239E-1,6.704564E-1,-2.5407475E-1,6.8419504E-1,7.7693856E-1,9.71858E-2,-3.9500196E-2,8.1999E-2,8.445887E-2,-1.2771562E-2,9.028629E-2,-4.1833855E-3,-1.7650262E-2,2.719654E-2],"categories":[],"categories_nodes":[],"categories_segments":[],"categories_sizes":[],"default_left":[0,0,0,0,0,0,0,0,0,0,0,0,0,0,0],"id":15,"left_children":[1,3,5,7,9,11,13,-1,-1,-1,-1,-1,-1,-1,-1],"loss_changes":[1.5174158E1,1.2692173E1,1.4173727E0,1.3568214E1,1.5179167E0,1.0359697E0,5.0146407E-1,0E0,0E0,0E0,0E0,0E0,0E0,0E0,0E0],"parents":[2147483647,0,0,1,1,2,2,3,3,4,4,5,5,6,6],"right_children":[2,4,6,8,10,12,14,-1,-1,-1,-1,-1,-1,-1,-1],"split_conditions":[1E0,1E0,1E0,1E0,1E0,1E0,1E0,-3.9500196E-2,8.1999E-2,8.445887E-2,-1.2771562E-2,9.028629E-2,-4.1833855E-3,-1.7650262E-2,2.719654E-2],"split_indices":[980,1729,1851,45,656,1455,594,0,0,0,0,0,0,0,0],"split_type":[0,0,0,0,0,0,0,0,0,0,0,0,0,0,0],"sum_hessian":[1.4939589E2,1.2525685E2,2.4139044E1,1.1257304E2,1.268381E1,1.91946E1,4.9444447E0,1.03967735E2,8.605303E0,1.1553548E1,1.1302621E0,1.8069263E1,1.1253349E0,1.7327929E0,3.211652E0],"tree_param":{"num_deleted":"0","num_feature":"2048","num_nodes":"15","size_leaf_vector":"1"}},{"base_weights":[2.9735373E-2,1.11190654E-1,-9.300936E-1,2.1788613E-1,-7.3350656E-1,-1.147447E0,2.4491535E-2,3.1708606E-2,-8.178252E-2,-9.731175E-2,3.5878483E-2,-1.3903853E-1,-1.2784149E-3],"categories":[],"categories_nodes":[],"categories_segments":[],"categories_sizes":[],"default_left":[0,0,0,0,0,0,0,0,0,0,0,0,0],"id":16,"left_children":[1,3,5,7,9,11,-1,-1,-1,-1,-1,-1,-1],"loss_changes":[1.2150802E1,1.341744E1,4.0501175E0,9.817949E0,3.9211798E0,1.471343E0,0E0,0E0,0E0,0E0,0E0,0E0,0E0],"parents":[2147483647,0,0,1,1,2,2,3,3,4,4,5,5],"right_children":[2,4,6,8,10,12,-1,-1,-1,-1,-1,-1,-1],"split_conditions":[1E0,1E0,1E0,1E0,1E0,1E0,2.4491535E-2,3.1708606E-2,-8.178252E-2,-9.731175E-2,3.5878483E-2,-1.3903853E-1,-1.2784149E-3],"split_indices":[1114,1195,711,1349,769,667,0,0,0,0,0,0,0],"split_type":[0,0,0,0,0,0,0,0,0,0,0,0,0],"sum_hessian":[1.4639783E2,1.3810948E2,8.288351E0,1.2517851E2,1.2930964E1,6.9933143E0,1.295037E0,1.1901727E2,6.161238E0,1.1819828E1,1.1111363E0,5.888447E0,1.1048673E0],"tree_param":{"num_deleted":"0","num_feature":"2048","num_nodes":"13","size_leaf_vector":"1"}},{"base_weights":[-4.0147725E-2,-1.7706804E-1,6.359887E-1,-3.0854797E-1,3.2927048E-1,7.0663023E-1,-1.9681867E-2,-4.5739826E-2,4.9359594E-2,5.1580884E-2,-5.8699552E-2,8.754885E-2,1.2739051E-2],"categories":[],"categories_nodes":[],"categories_segments":[],"categories_sizes":[],"default_left":[0,0,0,0,0,0,0,0,0,0,0,0,0],"id":17,"left_children":[1,3,5,7,9,11,-1,-1,-1,-1,-1,-1,-1],"loss_changes":[1.4137772E1,8.789704E0,1.9788465E0,9.240887E0,4.4181943E0,9.949455E-1,0E0,0E0,0E0,0E0,0E0,0E0,0E0],"parents":[2147483647,0,0,1,1,2,2,3,3,4,4,5,5],"right_children":[2,4,6,8,10,12,-1,-1,-1,-1,-1,-1,-1],"split_conditions":[1E0,1E0,1E0,1E0,1E0,1E0,-1.9681867E-2,-4.5739826E-2,4.9359594E-2,5.1580884E-2,-5.8699552E-2,8.754885E-2,1.2739051E-2],"split_indices":[980,1928,90,1693,314,1362,0,0,0,0,0,0,0],"split_type":[0,0,0,0,0,0,0,0,0,0,0,0,0],"sum_hessian":[1.4410995E2,1.2222435E2,2.18856E1,9.823282E1,2.3991531E1,2.062041E1,1.2651893E0,8.736978E1,1.0863039E1,2.2123024E1,1.8685073E0,1.6597971E1,4.02244E0],"tree_param":{"num_deleted":"0","num_feature":"2048","num_nodes":"13","size_leaf_vector":"1"}},{"base_weights":[3.507127E-2,-1.511888E-1,4.2383042E-1,-3.7364396E-1,3.7676412E-1,6.1330634E-1,-8.719007E-2,-8.094999E-2,1.3894738E-3,5.5220302E-2,-6.772056E-2,8.266926E-2,-1.2373786E-2],"categories":[],"categories_nodes":[],"categories_segments":[],"categories_sizes":[],"default_left":[0,0,0,0,0,0,0,0,0,0,0,0,0],"id":18,"left_children":[1,3,5,7,9,11,-1,-1,-1,-1,-1,-1,-1],"loss_changes":[1.1343078E1,1.3048211E1,1.3615963E1,1.0916413E1,5.486612E0,5.0993843E0,0E0,0E0,0E0,0E0,0E0,0E0,0E0],"parents":[2147483647,0,0,1,1,2,2,3,3,4,4,5,5],"right_children":[2,4,6,8,10,12,-1,-1,-1,-1,-1,-1,-1],"split_conditions":[1E0,1E0,1E0,1E0,1E0,1E0,-8.719007E-2,-8.094999E-2,1.3894738E-3,5.5220302E-2,-6.772056E-2,8.266926E-2,-1.2373786E-2],"split_indices":[322,1160,585,1480,79,703,0,0,0,0,0,0,0],"split_type":[0,0,0,0,0,0,0,0,0,0,0,0,0],"sum_hessian":[1.4933289E2,1.0256484E2,4.6768044E1,7.29582E1,2.9606642E1,4.215806E1,4.609985E0,3.561722E1,3.7340973E1,2.7927961E1,1.6786792E0,3.5111275E1,7.0467834E0],"tree_param":{"num_deleted":"0","num_feature":"2048","num_nodes":"13","size_leaf_vector":"1"}},{"base_weights":[-1.9945642E-2,-1.3140292E-1,4.268381E-1,-2.426738E-1,5.498675E-1,5.180161E-1,-4.2305507E-2,-6.410169E-2,1.1234392E-2,6.934971E-2,-1.0821962E-2,6.598304E-2,-3.1221721E-2],"categories":[],"categories_nodes":[],"categories_segments":[],"categories_sizes":[],"default_left":[0,0,0,0,0,0,0,0,0,0,0,0,0],"id":19,"left_children":[1,3,5,7,9,11,-1,-1,-1,-1,-1,-1,-1],"loss_changes":[7.712595E0,9.874346E0,3.0749002E0,1.3137452E1,1.2551656E0,2.6898885E0,0E0,0E0,0E0,0E0,0E0,0E0,0E0],"parents":[2147483647,0,0,1,1,2,2,3,3,4,4,5,5],"right_children":[2,4,6,8,10,12,-1,-1,-1,-1,-1,-1,-1],"split_conditions":[1E0,1E0,1E0,1E0,1E0,1E0,-4.2305507E-2,-6.410169E-2,1.1234392E-2,6.934971E-2,-1.0821962E-2,6.598304E-2,-3.1221721E-2],"split_indices":[1928,1693,1134,695,987,888,0,0,0,0,0,0,0],"split_type":[0,0,0,0,0,0,0,0,0,0,0,0,0],"sum_hessian":[1.4662556E2,1.195437E2,2.7081856E1,1.0490833E2,1.4635367E1,2.5621143E1,1.4607126E0,5.124833E1,5.3660007E1,1.3032286E1,1.6030816E0,2.4037323E1,1.5838205E0],"tree_param":{"num_deleted":"0","num_feature":"2048","num_nodes":"13","size_leaf_vector":"1"}},{"base_weights":[4.8242208E-2,1.2514074E-1,-6.152015E-1,2.0319913E-1,-6.53907E-1,-7.4904674E-1,1.8750396E-2,2.842537E-2,-6.6159E-2,-1.02524444E-1,2.7977204E-2,-1.2860656E-3,-9.649522E-2],"categories":[],"categories_nodes":[],"categories_segments":[],"categories_sizes":[],"default_left":[0,0,0,0,0,0,0,0,0,0,0,0,0],"id":20,"left_children":[1,3,5,7,9,11,-1,-1,-1,-1,-1,-1,-1],"loss_changes":[8.130601E0,9.07746E0,2.2463813E0,6.6089344E0,4.4747553E0,1.4241734E0,0E0,0E0,0E0,0E0,0E0,0E0,0E0],"parents":[2147483647,0,0,1,1,2,2,3,3,4,4,5,5],"right_children":[2,4,6,8,10,12,-1,-1,-1,-1,-1,-1,-1],"split_conditions":[1E0,1E0,1E0,1E0,1E0,1E0,1.8750396E-2,2.842537E-2,-6.6159E-2,-1.02524444E-1,2.7977204E-2,-1.2860656E-3,-9.649522E-2],"split_indices":[1195,1114,769,1349,562,1380,0,0,0,0,0,0,0],"split_type":[0,0,0,0,0,0,0,0,0,0,0,0,0],"sum_hessian":[1.4962798E2,1.3690883E2,1.2719149E1,1.2704834E2,9.860486E0,1.1028217E1,1.6909318E0,1.2117982E2,5.868526E0,7.4277353E0,2.4327512E0,2.3341725E0,8.694044E0],"tree_param":{"num_deleted":"0","num_feature":"2048","num_nodes":"13","size_leaf_vector":"1"}},{"base_weights":[4.3544576E-2,-6.9633074E-2,5.502434E-1,-3.4779906E-1,2.12771E-1,6.9541955E-1,-6.125089E-2,-6.474994E-2,4.2412646E-2,3.727271E-2,-6.520692E-2,9.098034E-2,-5.441751E-3],"categories":[],"categories_nodes":[],"categories_segments":[],"categories_sizes":[],"default_left":[0,0,0,0,0,0,0,0,0,0,0,0,0],"id":21,"left_children":[1,3,5,7,9,11,-1,-1,-1,-1,-1,-1,-1],"loss_changes":[8.610809E0,1.0033106E1,5.924637E0,1.238344E1,7.4135695E0,2.797967E0,0E0,0E0,0E0,0E0,0E0,0E0,0E0],"parents":[2147483647,0,0,1,1,2,2,3,3,4,4,5,5],"right_children":[2,4,6,8,10,12,-1,-1,-1,-1,-1,-1,-1],"split_conditions":[1E0,1E0,1E0,1E0,1E0,1E0,-6.125089E-2,-6.474994E-2,4.2412646E-2,3.727271E-2,-6.520692E-2,9.098034E-2,-5.441751E-3],"split_indices":[896,1480,79,718,1195,314,0,0,0,0,0,0,0],"split_type":[0,0,0,0,0,0,0,0,0,0,0,0,0],"sum_hessian":[1.4367728E2,1.20181625E2,2.3495651E1,6.009226E1,6.0089367E1,2.2061403E1,1.4342495E0,4.5683067E1,1.440919E1,5.3819237E1,6.2701273E0,1.826596E1,3.7954426E0],"tree_param":{"num_deleted":"0","num_feature":"2048","num_nodes":"13","size_leaf_vector":"1"}},{"base_weights":[5.346082E-2,1.0355644E-1,-9.619436E-2,1.5873209E-1,-7.3352575E-2,2.2772137E-2,-7.53812E-2],"categories":[],"categories_nodes":[],"categories_segments":[],"categories_sizes":[],"default_left":[0,0,0,0,0,0,0],"id":22,"left_children":[1,3,-1,5,-1,-1,-1],"loss_changes":[7.045515E0,6.366369E0,0E0,6.1461706E0,0E0,0E0,0E0],"parents":[2147483647,0,0,1,1,3,3],"right_children":[2,4,-1,6,-1,-1,-1],"split_conditions":[1E0,1E0,-9.619436E-2,1E0,-7.3352575E-2,2.2772137E-2,-7.53812E-2],"split_indices":[110,41,0,118,0,0,0],"split_type":[0,0,0,0,0,0,0],"sum_hessian":[1.3929878E2,1.3547551E2,3.8232682E0,1.2934378E2,6.1317353E0,1.2498031E2,4.363463E0],"tree_param":{"num_deleted":"0","num_feature":"2048","num_nodes":"7","size_leaf_vector":"1"}},{"base_weights":[-2.757859E-2,2.8641338E-2,-1.026553E-1,1.20726876E-1,-4.3162864E-1,1.943662E-2,-9.2172086E-2,-6.806352E-2,4.3778364E-2],"categories":[],"categories_nodes":[],"categories_segments":[],"categories_sizes":[],"default_left":[0,0,0,0,0,0,0,0,0],"id":23,"left_children":[1,3,-1,5,7,-1,-1,-1,-1],"loss_changes":[7.744135E0,6.316739E0,0E0,7.347712E0,4.9166093E0,0E0,0E0,0E0,0E0],"parents":[2147483647,0,0,1,1,3,3,4,4],"right_children":[2,4,-1,6,8,-1,-1,-1,-1],"split_conditions":[1E0,1E0,-1.026553E-1,1E0,1E0,1.943662E-2,-9.2172086E-2,-6.806352E-2,4.3778364E-2],"split_indices":[110,1,0,1867,394,0,0,0,0],"split_type":[0,0,0,0,0,0,0,0,0],"sum_hessian":[1.4528397E2,1.4038068E2,4.9032884E0,1.193635E2,2.101717E1,1.1568716E2,3.6763475E0,1.7893728E1,3.1234424E0],"tree_param":{"num_deleted":"0","num_feature":"2048","num_nodes":"9","size_leaf_vector":"1"}},{"base_weights":[-1.1956252E-2,-3.1916642E-1,1.4886974E-1,-4.6108428E-1,4.0776557E-1,2.5669155E-1,-9.973228E-2,-6.588317E-2,3.8873684E-2,5.8877304E-2,-1.6240874E-2,3.794333E-2,-6.825686E-2],"categories":[],"categories_nodes":[],"categories_segments":[],"categories_sizes":[],"default_left":[0,0,0,0,0,0,0,0,0,0,0,0,0],"id":24,"left_children":[1,3,5,7,9,11,-1,-1,-1,-1,-1,-1,-1],"loss_changes":[7.105241E0,5.8228383E0,1.1726915E1,5.806284E0,1.0455047E0,7.904596E0,0E0,0E0,0E0,0E0,0E0,0E0,0E0],"parents":[2147483647,0,0,1,1,2,2,3,3,4,4,5,5],"right_children":[2,4,6,8,10,12,-1,-1,-1,-1,-1,-1,-1],"split_conditions":[1E0,1E0,1E0,1E0,1E0,1E0,-9.973228E-2,-6.588317E-2,3.8873684E-2,5.8877304E-2,-1.6240874E-2,3.794333E-2,-6.825686E-2],"split_indices":[378,1729,339,1387,1143,1114,0,0,0,0,0,0,0],"split_type":[0,0,0,0,0,0,0,0,0,0,0,0,0],"sum_hessian":[1.3619421E2,4.5485596E1,9.070862E1,3.9243763E1,6.2418356E0,8.500997E1,5.69865E0,3.432259E1,4.921171E0,5.156733E0,1.0851026E0,7.924494E1,5.7650285E0],"tree_param":{"num_deleted":"0","num_feature":"2048","num_nodes":"13","size_leaf_vector":"1"}},{"base_weights":[-5.794066E-2,-1.3288805E-1,6.8280065E-1,-2.8224427E-1,2.3073007E-1,9.2344016E-2,-1.9522859E-2,-4.7922213E-2,3.0057002E-2,4.0286377E-2,-7.937469E-2],"categories":[],"categories_nodes":[],"categories_segments":[],"categories_sizes":[],"default_left":[0,0,0,0,0,0,0,0,0,0,0],"id":25,"left_children":[1,3,5,7,9,-1,-1,-1,-1,-1,-1],"loss_changes":[8.475594E0,7.645727E0,2.5432167E0,8.999695E0,6.5355005E0,0E0,0E0,0E0,0E0,0E0,0E0],"parents":[2147483647,0,0,1,1,2,2,3,3,4,4],"right_children":[2,4,6,8,10,-1,-1,-1,-1,-1,-1],"split_conditions":[1E0,1E0,1E0,1E0,1E0,9.2344016E-2,-1.9522859E-2,-4.7922213E-2,3.0057002E-2,4.0286377E-2,-7.937469E-2],"split_indices":[1285,322,753,1928,118,0,0,0,0,0,0],"split_type":[0,0,0,0,0,0,0,0,0,0,0],"sum_hessian":[1.4244115E2,1.3224614E2,1.019501E1,9.435751E1,3.788863E1,8.6496525E0,1.5453581E0,7.437085E1,1.9986664E1,3.5209763E1,2.678867E0],"tree_param":{"num_deleted":"0","num_feature":"2048","num_nodes":"11","size_leaf_vector":"1"}},{"base_weights":[2.2602601E-2,-6.1228562E-2,5.139813E-1,-1.5597649E-1,3.581935E-1,6.5048116E-1,-3.7777405E-2,-3.5223372E-2,1.9403756E-2,5.600954E-2,-6.078306E-2,7.7826895E-2,7.9395337E-4],"categories":[],"categories_nodes":[],"categories_segments":[],"categories_sizes":[],"default_left":[0,0,0,0,0,0,0,0,0,0,0,0,0],"id":26,"left_children":[1,3,5,7,9,11,-1,-1,-1,-1,-1,-1,-1],"loss_changes":[5.8457813E0,5.071658E0,3.296104E0,5.8889894E0,4.4369335E0,7.335825E-1,0E0,0E0,0E0,0E0,0E0,0E0,0E0],"parents":[2147483647,0,0,1,1,2,2,3,3,4,4,5,5],"right_children":[2,4,6,8,10,12,-1,-1,-1,-1,-1,-1,-1],"split_conditions":[1E0,1E0,1E0,1E0,1E0,1E0,-3.7777405E-2,-3.5223372E-2,1.9403756E-2,5.600954E-2,-6.078306E-2,7.7826895E-2,7.9395337E-4],"split_indices":[407,896,715,322,473,552,0,0,0,0,0,0,0],"split_type":[0,0,0,0,0,0,0,0,0,0,0,0,0],"sum_hessian":[1.3506491E2,1.1828349E2,1.6781422E1,9.847595E1,1.9807537E1,1.5295582E1,1.4858401E0,6.5820244E1,3.265571E1,1.8413527E1,1.3940109E0,1.359204E1,1.7035421E0],"tree_param":{"num_deleted":"0","num_feature":"2048","num_nodes":"13","size_leaf_vector":"1"}},{"base_weights":[6.398756E-2,1.17800385E-1,-9.1356985E-2,2.913229E-2,7.128548E-1,-7.4957134E-3,5.236514E-2,8.330229E-2,2.619305E-3],"categories":[],"categories_nodes":[],"categories_segments":[],"categories_sizes":[],"default_left":[0,0,0,0,0,0,0,0,0],"id":27,"left_children":[1,3,-1,5,7,-1,-1,-1,-1],"loss_changes":[7.202714E0,7.115691E0,0E0,5.517981E0,5.180712E-1,0E0,0E0,0E0,0E0],"parents":[2147483647,0,0,1,1,3,3,4,4],"right_children":[2,4,-1,6,8,-1,-1,-1,-1],"split_conditions":[1E0,1E0,-9.1356985E-2,1E0,1E0,-7.4957134E-3,5.236514E-2,8.330229E-2,2.619305E-3],"split_indices":[110,407,0,896,233,0,0,0,0],"split_type":[0,0,0,0,0,0,0,0,0],"sum_hessian":[1.3706503E2,1.3250903E2,4.556004E0,1.1886859E2,1.3640447E1,1.0035997E2,1.850862E1,1.2355666E1,1.2847795E0],"tree_param":{"num_deleted":"0","num_feature":"2048","num_nodes":"9","size_leaf_vector":"1"}},{"base_weights":[-5.8697198E-2,-1.37465E-1,7.175884E-1,-2.1480432E-1,5.1244617E-1,8.0027413E-1,-6.5346747E-3,-3.315894E-2,4.1970547E-2,7.185759E-2,-2.167889E-2,9.470546E-2,2.1397131E-3],"categories":[],"categories_nodes":[],"categories_segments":[],"categories_sizes":[],"default_left":[0,0,0,0,0,0,0,0,0,0,0,0,0],"id":28,"left_children":[1,3,5,7,9,11,-1,-1,-1,-1,-1,-1,-1],"loss_changes":[8.828849E0,6.8942327E0,1.0435681E0,6.6778603E0,2.0288558E0,5.661874E-1,0E0,0E0,0E0,0E0,0E0,0E0,0E0],"parents":[2147483647,0,0,1,1,2,2,3,3,4,4,5,5],"right_children":[2,4,6,8,10,12,-1,-1,-1,-1,-1,-1,-1],"split_conditions":[1E0,1E0,1E0,1E0,1E0,1E0,-6.5346747E-3,-3.315894E-2,4.1970547E-2,7.185759E-2,-2.167889E-2,9.470546E-2,2.1397131E-3],"split_indices":[45,1729,1985,1058,1754,715,0,0,0,0,0,0,0],"split_type":[0,0,0,0,0,0,0,0,0,0,0,0,0],"sum_hessian":[1.3424454E2,1.24778114E2,9.466421E0,1.1383113E2,1.0946989E1,8.452744E0,1.0136778E0,1.0085619E2,1.2974934E1,9.340233E0,1.6067556E0,7.406591E0,1.0461526E0],"tree_param":{"num_deleted":"0","num_feature":"2048","num_nodes":"13","size_leaf_vector":"1"}},{"base_weights":[-6.8206474E-2,-1.476147E-1,4.486118E-1,-2.4694437E-1,4.454234E-1,5.4585695E-1,-2.3976965E-2,-4.731248E-2,1.3576649E-2,5.5802524E-2,-1.46981515E-2,7.167259E-2,-2.4965944E-2],"categories":[],"categories_nodes":[],"categories_segments":[],"categories_sizes":[],"default_left":[0,0,0,0,0,0,0,0,0,0,0,0,0],"id":29,"left_children":[1,3,5,7,9,11,-1,-1,-1,-1,-1,-1,-1],"loss_changes":[5.970101E0,7.707114E0,1.7310226E0,7.6725416E0,9.841533E-1,2.1172142E0,0E0,0E0,0E0,0E0,0E0,0E0,0E0],"parents":[2147483647,0,0,1,1,2,2,3,3,4,4,5,5],"right_children":[2,4,6,8,10,12,-1,-1,-1,-1,-1,-1,-1],"split_conditions":[1E0,1E0,1E0,1E0,1E0,1E0,-2.3976965E-2,-4.731248E-2,1.3576649E-2,5.5802524E-2,-1.46981515E-2,7.167259E-2,-2.4965944E-2],"split_indices":[407,1693,715,322,1047,1114,0,0,0,0,0,0,0],"split_type":[0,0,0,0,0,0,0,0,0,0,0,0,0],"sum_hessian":[1.3532582E2,1.19706314E2,1.5619507E1,1.0447326E2,1.5233061E1,1.4253098E1,1.36641E0,6.920766E1,3.5265602E1,1.4121281E1,1.1117796E0,1.3009539E1,1.2435583E0],"tree_param":{"num_deleted":"0","num_feature":"2048","num_nodes":"13","size_leaf_vector":"1"}},{"base_weights":[-2.3857007E-2,4.843774E-2,-7.322853E-1,1.2577954E-1,-6.1924994E-1,-8.774951E-1,-4.597283E-2,2.5725324E-2,-4.2094465E-2,-8.819572E-2,3.2156985E-2,-1.0535659E-1,-2.8643382E-3,-2.0018913E-2,1.3825892E-2],"categories":[],"categories_nodes":[],"categories_segments":[],"categories_sizes":[],"default_left":[0,0,0,0,0,0,0,0,0,0,0,0,0,0,0],"id":30,"left_children":[1,3,5,7,9,11,13,-1,-1,-1,-1,-1,-1,-1,-1],"loss_changes":[7.119969E0,6.87862E0,1.1255221E0,6.909175E0,3.2916331E0,6.6186905E-1,2.3968966E-1,0E0,0E0,0E0,0E0,0E0,0E0,0E0,0E0],"parents":[2147483647,0,0,1,1,2,2,3,3,4,4,5,5,6,6],"right_children":[2,4,6,8,10,12,14,-1,-1,-1,-1,-1,-1,-1,-1],"split_conditions":[1E0,1E0,1E0,1E0,1E0,1E0,1E0,2.5725324E-2,-4.2094465E-2,-8.819572E-2,3.2156985E-2,-1.0535659E-1,-2.8643382E-3,-2.0018913E-2,1.3825892E-2],"split_indices":[1114,1573,1370,1,1729,1604,1506,0,0,0,0,0,0,0,0],"split_type":[0,0,0,0,0,0,0,0,0,0,0,0,0,0,0],"sum_hessian":[1.32449E2,1.2346588E2,8.983129E0,1.1347241E2,9.993468E0,6.521867E0,2.461262E0,9.517173E1,1.8300676E1,8.671072E0,1.3223964E0,5.4609547E0,1.0609121E0,1.2374983E0,1.2237637E0],"tree_param":{"num_deleted":"0","num_feature":"2048","num_nodes":"15","size_leaf_vector":"1"}},{"base_weights":[-2.2792205E-2,-1.1823725E-1,4.808942E-1,-1.7590119E-2,-8.3709097E-1,5.9337485E-1,-2.2473541E-1,7.537005E-2,-1.1346833E-2,-1.0518463E-1,6.202558E-4,7.614978E-2,-3.0228073E-2,-3.4275934E-2,4.6536177E-3],"categories":[],"categories_nodes":[],"categories_segments":[],"categories_sizes":[],"default_left":[0,0,0,0,0,0,0,0,0,0,0,0,0,0,0],"id":31,"left_children":[1,3,5,7,9,11,13,-1,-1,-1,-1,-1,-1,-1,-1],"loss_changes":[6.7972507E0,8.489033E0,2.3081594E0,6.8276277E0,1.5360241E0,2.5832233E0,1.9196975E-1,0E0,0E0,0E0,0E0,0E0,0E0,0E0,0E0],"parents":[2147483647,0,0,1,1,2,2,3,3,4,4,5,5,6,6],"right_children":[2,4,6,8,10,12,14,-1,-1,-1,-1,-1,-1,-1,-1],"split_conditions":[1E0,1E0,1E0,1E0,1E0,1E0,1E0,7.537005E-2,-1.1346833E-2,-1.0518463E-1,6.202558E-4,7.614978E-2,-3.0228073E-2,-3.4275934E-2,4.6536177E-3],"split_indices":[980,314,841,807,1722,282,1243,0,0,0,0,0,0,0,0],"split_type":[0,0,0,0,0,0,0,0,0,0,0,0,0,0,0],"sum_hessian":[1.3291708E2,1.1424005E2,1.8677025E1,1.0369813E2,1.0541924E1,1.6641798E1,2.0352263E0,8.316047E0,9.538208E1,8.706588E0,1.8353372E0,1.5574219E1,1.0675803E0,1.0255039E0,1.0097225E0],"tree_param":{"num_deleted":"0","num_feature":"2048","num_nodes":"15","size_leaf_vector":"1"}},{"base_weights":[3.1599674E-2,1.1717578E-1,-3.652053E-1,1.9140537E-1,-5.416031E-1,-5.9917575E-1,5.1519968E-2,2.7191404E-2,-7.2620325E-2,-9.748251E-2,1.6450621E-2,-8.0983736E-2,2.8142795E-2],"categories":[],"categories_nodes":[],"categories_segments":[],"categories_sizes":[],"default_left":[0,0,0,0,0,0,0,0,0,0,0,0,0],"id":32,"left_children":[1,3,5,7,9,11,-1,-1,-1,-1,-1,-1,-1],"loss_changes":[4.7626233E0,5.991186E0,5.978654E0,5.8073545E0,3.5663455E0,3.3057284E0,0E0,0E0,0E0,0E0,0E0,0E0,0E0],"parents":[2147483647,0,0,1,1,2,2,3,3,4,4,5,5],"right_children":[2,4,6,8,10,12,-1,-1,-1,-1,-1,-1,-1],"split_conditions":[1E0,1E0,1E0,1E0,1E0,1E0,5.1519968E-2,2.7191404E-2,-7.2620325E-2,-9.748251E-2,1.6450621E-2,-8.0983736E-2,2.8142795E-2],"split_indices":[1,314,91,41,378,1205,0,0,0,0,0,0,0],"split_type":[0,0,0,0,0,0,0,0,0,0,0,0,0],"sum_hessian":[1.3148045E2,1.10405655E2,2.1074806E1,1.01700356E2,8.705301E0,1.7327414E1,3.7473912E0,9.7906075E1,3.7942767E0,5.0404215E0,3.6648793E0,1.5325664E1,2.0017505E0],"tree_param":{"num_deleted":"0","num_feature":"2048","num_nodes":"13","size_leaf_vector":"1"}},{"base_weights":[4.896819E-2,-3.3192266E-2,6.005416E-1,-1.8507127E-1,2.825092E-1,8.259853E-2,-9.351447E-2,-6.922465E-2,2.636638E-3,4.8079025E-2,-7.192089E-2,1.6079854E-2,-2.9572481E-2],"categories":[],"categories_nodes":[],"categories_segments":[],"categories_sizes":[],"default_left":[0,0,0,0,0,0,0,0,0,0,0,0,0],"id":33,"left_children":[1,3,5,7,9,-1,11,-1,-1,-1,-1,-1,-1],"loss_changes":[6.267954E0,6.0801435E0,2.1970515E0,8.03192E0,7.228323E0,0E0,4.4013923E-1,0E0,0E0,0E0,0E0,0E0,0E0],"parents":[2147483647,0,0,1,1,2,2,3,3,4,4,6,6],"right_children":[2,4,6,8,10,-1,12,-1,-1,-1,-1,-1,-1],"split_conditions":[1E0,1E0,1E0,1E0,1E0,8.259853E-2,1E0,-6.922465E-2,2.636638E-3,4.8079025E-2,-7.192089E-2,1.6079854E-2,-2.9572481E-2],"split_indices":[1693,322,114,935,1847,0,1199,0,0,0,0,0,0],"split_type":[0,0,0,0,0,0,0,0,0,0,0,0,0],"sum_hessian":[1.327225E2,1.1869102E2,1.4031483E1,8.1222435E1,3.7468582E1,1.119484E1,2.8366423E0,2.3355028E1,5.7867405E1,3.387506E1,3.593521E0,1.4795954E0,1.3570468E0],"tree_param":{"num_deleted":"0","num_feature":"2048","num_nodes":"13","size_leaf_vector":"1"}},{"base_weights":[1.0378852E-1,1.4744514E-1,-5.6905144E-1,1.8764319E-1,-7.14447E-2,9.738361E-3,-7.8771435E-2,2.5219427E-2,-5.8831107E-2],"categories":[],"categories_nodes":[],"categories_segments":[],"categories_sizes":[],"default_left":[0,0,0,0,0,0,0,0,0],"id":34,"left_children":[1,3,5,7,-1,-1,-1,-1,-1],"loss_changes":[4.161356E0,4.5217314E0,1.119878E0,4.3045306E0,0E0,0E0,0E0,0E0,0E0],"parents":[2147483647,0,0,1,1,2,2,3,3],"right_children":[2,4,6,8,-1,-1,-1,-1,-1],"split_conditions":[1E0,1E0,1E0,1E0,-7.14447E-2,9.738361E-3,-7.8771435E-2,2.5219427E-2,-5.8831107E-2],"split_indices":[362,1867,1452,41,0,0,0,0,0],"split_type":[0,0,0,0,0,0,0,0,0],"sum_hessian":[1.2669812E2,1.2182487E2,4.8732557E0,1.1883105E2,2.99382E0,1.208279E0,3.664977E0,1.1469146E2,4.139584E0],"tree_param":{"num_deleted":"0","num_feature":"2048","num_nodes":"9","size_leaf_vector":"1"}},{"base_weights":[-1.9518169E-2,4.031141E-2,-7.969302E-1,9.144129E-2,-5.731624E-1,-6.2663797E-3,-1.0158372E-1,-1.9433968E-3,4.750683E-2,-8.226357E-2,1.71343E-2],"categories":[],"categories_nodes":[],"categories_segments":[],"categories_sizes":[],"default_left":[0,0,0,0,0,0,0,0,0,0,0],"id":35,"left_children":[1,3,5,7,9,-1,-1,-1,-1,-1,-1],"loss_changes":[6.465232E0,4.289708E0,7.616973E-1,4.658716E0,1.836313E0,0E0,0E0,0E0,0E0,0E0,0E0],"parents":[2147483647,0,0,1,1,2,2,3,3,4,4],"right_children":[2,4,6,8,10,-1,-1,-1,-1,-1,-1],"split_conditions":[1E0,1E0,1E0,1E0,1E0,-6.2663797E-3,-1.0158372E-1,-1.9433968E-3,4.750683E-2,-8.226357E-2,1.71343E-2],"split_indices":[1349,1114,656,736,1066,0,0,0,0,0,0],"split_type":[0,0,0,0,0,0,0,0,0,0,0],"sum_hessian":[1.3243755E2,1.2639113E2,6.0464225E0,1.1971667E2,6.6744647E0,1.7573603E0,4.289062E0,9.359115E1,2.6125519E1,5.264665E0,1.4097997E0],"tree_param":{"num_deleted":"0","num_feature":"2048","num_nodes":"11","size_leaf_vector":"1"}},{"base_weights":[-5.6057353E-2,-1.1572223E-1,6.1092556E-1,-3.129211E-1,1.093226E-1,7.02683E-1,-6.8467506E-3,-5.5031255E-2,1.3965402E-2,-2.581045E-3,5.6127045E-2,8.7515295E-2,-1.8556119E-3],"categories":[],"categories_nodes":[],"categories_segments":[],"categories_sizes":[],"default_left":[0,0,0,0,0,0,0,0,0,0,0,0,0],"id":36,"left_children":[1,3,5,7,9,11,-1,-1,-1,-1,-1,-1,-1],"loss_changes":[5.345261E0,5.4681325E0,8.555641E-1,5.7043624E0,3.2154517E0,7.590709E-1,0E0,0E0,0E0,0E0,0E0,0E0,0E0],"parents":[2147483647,0,0,1,1,2,2,3,3,4,4,5,5],"right_children":[2,4,6,8,10,12,-1,-1,-1,-1,-1,-1,-1],"split_conditions":[1E0,1E0,1E0,1E0,1E0,1E0,-6.8467506E-3,-5.5031255E-2,1.3965402E-2,-2.581045E-3,5.6127045E-2,8.7515295E-2,-1.8556119E-3],"split_indices":[1285,1057,880,1468,896,1825,0,0,0,0,0,0,0],"split_type":[0,0,0,0,0,0,0,0,0,0,0,0,0],"sum_hessian":[1.2354013E2,1.1634124E2,7.198889E0,6.1198936E1,5.5142303E1,6.187842E0,1.0110468E0,4.2359203E1,1.8839735E1,4.4237343E1,1.0904961E1,5.067216E0,1.1206261E0],"tree_param":{"num_deleted":"0","num_feature":"2048","num_nodes":"13","size_leaf_vector":"1"}},{"base_weights":[-2.7227562E-2,-1.2472218E-1,3.089248E-1,-1.778146E-1,5.614287E-1,3.9062563E-1,-4.425445E-2,-2.6558382E-2,5.2283823E-2,6.753683E-2,3.8886808E-3,5.4247774E-2,-1.6705422E-2],"categories":[],"categories_nodes":[],"categories_segments":[],"categories_sizes":[],"default_left":[0,0,0,0,0,0,0,0,0,0,0,0,0],"id":37,"left_children":[1,3,5,7,9,11,-1,-1,-1,-1,-1,-1,-1],"loss_changes":[4.48736E0,4.2259703E0,2.4134283E0,4.74617E0,1.6541433E-1,1.9931555E0,0E0,0E0,0E0,0E0,0E0,0E0,0E0],"parents":[2147483647,0,0,1,1,2,2,3,3,4,4,5,5],"right_children":[2,4,6,8,10,12,-1,-1,-1,-1,-1,-1,-1],"split_conditions":[1E0,1E0,1E0,1E0,1E0,1E0,-4.425445E-2,-2.6558382E-2,5.2283823E-2,6.753683E-2,3.8886808E-3,5.4247774E-2,-1.6705422E-2],"split_indices":[1928,1476,1134,45,1760,656,0,0,0,0,0,0,0],"split_type":[0,0,0,0,0,0,0,0,0,0,0,0,0],"sum_hessian":[1.2847655E2,1.01484505E2,2.699204E1,9.686527E1,4.6192327E0,2.579528E1,1.1967596E0,9.035371E1,6.511569E0,3.5630455E0,1.056187E0,2.1889141E1,3.9061394E0],"tree_param":{"num_deleted":"0","num_feature":"2048","num_nodes":"13","size_leaf_vector":"1"}},{"base_weights":[-2.788627E-2,3.0675206E-2,-6.628203E-1,7.9883054E-2,-7.9021655E-2,-8.964608E-2,1.3864028E-2,1.4881672E-2,-5.280092E-2],"categories":[],"categories_nodes":[],"categories_segments":[],"categories_sizes":[],"default_left":[0,0,0,0,0,0,0,0,0],"id":38,"left_children":[1,3,5,7,-1,-1,-1,-1,-1],"loss_changes":[4.995872E0,4.8487005E0,1.8072567E0,4.0679173E0,0E0,0E0,0E0,0E0,0E0],"parents":[2147483647,0,0,1,1,2,2,3,3],"right_children":[2,4,6,8,-1,-1,-1,-1,-1],"split_conditions":[1E0,1E0,1E0,1E0,-7.9021655E-2,-8.964608E-2,1.3864028E-2,1.4881672E-2,-5.280092E-2],"split_indices":[1114,1035,667,1195,0,0,0,0,0],"split_type":[0,0,0,0,0,0,0,0,0],"sum_hessian":[1.2835559E2,1.2089915E2,7.4564404E0,1.16742134E2,4.157014E0,6.0975986E0,1.3588415E0,1.0881949E2,7.922644E0],"tree_param":{"num_deleted":"0","num_feature":"2048","num_nodes":"9","size_leaf_vector":"1"}},{"base_weights":[-4.442949E-2,-1.0281074E-1,5.157639E-1,-1.5790126E-1,4.7592187E-1,6.949678E-2,-1.5539872E-2,-2.4937108E-2,2.8162086E-2,6.227256E-2,-6.105434E-3],"categories":[],"categories_nodes":[],"categories_segments":[],"categories_sizes":[],"default_left":[0,0,0,0,0,0,0,0,0,0,0],"id":39,"left_children":[1,3,5,7,9,-1,-1,-1,-1,-1,-1],"loss_changes":[4.1293063E0,3.858765E0,1.292448E0,3.2874453E0,6.5459967E-1,0E0,0E0,0E0,0E0,0E0,0E0],"parents":[2147483647,0,0,1,1,2,2,3,3,4,4],"right_children":[2,4,6,8,10,-1,-1,-1,-1,-1,-1],"split_conditions":[1E0,1E0,1E0,1E0,1E0,6.949678E-2,-1.5539872E-2,-2.4937108E-2,2.8162086E-2,6.227256E-2,-6.105434E-3],"split_indices":[1729,45,1638,1043,1385,0,0,0,0,0,0],"split_type":[0,0,0,0,0,0,0,0,0,0,0],"sum_hessian":[1.16084076E2,1.07998375E2,8.085702E0,1.0118882E2,6.809553E0,6.9533854E0,1.1323168E0,8.8076385E1,1.3112438E1,5.5582175E0,1.2513353E0],"tree_param":{"num_deleted":"0","num_feature":"2048","num_nodes":"11","size_leaf_vector":"1"}},{"base_weights":[-3.206232E-2,-1.026426E-1,5.2038443E-1,-1.6079263E-1,5.1190954E-1,6.030887E-1,-3.610506E-3,-2.7892856E-2,3.18608E-2,6.939188E-2,-1.5152791E-2,9.693405E-3,7.223826E-2,1.713669E-2,-1.7695026E-2],"categories":[],"categories_nodes":[],"categories_segments":[],"categories_sizes":[],"default_left":[0,0,0,0,0,0,0,0,0,0,0,0,0,0,0],"id":40,"left_children":[1,3,5,7,9,11,13,-1,-1,-1,-1,-1,-1,-1,-1],"loss_changes":[5.2220416E0,4.510727E0,6.675644E-1,4.978855E0,1.223284E0,1.6128588E-1,2.4880826E-1,0E0,0E0,0E0,0E0,0E0,0E0,0E0,0E0],"parents":[2147483647,0,0,1,1,2,2,3,3,4,4,5,5,6,6],"right_children":[2,4,6,8,10,12,14,-1,-1,-1,-1,-1,-1,-1,-1],"split_conditions":[1E0,1E0,1E0,1E0,1E0,1E0,1E0,-2.7892856E-2,3.18608E-2,6.939188E-2,-1.5152791E-2,9.693405E-3,7.223826E-2,1.713669E-2,-1.7695026E-2],"split_indices":[1758,576,1754,216,13,1911,1214,0,0,0,0,0,0,0,0],"split_type":[0,0,0,0,0,0,0,0,0,0,0,0,0,0,0],"sum_hessian":[1.2472686E2,1.1339966E2,1.1327202E1,1.062156E2,7.1840615E0,9.277021E0,2.0501804E0,8.929536E1,1.6920238E1,6.125498E0,1.0585634E0,1.9222518E0,7.354769E0,1.0364945E0,1.013686E0],"tree_param":{"num_deleted":"0","num_feature":"2048","num_nodes":"15","size_leaf_vector":"1"}},{"base_weights":[-5.121893E-2,-1.4443159E-1,3.9545307E-1,-6.29562E-2,-7.880223E-1,6.2242873E-2,5.54834E-1,-1.4210806E-2,5.932836E-2,-1.0509996E-1,2.1725109E-2,-2.3597851E-2,3.598055E-2,7.0844986E-2,-1.4262191E-2],"categories":[],"categories_nodes":[],"categories_segments":[],"categories_sizes":[],"default_left":[0,0,0,0,0,0,0,0,0,0,0,0,0,0,0],"id":41,"left_children":[1,3,5,7,9,11,13,-1,-1,-1,-1,-1,-1,-1,-1],"loss_changes":[5.609739E0,5.570734E0,1.1076639E0,4.4003086E0,2.790533E0,1.1607152E0,1.3035622E0,0E0,0E0,0E0,0E0,0E0,0E0,0E0,0E0],"parents":[2147483647,0,0,1,1,2,2,3,3,4,4,5,5,6,6],"right_children":[2,4,6,8,10,12,14,-1,-1,-1,-1,-1,-1,-1,-1],"split_conditions":[1E0,1E0,1E0,1E0,1E0,1E0,1E0,-1.4210806E-2,5.932836E-2,-1.0509996E-1,2.1725109E-2,-2.3597851E-2,3.598055E-2,7.0844986E-2,-1.4262191E-2],"split_indices":[980,314,935,1729,814,896,1679,0,0,0,0,0,0,0,0],"split_type":[0,0,0,0,0,0,0,0,0,0,0,0,0,0,0],"sum_hessian":[1.25527374E2,1.060279E2,1.9499475E1,9.7896355E1,8.131541E0,8.05571E0,1.1443767E1,9.0890144E1,7.0062118E0,7.0050817E0,1.12646E0,4.307772E0,3.7479372E0,1.026448E1,1.179287E0],"tree_param":{"num_deleted":"0","num_feature":"2048","num_nodes":"15","size_leaf_vector":"1"}},{"base_weights":[2.0091658E-2,7.1503125E-2,-6.1825913E-1,1.19527854E-1,-5.89139E-1,-2.3436737E-3,-7.5537704E-2,1.2652361E-3,5.9982155E-2,-7.294251E-2,5.022647E-4],"categories":[],"categories_nodes":[],"categories_segments":[],"categories_sizes":[],"default_left":[0,0,0,0,0,0,0,0,0,0,0],"id":42,"left_children":[1,3,5,7,9,-1,-1,-1,-1,-1,-1],"loss_changes":[4.4343467E0,4.1975746E0,3.7819076E-1,5.4637585E0,4.292028E-1,0E0,0E0,0E0,0E0,0E0,0E0],"parents":[2147483647,0,0,1,1,2,2,3,3,4,4],"right_children":[2,4,6,8,10,-1,-1,-1,-1,-1,-1],"split_conditions":[1E0,1E0,1E0,1E0,1E0,-2.3436737E-3,-7.5537704E-2,1.2652361E-3,5.9982155E-2,-7.294251E-2,5.022647E-4],"split_indices":[118,339,1381,561,310,0,0,0,0,0,0],"split_type":[0,0,0,0,0,0,0,0,0,0,0],"sum_hessian":[1.2600611E2,1.19804405E2,6.2017035E0,1.1464964E2,5.154764E0,1.2150112E0,4.9866924E0,9.477882E1,1.9870829E1,4.1346173E0,1.0201467E0],"tree_param":{"num_deleted":"0","num_feature":"2048","num_nodes":"11","size_leaf_vector":"1"}},{"base_weights":[4.1858193E-2,9.798402E-2,-8.8407956E-2,1.3391507E-1,-7.867488E-2,1.9544069E-2,-5.926152E-2],"categories":[],"categories_nodes":[],"categories_segments":[],"categories_sizes":[],"default_left":[0,0,0,0,0,0,0],"id":43,"left_children":[1,3,-1,5,-1,-1,-1],"loss_changes":[6.3730636E0,3.9774578E0,0E0,4.0314217E0,0E0,0E0,0E0],"parents":[2147483647,0,0,1,1,3,3],"right_children":[2,4,-1,6,-1,-1,-1],"split_conditions":[1E0,1E0,-8.8407956E-2,1E0,-7.867488E-2,1.9544069E-2,-5.926152E-2],"split_indices":[362,1991,0,118,0,0,0],"split_type":[0,0,0,0,0,0,0],"sum_hessian":[1.2323449E2,1.1882462E2,4.4098682E0,1.1692998E2,1.8946427E0,1.1234121E2,4.5887685E0],"tree_param":{"num_deleted":"0","num_feature":"2048","num_nodes":"7","size_leaf_vector":"1"}},{"base_weights":[2.9005121E-2,-2.9870097E-2,6.808971E-2,-2.3332535E-1,2.0000277E-1,-3.421664E-2,5.4723762E-2,3.0858744E-2,-4.9778115E-2],"categories":[],"categories_nodes":[],"categories_segments":[],"categories_sizes":[],"default_left":[0,0,0,0,0,0,0,0,0],"id":44,"left_children":[1,3,-1,5,7,-1,-1,-1,-1],"loss_changes":[4.333614E0,5.543023E0,0E0,4.2603397E0,3.5076106E0,0E0,0E0,0E0,0E0],"parents":[2147483647,0,0,1,1,3,3,4,4],"right_children":[2,4,-1,6,8,-1,-1,-1,-1],"split_conditions":[1E0,1E0,6.808971E-2,1E0,1E0,-3.421664E-2,5.4723762E-2,3.0858744E-2,-4.9778115E-2],"split_indices":[787,695,0,1285,118,0,0,0,0],"split_type":[0,0,0,0,0,0,0,0,0],"sum_hessian":[1.1806475E2,1.107643E2,7.3004518E0,5.8727566E1,5.203673E1,5.4993626E1,3.7339368E0,4.8203064E1,3.8336692E0],"tree_param":{"num_deleted":"0","num_feature":"2048","num_nodes":"9","size_leaf_vector":"1"}},{"base_weights":[-1.05957384E-4,-8.909633E-2,4.1695204E-1,1.4616644E-1,-2.843419E-1,5.277982E-1,-2.5731627E-2,2.867188E-2,-7.253225E-2,-4.354463E-2,1.1065779E-2,1.3119525E-2,8.094328E-2],"categories":[],"categories_nodes":[],"categories_segments":[],"categories_sizes":[],"default_left":[0,0,0,0,0,0,0,0,0,0,0,0,0],"id":45,"left_children":[1,3,5,7,9,11,-1,-1,-1,-1,-1,-1,-1],"loss_changes":[4.7896495E0,5.046596E0,2.1227396E0,5.443185E0,2.7637777E0,1.438343E0,0E0,0E0,0E0,0E0,0E0,0E0,0E0],"parents":[2147483647,0,0,1,1,2,2,3,3,4,4,5,5],"right_children":[2,4,6,8,10,12,-1,-1,-1,-1,-1,-1,-1],"split_conditions":[1E0,1E0,1E0,1E0,1E0,1E0,-2.5731627E-2,2.867188E-2,-7.253225E-2,-4.354463E-2,1.1065779E-2,1.3119525E-2,8.094328E-2],"split_indices":[980,1199,1670,314,1535,935,0,0,0,0,0,0,0],"split_type":[0,0,0,0,0,0,0,0,0,0,0,0,0],"sum_hessian":[1.21284386E2,1.0247191E2,1.8812471E1,4.691595E1,5.555596E1,1.6712646E1,2.0998256E0,4.333091E1,3.5850432E0,4.2796955E1,1.2759004E1,7.8006053E0,8.912041E0],"tree_param":{"num_deleted":"0","num_feature":"2048","num_nodes":"13","size_leaf_vector":"1"}},{"base_weights":[3.8085174E-2,-5.2629486E-2,4.8771635E-1,-4.2675322E-4,-1.00913435E-1,5.759921E-1,-1.393205E-2,9.433112E-3,-5.464326E-2,7.0212916E-2,9.974716E-3],"categories":[],"categories_nodes":[],"categories_segments":[],"categories_sizes":[],"default_left":[0,0,0,0,0,0,0,0,0,0,0],"id":46,"left_children":[1,3,5,7,-1,9,-1,-1,-1,-1,-1],"loss_changes":[5.2982597E0,4.9744835E0,1.4671874E0,4.807245E0,0E0,4.0421772E-1,0E0,0E0,0E0,0E0,0E0],"parents":[2147483647,0,0,1,1,2,2,3,3,5,5],"right_children":[2,4,6,8,-1,10,-1,-1,-1,-1,-1],"split_conditions":[1E0,1E0,1E0,1E0,-1.00913435E-1,1E0,-1.393205E-2,9.433112E-3,-5.464326E-2,7.0212916E-2,9.974716E-3],"split_indices":[980,456,1410,739,0,1143,0,0,0,0,0],"split_type":[0,0,0,0,0,0,0,0,0,0,0],"sum_hessian":[1.23572235E2,1.0567872E2,1.789351E1,1.0336078E2,2.3179417E0,1.5863642E1,2.029869E0,9.080518E1,1.2555598E1,1.2855756E1,3.007886E0],"tree_param":{"num_deleted":"0","num_feature":"2048","num_nodes":"11","size_leaf_vector":"1"}},{"base_weights":[-6.116855E-2,-1.15828596E-1,5.190831E-1,-1.8962803E-1,4.0097454E-1,5.9033436E-1,-2.9633848E-3,-2.7439222E-2,6.6653475E-2,6.1511315E-2,-3.3390054E-3,7.57184E-2,6.6140853E-3],"categories":[],"categories_nodes":[],"categories_segments":[],"categories_sizes":[],"default_left":[0,0,0,0,0,0,0,0,0,0,0,0,0],"id":47,"left_children":[1,3,5,7,9,11,-1,-1,-1,-1,-1,-1,-1],"loss_changes":[4.228234E0,4.8065057E0,5.116341E-1,5.788186E0,1.1830175E0,3.987639E-1,0E0,0E0,0E0,0E0,0E0,0E0,0E0],"parents":[2147483647,0,0,1,1,2,2,3,3,4,4,5,5],"right_children":[2,4,6,8,10,12,-1,-1,-1,-1,-1,-1,-1],"split_conditions":[1E0,1E0,1E0,1E0,1E0,1E0,-2.9633848E-3,-2.7439222E-2,6.6653475E-2,6.1511315E-2,-3.3390054E-3,7.57184E-2,6.6140853E-3],"split_indices":[1099,1693,1312,1476,472,263,0,0,0,0,0,0,0],"split_type":[0,0,0,0,0,0,0,0,0,0,0,0,0],"sum_hessian":[1.2207222E2,1.1440246E2,7.6697583E0,1.0225763E2,1.2144831E1,6.507043E0,1.1627152E0,9.7450676E1,4.8069496E0,7.9813633E0,4.1634674E0,4.4589267E0,2.0481164E0],"tree_param":{"num_deleted":"0","num_feature":"2048","num_nodes":"13","size_leaf_vector":"1"}},{"base_weights":[-2.109444E-2,2.996065E-2,-8.235421E-2,7.45116E-2,-6.953441E-2,1.2829605E-2,-6.7576565E-2],"categories":[],"categories_nodes":[],"categories_segments":[],"categories_sizes":[],"default_left":[0,0,0,0,0,0,0],"id":48,"left_children":[1,3,-1,5,-1,-1,-1],"loss_changes":[4.6786666E0,3.7010612E0,0E0,3.677322E0,0E0,0E0,0E0],"parents":[2147483647,0,0,1,1,3,3],"right_children":[2,4,-1,6,-1,-1,-1],"split_conditions":[1E0,1E0,-8.235421E-2,1E0,-6.953441E-2,1.2829605E-2,-6.7576565E-2],"split_indices":[110,1863,0,1501,0,0,0],"split_type":[0,0,0,0,0,0,0],"sum_hessian":[1.1898635E2,1.1470745E2,4.2788982E0,1.1074374E2,3.963719E0,1.0733441E2,3.4093251E0],"tree_param":{"num_deleted":"0","num_feature":"2048","num_nodes":"7","size_leaf_vector":"1"}},{"base_weights":[-3.2694682E-2,-9.091645E-2,5.2236474E-1,-1.3845335E-1,5.733589E-2,7.938722E-2,-3.7760846E-2,-2.2456408E-2,3.2708928E-2],"categories":[],"categories_nodes":[],"categories_segments":[],"categories_sizes":[],"default_left":[0,0,0,0,0,0,0,0,0],"id":49,"left_children":[1,3,5,7,-1,-1,-1,-1,-1],"loss_changes":[4.354579E0,3.7936738E0,3.2371306E0,3.5896757E0,0E0,0E0,0E0,0E0,0E0],"parents":[2147483647,0,0,1,1,2,2,3,3],"right_children":[2,4,6,8,-1,-1,-1,-1,-1],"split_conditions":[1E0,1E0,1E0,1E0,5.733589E-2,7.938722E-2,-3.7760846E-2,-2.2456408E-2,3.2708928E-2],"split_indices":[45,366,716,1693,0,0,0,0,0],"split_type":[0,0,0,0,0,0,0,0,0],"sum_hessian":[1.25160995E2,1.1621677E2,8.944229E0,1.1067243E2,5.544336E0,7.7588935E0,1.1853353E0,9.778734E1,1.2885094E1],"tree_param":{"num_deleted":"0","num_feature":"2048","num_nodes":"9","size_leaf_vector":"1"}},{"base_weights":[3.2954846E-2,7.252459E-2,-6.04635E-1,1.13738105E-1,-6.645804E-2,-8.868889E-2,1.0406095E-2,1.7188633E-2,-5.9933223E-2],"categories":[],"categories_nodes":[],"categories_segments":[],"categories_sizes":[],"default_left":[0,0,0,0,0,0,0,0,0],"id":50,"left_children":[1,3,5,7,-1,-1,-1,-1,-1],"loss_changes":[3.271553E0,3.6098917E0,1.3962572E0,3.6575181E0,0E0,0E0,0E0,0E0,0E0],"parents":[2147483647,0,0,1,1,2,2,3,3],"right_children":[2,4,6,8,-1,-1,-1,-1,-1],"split_conditions":[1E0,1E0,1E0,1E0,-6.645804E-2,-8.868889E-2,1.0406095E-2,1.7188633E-2,-5.9933223E-2],"split_indices":[456,110,1760,362,0,0,0,0,0],"split_type":[0,0,0,0,0,0,0,0,0],"sum_hessian":[1.1904386E2,1.1532687E2,3.716991E0,1.1178604E2,3.5408275E0,2.3947852E0,1.3222059E0,1.0768047E2,4.1055713E0],"tree_param":{"num_deleted":"0","num_feature":"2048","num_nodes":"9","size_leaf_vector":"1"}},{"base_weights":[3.2122653E-2,7.278265E-2,-9.284089E-2,1.2823187E-1,-5.470054E-1,1.947174E-2,-6.476353E-2,-8.004506E-2,2.3107085E-2],"categories":[],"categories_nodes":[],"categories_segments":[],"categories_sizes":[],"default_left":[0,0,0,0,0,0,0,0,0],"id":51,"left_children":[1,3,-1,5,7,-1,-1,-1,-1],"loss_changes":[4.722285E0,4.505992E0,0E0,4.578514E0,2.121535E0,0E0,0E0,0E0,0E0],"parents":[2147483647,0,0,1,1,3,3,4,4],"right_children":[2,4,-1,6,8,-1,-1,-1,-1],"split_conditions":[1E0,1E0,-9.284089E-2,1E0,1E0,1.947174E-2,-6.476353E-2,-8.004506E-2,2.3107085E-2],"split_indices":[1991,1114,0,1035,711,0,0,0,0],"split_type":[0,0,0,0,0,0,0,0,0],"sum_hessian":[1.2125512E2,1.1930977E2,1.9453521E0,1.1233821E2,6.9715514E0,1.0780794E2,4.5302773E0,5.713871E0,1.2576804E0],"tree_param":{"num_deleted":"0","num_feature":"2048","num_nodes":"9","size_leaf_vector":"1"}},{"base_weights":[1.2923673E-2,-7.160817E-2,3.2389662E-1,-2.4668418E-1,1.6638748E-1,4.830036E-1,-6.1463255E-2,-3.636084E-2,5.0409023E-2,2.4852652E-2,-5.446308E-2,6.0478337E-2,-2.2672884E-2],"categories":[],"categories_nodes":[],"categories_segments":[],"categories_sizes":[],"default_left":[0,0,0,0,0,0,0,0,0,0,0,0,0],"id":52,"left_children":[1,3,5,7,9,11,-1,-1,-1,-1,-1,-1,-1],"loss_changes":[3.300128E0,4.2925444E0,4.831455E0,4.1580305E0,2.2323303E0,1.6430154E0,0E0,0E0,0E0,0E0,0E0,0E0,0E0],"parents":[2147483647,0,0,1,1,2,2,3,3,4,4,5,5],"right_children":[2,4,6,8,10,12,-1,-1,-1,-1,-1,-1,-1],"split_conditions":[1E0,1E0,1E0,1E0,1E0,1E0,-6.1463255E-2,-3.636084E-2,5.0409023E-2,2.4852652E-2,-5.446308E-2,6.0478337E-2,-2.2672884E-2],"split_indices":[74,1452,1096,552,184,738,0,0,0,0,0,0,0],"split_type":[0,0,0,0,0,0,0,0,0,0,0,0,0],"sum_hessian":[1.1823462E2,9.5313545E1,2.2921076E1,5.4834267E1,4.047928E1,2.0927664E1,1.9934126E0,5.074188E1,4.092387E0,3.9423027E1,1.0562508E0,1.9703335E1,1.2243295E0],"tree_param":{"num_deleted":"0","num_feature":"2048","num_nodes":"13","size_leaf_vector":"1"}},{"base_weights":[1.020723E-2,6.282864E-2,-7.097148E-2,1.0791535E-1,-6.106677E-1,2.9773545E-3,6.394597E-2,-8.44342E-2,7.6958886E-4],"categories":[],"categories_nodes":[],"categories_segments":[],"categories_sizes":[],"default_left":[0,0,0,0,0,0,0,0,0],"id":53,"left_children":[1,3,-1,5,7,-1,-1,-1,-1],"loss_changes":[4.392467E0,3.7963457E0,0E0,4.2691684E0,8.081727E-1,0E0,0E0,0E0,0E0],"parents":[2147483647,0,0,1,1,3,3,4,4],"right_children":[2,4,-1,6,8,-1,-1,-1,-1],"split_conditions":[1E0,1E0,-7.097148E-2,1E0,1E0,2.9773545E-3,6.394597E-2,-8.44342E-2,7.6958886E-4],"split_indices":[339,1745,0,1370,1399,0,0,0,0],"split_type":[0,0,0,0,0,0,0,0,0],"sum_hessian":[1.1820111E2,1.1271414E2,5.486966E0,1.08697395E2,4.0167503E0,9.6472275E1,1.2225122E1,2.4161618E0,1.6005887E0],"tree_param":{"num_deleted":"0","num_feature":"2048","num_nodes":"9","size_leaf_vector":"1"}},{"base_weights":[1.0457361E-3,-5.4508813E-2,6.0579225E-2,-1.232635E-1,3.0207247E-1,3.561033E-3,-3.502564E-2,5.266234E-2,-1.5078586E-2],"categories":[],"categories_nodes":[],"categories_segments":[],"categories_sizes":[],"default_left":[0,0,0,0,0,0,0,0,0],"id":54,"left_children":[1,3,-1,5,7,-1,-1,-1,-1],"loss_changes":[3.786762E0,2.8929794E0,0E0,3.0097864E0,1.7769063E0,0E0,0E0,0E0,0E0],"parents":[2147483647,0,0,1,1,3,3,4,4],"right_children":[2,4,-1,6,8,-1,-1,-1,-1],"split_conditions":[1E0,1E0,6.0579225E-2,1E0,1E0,3.561033E-3,-3.502564E-2,5.266234E-2,-1.5078586E-2],"split_indices":[1729,534,0,1754,1325,0,0,0,0],"split_type":[0,0,0,0,0,0,0,0,0],"sum_hessian":[1.1559932E2,1.082231E2,7.3762193E0,9.285848E1,1.5364617E1,5.3654583E1,3.92039E1,1.0653158E1,4.7114587E0],"tree_param":{"num_deleted":"0","num_feature":"2048","num_nodes":"9","size_leaf_vector":"1"}},{"base_weights":[-8.59874E-2,-1.7262432E-1,3.0886686E-1,-2.8238347E-1,1.6722436E-1,4.4727823E-1,-4.442957E-2,-4.0926553E-2,3.5509888E-2,3.084452E-2,-5.17765E-2,6.4150214E-2,-3.5356935E-2],"categories":[],"categories_nodes":[],"categories_segments":[],"categories_sizes":[],"default_left":[0,0,0,0,0,0,0,0,0,0,0,0,0],"id":55,"left_children":[1,3,5,7,9,11,-1,-1,-1,-1,-1,-1,-1],"loss_changes":[4.4063544E0,4.0312843E0,3.0292845E0,4.8979573E0,2.549427E0,3.0451188E0,0E0,0E0,0E0,0E0,0E0,0E0,0E0],"parents":[2147483647,0,0,1,1,2,2,3,3,4,4,5,5],"right_children":[2,4,6,8,10,12,-1,-1,-1,-1,-1,-1,-1],"split_conditions":[1E0,1E0,1E0,1E0,1E0,1E0,-4.442957E-2,-4.0926553E-2,3.5509888E-2,3.084452E-2,-5.17765E-2,6.4150214E-2,-3.5356935E-2],"split_indices":[896,1855,654,1758,750,1542,0,0,0,0,0,0,0],"split_type":[0,0,0,0,0,0,0,0,0,0,0,0,0],"sum_hessian":[1.1887477E2,9.927677E1,1.9598003E1,7.5537285E1,2.3739487E1,1.7637882E1,1.9601213E0,6.690728E1,8.630001E0,2.1974945E1,1.7645416E0,1.5723451E1,1.9144312E0],"tree_param":{"num_deleted":"0","num_feature":"2048","num_nodes":"13","size_leaf_vector":"1"}},{"base_weights":[-8.087759E-2,-1.3759972E-1,5.8319397E-2,-1.9096884E-1,4.0255618E-1,-2.612421E-2,4.9573626E-2,6.767054E-2,-1.7335745E-2],"categories":[],"categories_nodes":[],"categories_segments":[],"categories_sizes":[],"default_left":[0,0,0,0,0,0,0,0,0],"id":56,"left_children":[1,3,-1,5,7,-1,-1,-1,-1],"loss_changes":[4.4711018E0,3.5589929E0,0E0,3.6770058E0,1.7656108E0,0E0,0E0,0E0,0E0],"parents":[2147483647,0,0,1,1,3,3,4,4],"right_children":[2,4,-1,6,8,-1,-1,-1,-1],"split_conditions":[1E0,1E0,5.8319397E-2,1E0,1E0,-2.612421E-2,4.9573626E-2,6.767054E-2,-1.7335745E-2],"split_indices":[1729,787,0,1476,114,0,0,0,0],"split_type":[0,0,0,0,0,0,0,0,0],"sum_hessian":[1.16300224E2,1.0922367E2,7.0765524E0,1.0168624E2,7.5374303E0,9.692429E1,4.761946E0,5.1531377E0,2.3842926E0],"tree_param":{"num_deleted":"0","num_feature":"2048","num_nodes":"9","size_leaf_vector":"1"}},{"base_weights":[-5.2610714E-2,-1.02058835E-1,5.1316243E-1,-1.5675649E-1,4.45053E-1,6.736979E-2,-5.3497697E-3,-2.262128E-2,5.3242344E-2,6.540622E-2,-1.5118271E-2],"categories":[],"categories_nodes":[],"categories_segments":[],"categories_sizes":[],"default_left":[0,0,0,0,0,0,0,0,0,0,0],"id":57,"left_children":[1,3,5,7,9,-1,-1,-1,-1,-1,-1],"loss_changes":[3.5713797E0,3.680901E0,7.132993E-1,3.8215463E0,1.3351281E0,0E0,0E0,0E0,0E0,0E0,0E0],"parents":[2147483647,0,0,1,1,2,2,3,3,4,4],"right_children":[2,4,6,8,10,-1,-1,-1,-1,-1,-1],"split_conditions":[1E0,1E0,1E0,1E0,1E0,6.736979E-2,-5.3497697E-3,-2.262128E-2,5.3242344E-2,6.540622E-2,-1.5118271E-2],"split_indices":[576,1586,149,1255,1745,0,0,0,0,0,0],"split_type":[0,0,0,0,0,0,0,0,0,0,0],"sum_hessian":[1.1650778E2,1.1006947E2,6.438315E0,1.0258336E2,7.4861116E0,5.128177E0,1.3101375E0,9.762226E1,4.9611E0,5.8531265E0,1.6329854E0],"tree_param":{"num_deleted":"0","num_feature":"2048","num_nodes":"11","size_leaf_vector":"1"}},{"base_weights":[3.29626E-2,-3.3382185E-2,4.7708E-1,-1.2663308E-1,3.649832E-1,6.0581677E-2,-9.806671E-3,-2.6485981E-2,4.0590264E-2,-3.255264E-2,5.7956837E-2],"categories":[],"categories_nodes":[],"categories_segments":[],"categories_sizes":[],"default_left":[0,0,0,0,0,0,0,0,0,0,0],"id":58,"left_children":[1,3,5,7,9,-1,-1,-1,-1,-1,-1],"loss_changes":[3.4659598E0,4.0481668E0,8.5760856E-1,5.3674827E0,2.8802311E0,0E0,0E0,0E0,0E0,0E0,0E0],"parents":[2147483647,0,0,1,1,2,2,3,3,4,4],"right_children":[2,4,6,8,10,-1,-1,-1,-1,-1,-1],"split_conditions":[1E0,1E0,1E0,1E0,1E0,6.0581677E-2,-9.806671E-3,-2.6485981E-2,4.0590264E-2,-3.255264E-2,5.7956837E-2],"split_indices":[1693,896,712,1370,378,0,0,0,0,0,0],"split_type":[0,0,0,0,0,0,0,0,0,0,0],"sum_hessian":[1.1165011E2,1.0026247E2,1.1387642E1,8.3390114E1,1.6872349E1,1.0105755E1,1.2818869E0,6.929893E1,1.4091191E1,2.739964E0,1.4132384E1],"tree_param":{"num_deleted":"0","num_feature":"2048","num_nodes":"11","size_leaf_vector":"1"}},{"base_weights":[3.1765405E-2,6.962915E-2,-7.570335E-2,1.0446167E-1,-7.0684195E-2,1.9715008E-4,4.391288E-2],"categories":[],"categories_nodes":[],"categories_segments":[],"categories_sizes":[],"default_left":[0,0,0,0,0,0,0],"id":59,"left_children":[1,3,-1,5,-1,-1,-1],"loss_changes":[3.4995177E0,3.213707E0,0E0,3.5410118E0,0E0,0E0,0E0],"parents":[2147483647,0,0,1,1,3,3],"right_children":[2,4,-1,6,-1,-1,-1],"split_conditions":[1E0,1E0,-7.570335E-2,1E0,-7.0684195E-2,1.9715008E-4,4.391288E-2],"split_indices":[14,1991,0,1535,0,0,0],"split_type":[0,0,0,0,0,0,0],"sum_hessian":[1.1696315E2,1.1448382E2,2.4793358E0,1.1233364E2,2.1501765E0,8.63839E1,2.594974E1],"tree_param":{"num_deleted":"0","num_feature":"2048","num_nodes":"7","size_leaf_vector":"1"}},{"base_weights":[-3.225246E-2,-6.9276996E-2,7.755546E-2,-1.20373264E-1,4.8521626E-1,-1.794518E-2,5.0142158E-2,6.303729E-2,-4.8887553E-3],"categories":[],"categories_nodes":[],"categories_segments":[],"categories_sizes":[],"default_left":[0,0,0,0,0,0,0,0,0],"id":60,"left_children":[1,3,-1,5,7,-1,-1,-1,-1],"loss_changes":[3.443234E0,3.5245802E0,0E0,3.066549E0,6.1157966E-1,0E0,0E0,0E0,0E0],"parents":[2147483647,0,0,1,1,3,3,4,4],"right_children":[2,4,-1,6,8,-1,-1,-1,-1],"split_conditions":[1E0,1E0,7.755546E-2,1E0,1E0,-1.794518E-2,5.0142158E-2,6.303729E-2,-4.8887553E-3],"split_indices":[1250,1285,0,366,753,0,0,0,0],"split_type":[0,0,0,0,0,0,0,0,0],"sum_hessian":[1.1461614E2,1.1251601E2,2.1001348E0,1.0580531E2,6.7106986E0,1.0096419E2,4.8411202E0,5.435647E0,1.2750516E0],"tree_param":{"num_deleted":"0","num_feature":"2048","num_nodes":"9","size_leaf_vector":"1"}},{"base_weights":[-5.315479E-2,-2.9218118E-3,-7.9417005E-2,-5.142301E-2,7.203195E-2,-1.3607724E-2,4.924558E-2],"categories":[],"categories_nodes":[],"categories_segments":[],"categories_sizes":[],"default_left":[0,0,0,0,0,0,0],"id":61,"left_children":[1,3,-1,5,-1,-1,-1],"loss_changes":[3.9843135E0,3.7826564E0,0E0,4.231917E0,0E0,0E0,0E0],"parents":[2147483647,0,0,1,1,3,3],"right_children":[2,4,-1,6,-1,-1,-1],"split_conditions":[1E0,1E0,-7.9417005E-2,1E0,7.203195E-2,-1.3607724E-2,4.924558E-2],"split_indices":[362,147,0,1693,0,0,0],"split_type":[0,0,0,0,0,0,0],"sum_hessian":[1.1422413E2,1.0991809E2,4.306039E0,1.0574518E2,4.172908E0,9.486212E1,1.0883059E1],"tree_param":{"num_deleted":"0","num_feature":"2048","num_nodes":"7","size_leaf_vector":"1"}},{"base_weights":[-9.357924E-2,1.05294265E-1,-2.5603828E-1,1.8683757E-1,-6.2238652E-2,-3.1745917E-1,5.27259E-2,2.7176129E-2,-6.523531E-2,-4.1199096E-2,4.468685E-2],"categories":[],"categories_nodes":[],"categories_segments":[],"categories_sizes":[],"default_left":[0,0,0,0,0,0,0,0,0,0,0],"id":62,"left_children":[1,3,5,7,-1,9,-1,-1,-1,-1,-1],"loss_changes":[3.9084322E0,3.4747179E0,3.5830493E0,3.114735E0,0E0,3.3153238E0,0E0,0E0,0E0,0E0,0E0],"parents":[2147483647,0,0,1,1,2,2,3,3,5,5],"right_children":[2,4,6,8,-1,10,-1,-1,-1,-1,-1],"split_conditions":[1E0,1E0,1E0,1E0,-6.2238652E-2,1E0,5.27259E-2,2.7176129E-2,-6.523531E-2,-4.1199096E-2,4.468685E-2],"split_indices":[1152,110,618,1991,0,1738,0,0,0,0,0],"split_type":[0,0,0,0,0,0,0,0,0,0,0],"sum_hessian":[1.13850044E2,5.1802357E1,6.2047688E1,4.8717693E1,3.0846622E0,5.9323513E1,2.7241719E0,4.762099E1,1.0967048E0,5.657614E1,2.7473726E0],"tree_param":{"num_deleted":"0","num_feature":"2048","num_nodes":"11","size_leaf_vector":"1"}},{"base_weights":[7.5646736E-2,1.087568E-1,-6.0888577E-2,5.1746964E-2,7.8886785E-2,1.2977627E-2,-2.6560502E-2],"categories":[],"categories_nodes":[],"categories_segments":[],"categories_sizes":[],"default_left":[0,0,0,0,0,0,0],"id":63,"left_children":[1,3,-1,5,-1,-1,-1],"loss_changes":[2.620566E0,3.749134E0,0E0,2.2051606E0,0E0,0E0,0E0],"parents":[2147483647,0,0,1,1,3,3],"right_children":[2,4,-1,6,-1,-1,-1],"split_conditions":[1E0,1E0,-6.0888577E-2,1E0,7.8886785E-2,1.2977627E-2,-2.6560502E-2],"split_indices":[1281,147,0,1,0,0,0],"split_type":[0,0,0,0,0,0,0],"sum_hessian":[1.1005493E2,1.0763353E2,2.421402E0,1.0231991E2,5.313621E0,8.5271255E1,1.7048656E1],"tree_param":{"num_deleted":"0","num_feature":"2048","num_nodes":"7","size_leaf_vector":"1"}},{"base_weights":[2.3022832E-2,6.7592755E-2,-6.9033004E-2,-3.907767E-2,3.353177E-1,-9.893474E-3,5.214378E-2,4.869102E-2,-5.0080705E-2],"categories":[],"categories_nodes":[],"categories_segments":[],"categories_sizes":[],"default_left":[0,0,0,0,0,0,0,0,0],"id":64,"left_children":[1,3,-1,5,7,-1,-1,-1,-1],"loss_changes":[3.6318955E0,3.32951E0,0E0,2.4353268E0,3.6771958E0,0E0,0E0,0E0,0E0],"parents":[2147483647,0,0,1,1,3,3,4,4],"right_children":[2,4,-1,6,8,-1,-1,-1,-1],"split_conditions":[1E0,1E0,-6.9033004E-2,1E0,1E0,-9.893474E-3,5.214378E-2,4.869102E-2,-5.0080705E-2],"split_indices":[362,1855,0,1783,1867,0,0,0,0],"split_type":[0,0,0,0,0,0,0,0,0],"sum_hessian":[1.1499951E2,1.10923225E2,4.0762873E0,8.169039E1,2.9232832E1,7.7201935E1,4.4884553E0,2.717239E1,2.0604424E0],"tree_param":{"num_deleted":"0","num_feature":"2048","num_nodes":"9","size_leaf_vector":"1"}},{"base_weights":[-2.1297501E-2,1.8453842E-2,-7.13171E-1,-2.2961758E-2,6.1927177E-2,-9.035062E-2,-5.234257E-3,5.54196E-3,-3.9021347E-2],"categories":[],"categories_nodes":[],"categories_segments":[],"categories_sizes":[],"default_left":[0,0,0,0,0,0,0,0,0],"id":65,"left_children":[1,3,5,7,-1,-1,-1,-1,-1],"loss_changes":[3.25429E0,2.6348753E0,3.2925653E-1,2.7652113E0,0E0,0E0,0E0,0E0,0E0],"parents":[2147483647,0,0,1,1,2,2,3,3],"right_children":[2,4,6,8,-1,-1,-1,-1,-1],"split_conditions":[1E0,1E0,1E0,1E0,6.1927177E-2,-9.035062E-2,-5.234257E-3,5.54196E-3,-3.9021347E-2],"split_indices":[14,1810,1567,1,0,0,0,0,0],"split_type":[0,0,0,0,0,0,0,0,0],"sum_hessian":[1.12585815E2,1.1004179E2,2.5440295E0,1.05764114E2,4.2776713E0,1.3729844E0,1.1710452E0,8.934838E1,1.6415737E1],"tree_param":{"num_deleted":"0","num_feature":"2048","num_nodes":"9","size_leaf_vector":"1"}},{"base_weights":[9.1823016E-4,5.753647E-2,-6.0585536E-2,9.115746E-2,-6.72489E-2,1.46407345E-2,-4.160406E-2],"categories":[],"categories_nodes":[],"categories_segments":[],"categories_sizes":[],"default_left":[0,0,0,0,0,0,0],"id":66,"left_children":[1,3,-1,5,-1,-1,-1],"loss_changes":[3.8006325E0,2.6980393E0,0E0,2.3699841E0,0E0,0E0,0E0],"parents":[2147483647,0,0,1,1,3,3],"right_children":[2,4,-1,6,-1,-1,-1],"split_conditions":[1E0,1E0,-6.0585536E-2,1E0,-6.72489E-2,1.46407345E-2,-4.160406E-2],"split_indices":[1195,1302,0,1114,0,0,0],"split_type":[0,0,0,0,0,0,0],"sum_hessian":[1.1316133E2,1.0584059E2,7.3207374E0,1.0399626E2,1.844337E0,9.79094E1,6.086854E0],"tree_param":{"num_deleted":"0","num_feature":"2048","num_nodes":"7","size_leaf_vector":"1"}},{"base_weights":[-8.771288E-3,-5.1960118E-2,5.788075E-2,-9.734038E-2,4.843024E-1,-2.0397855E-2,2.4124015E-2,6.5043174E-2,-6.716701E-3],"categories":[],"categories_nodes":[],"categories_segments":[],"categories_sizes":[],"default_left":[0,0,0,0,0,0,0,0,0],"id":67,"left_children":[1,3,-1,5,7,-1,-1,-1,-1],"loss_changes":[2.8797233E0,2.9575768E0,0E0,3.2307582E0,7.167828E-1,0E0,0E0,0E0,0E0],"parents":[2147483647,0,0,1,1,3,3,4,4],"right_children":[2,4,-1,6,8,-1,-1,-1,-1],"split_conditions":[1E0,1E0,5.788075E-2,1E0,1E0,-2.0397855E-2,2.4124015E-2,6.5043174E-2,-6.716701E-3],"split_indices":[1285,231,0,1564,511,0,0,0,0],"split_type":[0,0,0,0,0,0,0,0,0],"sum_hessian":[1.15464676E2,1.1013042E2,5.3342576E0,1.0446735E2,5.663075E0,8.283933E1,2.1628012E1,4.4204483E0,1.2426269E0],"tree_param":{"num_deleted":"0","num_feature":"2048","num_nodes":"9","size_leaf_vector":"1"}},{"base_weights":[6.1973553E-2,1.1273211E-1,-4.5018205E-1,1.5594155E-1,-6.495617E-2,-6.8317026E-1,3.129468E-2,2.416792E-2,-4.320174E-2,-8.9013696E-2,-1.4575997E-3],"categories":[],"categories_nodes":[],"categories_segments":[],"categories_sizes":[],"default_left":[0,0,0,0,0,0,0,0,0,0,0],"id":68,"left_children":[1,3,5,7,-1,9,-1,-1,-1,-1,-1],"loss_changes":[3.189735E0,3.65237E0,2.6729987E0,4.0899963E0,0E0,8.002019E-1,0E0,0E0,0E0,0E0,0E0],"parents":[2147483647,0,0,1,1,2,2,3,3,5,5],"right_children":[2,4,6,8,-1,10,-1,-1,-1,-1,-1],"split_conditions":[1E0,1E0,1E0,1E0,-6.495617E-2,1E0,3.129468E-2,2.416792E-2,-4.320174E-2,-8.9013696E-2,-1.4575997E-3],"split_indices":[1114,97,711,121,0,74,0,0,0,0,0],"split_type":[0,0,0,0,0,0,0,0,0,0,0],"sum_hessian":[1.11239456E2,1.0396335E2,7.2761064E0,1.0082339E2,3.139957E0,5.7399898E0,1.5361166E0,9.225901E1,8.564382E0,4.104574E0,1.6354154E0],"tree_param":{"num_deleted":"0","num_feature":"2048","num_nodes":"11","size_leaf_vector":"1"}},{"base_weights":[-1.6995894E-2,-2.3810679E-1,1.0284643E-1,-3.851366E-1,4.0365255E-1,2.4360192E-1,-3.0235547E-1,-6.995308E-2,1.9233547E-2,-1.7539458E-2,6.4887136E-2,3.3465832E-2,-5.5818185E-2,-4.843742E-2,4.8266254E-2],"categories":[],"categories_nodes":[],"categories_segments":[],"categories_sizes":[],"default_left":[0,0,0,0,0,0,0,0,0,0,0,0,0,0,0],"id":69,"left_children":[1,3,5,7,9,11,13,-1,-1,-1,-1,-1,-1,-1,-1],"loss_changes":[3.161266E0,4.5517015E0,4.7204313E0,5.5796623E0,1.4061537E0,3.4212291E0,3.0342507E0,0E0,0E0,0E0,0E0,0E0,0E0,0E0,0E0],"parents":[2147483647,0,0,1,1,2,2,3,3,4,4,5,5,6,6],"right_children":[2,4,6,8,10,12,14,-1,-1,-1,-1,-1,-1,-1,-1],"split_conditions":[1E0,1E0,1E0,1E0,1E0,1E0,1E0,-6.995308E-2,1.9233547E-2,-1.7539458E-2,6.4887136E-2,3.3465832E-2,-5.5818185E-2,-4.843742E-2,4.8266254E-2],"split_indices":[935,102,1077,534,294,547,1631,0,0,0,0,0,0,0,0],"split_type":[0,0,0,0,0,0,0,0,0,0,0,0,0,0,0],"sum_hessian":[1.1183068E2,3.796109E1,7.38696E1,3.21481E1,5.8129888E0,5.5974E1,1.7895596E1,2.1742476E1,1.0405624E1,1.6132237E0,4.199765E0,5.3827095E1,2.1469028E0,1.6372261E1,1.523335E0],"tree_param":{"num_deleted":"0","num_feature":"2048","num_nodes":"15","size_leaf_vector":"1"}},{"base_weights":[-1.3879193E-3,3.872996E-2,-6.206361E-1,7.943699E-2,-5.043788E-1,-8.234209E-2,3.8546526E-3,2.6525788E-2,-5.144084E-3,7.927516E-3,-7.1342245E-2],"categories":[],"categories_nodes":[],"categories_segments":[],"categories_sizes":[],"default_left":[0,0,0,0,0,0,0,0,0,0,0],"id":70,"left_children":[1,3,5,7,9,-1,-1,-1,-1,-1,-1],"loss_changes":[2.9694123E0,2.6401029E0,7.336371E-1,2.2698052E0,8.97176E-1,0E0,0E0,0E0,0E0,0E0,0E0],"parents":[2147483647,0,0,1,1,2,2,3,3,4,4],"right_children":[2,4,6,8,10,-1,-1,-1,-1,-1,-1],"split_conditions":[1E0,1E0,1E0,1E0,1E0,-8.234209E-2,3.8546526E-3,2.6525788E-2,-5.144084E-3,7.927516E-3,-7.1342245E-2],"split_indices":[456,362,594,1199,1452,0,0,0,0,0,0],"split_type":[0,0,0,0,0,0,0,0,0,0,0],"sum_hessian":[1.1188954E2,1.0849955E2,3.38999E0,1.0401739E2,4.4821625E0,2.3435504E0,1.0464396E0,4.3875305E1,6.0142082E1,1.3186915E0,3.163471E0],"tree_param":{"num_deleted":"0","num_feature":"2048","num_nodes":"11","size_leaf_vector":"1"}},{"base_weights":[3.6495127E-2,7.0585996E-2,-7.636472E-2,1.07870035E-1,-6.4061314E-2,1.6256578E-2,-5.8739487E-2],"categories":[],"categories_nodes":[],"categories_segments":[],"categories_sizes":[],"default_left":[0,0,0,0,0,0,0],"id":71,"left_children":[1,3,-1,5,-1,-1,-1],"loss_changes":[3.1251423E0,3.0706697E0,0E0,3.268535E0,0E0,0E0,0E0],"parents":[2147483647,0,0,1,1,3,3],"right_children":[2,4,-1,6,-1,-1,-1],"split_conditions":[1E0,1E0,-7.636472E-2,1E0,-6.4061314E-2,1.6256578E-2,-5.8739487E-2],"split_indices":[14,456,0,41,0,0,0],"split_type":[0,0,0,0,0,0,0],"sum_hessian":[1.1325256E2,1.1158394E2,1.6686257E0,1.08655205E2,2.9287271E0,1.0500526E2,3.6499496E0],"tree_param":{"num_deleted":"0","num_feature":"2048","num_nodes":"7","size_leaf_vector":"1"}},{"base_weights":[-4.1787003E-5,4.042734E-2,-6.732041E-2,-4.416778E-3,6.1237305E-2,-8.5846335E-3,3.7246473E-2],"categories":[],"categories_nodes":[],"categories_segments":[],"categories_sizes":[],"default_left":[0,0,0,0,0,0,0],"id":72,"left_children":[1,3,-1,5,-1,-1,-1],"loss_changes":[2.8424633E0,2.5041149E0,0E0,2.720981E0,0E0,0E0,0E0],"parents":[2147483647,0,0,1,1,3,3],"right_children":[2,4,-1,6,-1,-1,-1],"split_conditions":[1E0,1E0,-6.732041E-2,1E0,6.1237305E-2,-8.5846335E-3,3.7246473E-2],"split_indices":[1697,1249,0,980,0,0,0],"split_type":[0,0,0,0,0,0,0],"sum_hessian":[1.0635995E2,1.0320112E2,3.158832E0,9.854312E1,4.6579947E0,8.3592255E1,1.4950864E1],"tree_param":{"num_deleted":"0","num_feature":"2048","num_nodes":"7","size_leaf_vector":"1"}},{"base_weights":[1.54306125E-2,-3.601483E-2,7.400435E-2,-8.070668E-2,5.236071E-1,-1.4234022E-2,4.782022E-2,7.438777E-2,-1.2144077E-2],"categories":[],"categories_nodes":[],"categories_segments":[],"categories_sizes":[],"default_left":[0,0,0,0,0,0,0,0,0],"id":73,"left_children":[1,3,-1,5,7,-1,-1,-1,-1],"loss_changes":[3.9467847E0,2.8841481E0,0E0,2.8857522E0,1.1436436E0,0E0,0E0,0E0,0E0],"parents":[2147483647,0,0,1,1,3,3,4,4],"right_children":[2,4,-1,6,8,-1,-1,-1,-1],"split_conditions":[1E0,1E0,7.400435E-2,1E0,1E0,-1.4234022E-2,4.782022E-2,7.438777E-2,-1.2144077E-2],"split_indices":[1476,147,0,45,2000,0,0,0,0],"split_type":[0,0,0,0,0,0,0,0,0],"sum_hessian":[1.09366005E2,1.048764E2,4.4896035E0,1.001967E2,4.6797028E0,9.411957E1,6.077126E0,3.5306594E0,1.1490431E0],"tree_param":{"num_deleted":"0","num_feature":"2048","num_nodes":"9","size_leaf_vector":"1"}},{"base_weights":[-4.987094E-2,-1.6264257E-1,3.4038097E-1,-2.856232E-1,2.598703E-1,-1.1517502E-2,5.957935E-1,-3.7903983E-2,4.5734722E-2,4.8906118E-2,-4.4227555E-2,-2.5417224E-2,6.1984193E-2,7.707699E-2,-2.0723984E-2],"categories":[],"categories_nodes":[],"categories_segments":[],"categories_sizes":[],"default_left":[0,0,0,0,0,0,0,0,0,0,0,0,0,0,0],"id":74,"left_children":[1,3,5,7,9,11,13,-1,-1,-1,-1,-1,-1,-1,-1],"loss_changes":[5.3192325E0,5.100114E0,2.4764814E0,3.71798E0,3.55205E0,2.461728E0,1.8756056E0,0E0,0E0,0E0,0E0,0E0,0E0,0E0,0E0],"parents":[2147483647,0,0,1,1,2,2,3,3,4,4,5,5,6,6],"right_children":[2,4,6,8,10,12,14,-1,-1,-1,-1,-1,-1,-1,-1],"split_conditions":[1E0,1E0,1E0,1E0,1E0,1E0,1E0,-3.7903983E-2,4.5734722E-2,4.8906118E-2,-4.4227555E-2,-2.5417224E-2,6.1984193E-2,7.707699E-2,-2.0723984E-2],"split_indices":[1928,718,1088,1520,118,694,708,0,0,0,0,0,0,0,0],"split_type":[0,0,0,0,0,0,0,0,0,0,0,0,0,0,0],"sum_hessian":[1.1210091E2,8.872578E1,2.3375128E1,6.9696846E1,1.9028927E1,1.1389686E1,1.1985442E1,6.595649E1,3.7403586E0,1.5833462E1,3.1954648E0,9.921673E0,1.4680134E0,1.0875148E1,1.1102947E0],"tree_param":{"num_deleted":"0","num_feature":"2048","num_nodes":"15","size_leaf_vector":"1"}},{"base_weights":[-8.0735935E-3,-6.991094E-2,5.332001E-1,-1.2068428E-1,3.837204E-1,9.533604E-3,6.534757E-2,-2.1171588E-2,2.4835045E-2,6.227994E-2,-2.76175E-2],"categories":[],"categories_nodes":[],"categories_segments":[],"categories_sizes":[],"default_left":[0,0,0,0,0,0,0,0,0,0,0],"id":75,"left_children":[1,3,5,7,9,-1,-1,-1,-1,-1,-1],"loss_changes":[3.9792469E0,2.626936E0,1.4749217E-1,2.667521E0,1.9315599E0,0E0,0E0,0E0,0E0,0E0,0E0],"parents":[2147483647,0,0,1,1,2,2,3,3,4,4],"right_children":[2,4,6,8,10,-1,-1,-1,-1,-1,-1],"split_conditions":[1E0,1E0,1E0,1E0,1E0,9.533604E-3,6.534757E-2,-2.1171588E-2,2.4835045E-2,6.227994E-2,-2.76175E-2],"split_indices":[102,1508,695,896,715,0,0,0,0,0,0],"split_type":[0,0,0,0,0,0,0,0,0,0,0],"sum_hessian":[1.1068144E2,1.0236713E2,8.314313E0,9.462524E1,7.74189E0,2.199268E0,6.1150446E0,7.96514E1,1.4973841E1,6.3081694E0,1.4337206E0],"tree_param":{"num_deleted":"0","num_feature":"2048","num_nodes":"11","size_leaf_vector":"1"}},{"base_weights":[-2.5205975E-3,-9.273667E-2,3.3057415E-1,-2.4734046E-1,8.8610336E-2,4.4810566E-1,-3.181125E-2,-3.424256E-2,5.0626952E-2,2.5228154E-2,-4.6377216E-2,6.10559E-2,-3.5546202E-2],"categories":[],"categories_nodes":[],"categories_segments":[],"categories_sizes":[],"default_left":[0,0,0,0,0,0,0,0,0,0,0,0,0],"id":76,"left_children":[1,3,5,7,9,11,-1,-1,-1,-1,-1,-1,-1],"loss_changes":[3.5103772E0,2.6598625E0,2.324732E0,2.9250078E0,3.6654332E0,2.617433E0,0E0,0E0,0E0,0E0,0E0,0E0,0E0],"parents":[2147483647,0,0,1,1,2,2,3,3,4,4,5,5],"right_children":[2,4,6,8,10,12,-1,-1,-1,-1,-1,-1,-1],"split_conditions":[1E0,1E0,1E0,1E0,1E0,1E0,-3.181125E-2,-3.424256E-2,5.0626952E-2,2.5228154E-2,-4.6377216E-2,6.10559E-2,-3.5546202E-2],"split_indices":[1928,695,1267,1946,703,314,0,0,0,0,0,0,0],"split_type":[0,0,0,0,0,0,0,0,0,0,0,0,0],"sum_hessian":[1.08973816E2,8.7953476E1,2.1020342E1,4.671493E1,4.1238544E1,1.8587545E1,2.4327962E0,4.4743935E1,1.9709963E0,3.3962738E1,7.2758064E0,1.7214205E1,1.3733395E0],"tree_param":{"num_deleted":"0","num_feature":"2048","num_nodes":"13","size_leaf_vector":"1"}},{"base_weights":[-4.1554753E-2,-1.0936183E-1,2.678483E-1,-1.5257584E-1,5.7970867E-2,3.8134545E-1,-4.2239353E-2,-2.4254322E-2,2.2611406E-2,5.287011E-2,-3.0897329E-2],"categories":[],"categories_nodes":[],"categories_segments":[],"categories_sizes":[],"default_left":[0,0,0,0,0,0,0,0,0,0,0],"id":77,"left_children":[1,3,5,7,-1,9,-1,-1,-1,-1,-1],"loss_changes":[2.412021E0,2.8729007E0,2.117072E0,2.4093657E0,0E0,1.864188E0,0E0,0E0,0E0,0E0,0E0],"parents":[2147483647,0,0,1,1,2,2,3,3,5,5],"right_children":[2,4,6,8,-1,10,-1,-1,-1,-1,-1],"split_conditions":[1E0,1E0,1E0,1E0,5.7970867E-2,1E0,-4.2239353E-2,-2.4254322E-2,2.2611406E-2,5.287011E-2,-3.0897329E-2],"split_indices":[896,1631,473,1370,0,718,0,0,0,0,0],"split_type":[0,0,0,0,0,0,0,0,0,0,0],"sum_hessian":[1.05667244E2,8.873122E1,1.693603E1,8.588236E1,2.8488479E0,1.5810892E1,1.125137E0,7.326237E1,1.2620002E1,1.4618801E1,1.1920911E0],"tree_param":{"num_deleted":"0","num_feature":"2048","num_nodes":"11","size_leaf_vector":"1"}},{"base_weights":[-7.900693E-3,-8.307581E-2,4.5335913E-1,-1.6011767E-1,2.500795E-1,6.994466E-1,-4.0364414E-2,-6.356266E-2,1.300455E-3,-2.124276E-2,5.5190865E-2,8.661127E-2,-2.2192665E-3],"categories":[],"categories_nodes":[],"categories_segments":[],"categories_sizes":[],"default_left":[0,0,0,0,0,0,0,0,0,0,0,0,0],"id":78,"left_children":[1,3,5,7,9,11,-1,-1,-1,-1,-1,-1,-1],"loss_changes":[3.9208286E0,2.6421063E0,4.211111E0,5.896837E0,2.6096265E0,9.636221E-1,0E0,0E0,0E0,0E0,0E0,0E0,0E0],"parents":[2147483647,0,0,1,1,2,2,3,3,4,4,5,5],"right_children":[2,4,6,8,10,12,-1,-1,-1,-1,-1,-1,-1],"split_conditions":[1E0,1E0,1E0,1E0,1E0,1E0,-4.0364414E-2,-6.356266E-2,1.300455E-3,-2.124276E-2,5.5190865E-2,8.661127E-2,-2.2192665E-3],"split_indices":[1370,896,118,80,935,1114,0,0,0,0,0,0,0],"split_type":[0,0,0,0,0,0,0,0,0,0,0,0,0],"sum_hessian":[1.04974464E2,9.300025E1,1.1974214E1,7.717081E1,1.5829446E1,9.663167E0,2.3110466E0,1.9704477E1,5.746633E1,6.100493E0,9.728952E0,8.218394E0,1.4447724E0],"tree_param":{"num_deleted":"0","num_feature":"2048","num_nodes":"13","size_leaf_vector":"1"}},{"base_weights":[-2.1897385E-2,-8.081043E-2,3.6526588E-1,-1.6615134E-1,2.3111123E-1,5.134657E-1,-2.5154313E-2,-3.150438E-2,8.418201E-3,5.3711504E-2,-3.1247068E-2,6.40414E-2,-6.3419715E-3],"categories":[],"categories_nodes":[],"categories_segments":[],"categories_sizes":[],"default_left":[0,0,0,0,0,0,0,0,0,0,0,0,0],"id":79,"left_children":[1,3,5,7,9,11,-1,-1,-1,-1,-1,-1,-1],"loss_changes":[2.6292164E0,2.7808418E0,1.8049173E0,2.4534843E0,3.6163378E0,6.8456244E-1,0E0,0E0,0E0,0E0,0E0,0E0,0E0],"parents":[2147483647,0,0,1,1,2,2,3,3,4,4,5,5],"right_children":[2,4,6,8,10,12,-1,-1,-1,-1,-1,-1,-1],"split_conditions":[1E0,1E0,1E0,1E0,1E0,1E0,-2.5154313E-2,-3.150438E-2,8.418201E-3,5.3711504E-2,-3.1247068E-2,6.40414E-2,-6.3419715E-3],"split_indices":[1043,1928,1853,1066,1410,1573,0,0,0,0,0,0,0],"split_type":[0,0,0,0,0,0,0,0,0,0,0,0,0],"sum_hessian":[1.0636563E2,9.498398E1,1.1381651E1,7.600371E1,1.8980268E1,9.539887E0,1.8417637E0,5.0144764E1,2.5858946E1,1.2756395E1,6.223874E0,8.386539E0,1.1533477E0],"tree_param":{"num_deleted":"0","num_feature":"2048","num_nodes":"13","size_leaf_vector":"1"}},{"base_weights":[2.3332385E-2,7.064232E-2,-7.1819685E-2,1.101275E-1,-6.1178092E-2,-1.5257845E-2,2.6448311E-2],"categories":[],"categories_nodes":[],"categories_segments":[],"categories_sizes":[],"default_left":[0,0,0,0,0,0,0],"id":80,"left_children":[1,3,-1,5,-1,-1,-1],"loss_changes":[3.7189126E0,2.8847303E0,0E0,3.5276551E0,0E0,0E0,0E0],"parents":[2147483647,0,0,1,1,3,3],"right_children":[2,4,-1,6,-1,-1,-1],"split_conditions":[1E0,1E0,-7.1819685E-2,1E0,-6.1178092E-2,-1.5257845E-2,2.6448311E-2],"split_indices":[118,110,0,935,0,0,0],"split_type":[0,0,0,0,0,0,0],"sum_hessian":[1.0612236E2,1.02471535E2,3.650824E0,9.9442314E1,3.0292213E0,3.4263275E1,6.517904E1],"tree_param":{"num_deleted":"0","num_feature":"2048","num_nodes":"7","size_leaf_vector":"1"}},{"base_weights":[2.2102924E-2,-5.0159596E-2,4.6115828E-1,-1.02167815E-1,6.715213E-2,7.084365E-1,-9.505119E-2,-1.6010284E-2,6.1997112E-2,9.6558325E-2,-1.68532E-2,-3.134981E-2,2.4709018E-2],"categories":[],"categories_nodes":[],"categories_segments":[],"categories_sizes":[],"default_left":[0,0,0,0,0,0,0,0,0,0,0,0,0],"id":81,"left_children":[1,3,5,7,-1,9,11,-1,-1,-1,-1,-1,-1],"loss_changes":[3.5449913E0,3.594401E0,2.43061E0,3.0818563E0,0E0,2.239499E0,7.603111E-1,0E0,0E0,0E0,0E0,0E0,0E0],"parents":[2147483647,0,0,1,1,2,2,3,3,5,5,6,6],"right_children":[2,4,6,8,-1,10,12,-1,-1,-1,-1,-1,-1],"split_conditions":[1E0,1E0,1E0,1E0,6.715213E-2,1E0,1E0,-1.6010284E-2,6.1997112E-2,9.6558325E-2,-1.68532E-2,-3.134981E-2,2.4709018E-2],"split_indices":[841,366,1039,1255,0,1791,74,0,0,0,0,0,0],"split_type":[0,0,0,0,0,0,0,0,0,0,0,0,0],"sum_hessian":[1.0502121E2,9.313147E1,1.1889737E1,8.941422E1,3.7172492E0,7.4951377E0,4.394599E0,8.671568E1,2.6985414E0,6.1584754E0,1.3366625E0,3.0120106E0,1.3825884E0],"tree_param":{"num_deleted":"0","num_feature":"2048","num_nodes":"13","size_leaf_vector":"1"}},{"base_weights":[1.9466335E-2,-2.9975904E-2,4.9629992E-1,8.400576E-3,-7.501884E-2,7.489896E-2,-2.33525E-2,-4.9449876E-3,6.0732003E-2],"categories":[],"categories_nodes":[],"categories_segments":[],"categories_sizes":[],"default_left":[0,0,0,0,0,0,0,0,0],"id":82,"left_children":[1,3,5,7,-1,-1,-1,-1,-1],"loss_changes":[2.7064598E0,2.6768932E0,2.0094705E0,3.1308954E0,0E0,0E0,0E0,0E0,0E0],"parents":[2147483647,0,0,1,1,2,2,3,3],"right_children":[2,4,6,8,-1,-1,-1,-1,-1],"split_conditions":[1E0,1E0,1E0,1E0,-7.501884E-2,7.489896E-2,-2.33525E-2,-4.9449876E-3,6.0732003E-2],"split_indices":[787,14,784,1729,0,0,0,0,0],"split_type":[0,0,0,0,0,0,0,0,0],"sum_hessian":[1.0846706E2,1.01572975E2,6.89408E0,9.957908E1,1.9938989E0,5.5554695E0,1.3386106E0,9.39315E1,5.647574E0],"tree_param":{"num_deleted":"0","num_feature":"2048","num_nodes":"9","size_leaf_vector":"1"}},{"base_weights":[-2.5757572E-3,4.4608615E-2,-5.648476E-1,8.314704E-2,-5.7984315E-2,-9.620679E-3,-7.204263E-2,1.39667485E-2,-5.366378E-2],"categories":[],"categories_nodes":[],"categories_segments":[],"categories_sizes":[],"default_left":[0,0,0,0,0,0,0,0,0],"id":83,"left_children":[1,3,5,7,-1,-1,-1,-1,-1],"loss_changes":[3.084696E0,2.551513E0,1.7786908E-1,2.9035857E0,0E0,0E0,0E0,0E0,0E0],"parents":[2147483647,0,0,1,1,2,2,3,3],"right_children":[2,4,6,8,-1,-1,-1,-1,-1],"split_conditions":[1E0,1E0,1E0,1E0,-5.7984315E-2,-9.620679E-3,-7.204263E-2,1.39667485E-2,-5.366378E-2],"split_indices":[1349,1745,656,118,0,0,0,0,0],"split_type":[0,0,0,0,0,0,0,0,0],"sum_hessian":[1.0870132E2,1.0358286E2,5.118458E0,1.0018567E2,3.3971972E0,2.0781982E0,3.0402598E0,9.576789E1,4.417776E0],"tree_param":{"num_deleted":"0","num_feature":"2048","num_nodes":"9","size_leaf_vector":"1"}},{"base_weights":[2.0588545E-2,6.8685226E-2,-4.3458176E-1,1.04690604E-1,-5.8225013E-2,-6.5204196E-2,2.3109898E-2,8.235276E-4,4.5069613E-2],"categories":[],"categories_nodes":[],"categories_segments":[],"categories_sizes":[],"default_left":[0,0,0,0,0,0,0,0,0],"id":84,"left_children":[1,3,5,7,-1,-1,-1,-1,-1],"loss_changes":[2.4699867E0,2.3935657E0,1.6168041E0,2.9197326E0,0E0,0E0,0E0,0E0,0E0],"parents":[2147483647,0,0,1,1,2,2,3,3],"right_children":[2,4,6,8,-1,-1,-1,-1,-1],"split_conditions":[1E0,1E0,1E0,1E0,-5.8225013E-2,-6.5204196E-2,2.3109898E-2,8.235276E-4,4.5069613E-2],"split_indices":[119,750,841,1468,0,0,0,0,0],"split_type":[0,0,0,0,0,0,0,0,0],"sum_hessian":[1.0365025E2,9.672564E1,6.924612E0,9.428335E1,2.4422932E0,5.7778873E0,1.1467247E0,7.4660805E1,1.9622543E1],"tree_param":{"num_deleted":"0","num_feature":"2048","num_nodes":"9","size_leaf_vector":"1"}},{"base_weights":[6.472809E-2,1.0837186E-1,-5.860734E-2,1.4383349E-1,-5.7831697E-2,7.70131E-2,5.119314E-3],"categories":[],"categories_nodes":[],"categories_segments":[],"categories_sizes":[],"default_left":[0,0,0,0,0,0,0],"id":85,"left_children":[1,3,-1,5,-1,-1,-1],"loss_changes":[3.069937E0,2.6539755E0,0E0,5.4143023E0,0E0,0E0,0E0],"parents":[2147483647,0,0,1,1,3,3],"right_children":[2,4,-1,6,-1,-1,-1],"split_conditions":[1E0,1E0,-5.860734E-2,1E0,-5.7831697E-2,7.70131E-2,5.119314E-3],"split_indices":[339,547,0,807,0,0,0],"split_type":[0,0,0,0,0,0,0],"sum_hessian":[1.0463939E2,1.0051636E2,4.123029E0,9.806386E1,2.4524977E0,1.0889696E1,8.7174164E1],"tree_param":{"num_deleted":"0","num_feature":"2048","num_nodes":"7","size_leaf_vector":"1"}},{"base_weights":[7.808623E-3,3.8186334E-2,-7.0181794E-2,6.9970325E-2,-5.619802E-2,1.1081899E-2,-5.54034E-2],"categories":[],"categories_nodes":[],"categories_segments":[],"categories_sizes":[],"default_left":[0,0,0,0,0,0,0],"id":86,"left_children":[1,3,-1,5,-1,-1,-1],"loss_changes":[2.3052657E0,2.0814276E0,0E0,2.1526449E0,0E0,0E0,0E0],"parents":[2147483647,0,0,1,1,3,3],"right_children":[2,4,-1,6,-1,-1,-1],"split_conditions":[1E0,1E0,-7.0181794E-2,1E0,-5.619802E-2,1.1081899E-2,-5.54034E-2],"split_indices":[1447,110,0,547,0,0,0],"split_type":[0,0,0,0,0,0,0],"sum_hessian":[1.0813832E2,1.06796906E2,1.3414165E0,1.0418777E2,2.609141E0,1.018488E2,2.3389645E0],"tree_param":{"num_deleted":"0","num_feature":"2048","num_nodes":"7","size_leaf_vector":"1"}},{"base_weights":[-2.9138744E-2,-8.5810594E-2,5.3654104E-1,-1.1776925E-1,5.5576358E-2,5.3640306E-3,7.009718E-2,-2.6104772E-3,-4.556304E-2],"categories":[],"categories_nodes":[],"categories_segments":[],"categories_sizes":[],"default_left":[0,0,0,0,0,0,0,0,0],"id":87,"left_children":[1,3,5,7,-1,-1,-1,-1,-1],"loss_changes":[3.6438906E0,2.1607432E0,4.0597677E-1,2.7549353E0,0E0,0E0,0E0,0E0,0E0],"parents":[2147483647,0,0,1,1,2,2,3,3],"right_children":[2,4,6,8,-1,-1,-1,-1,-1],"split_conditions":[1E0,1E0,1E0,1E0,5.5576358E-2,5.3640306E-3,7.009718E-2,-2.6104772E-3,-4.556304E-2],"split_indices":[45,376,80,1771,0,0,0,0,0],"split_type":[0,0,0,0,0,0,0,0,0],"sum_hessian":[1.0420812E2,9.7712036E1,6.4960904E0,9.5676186E1,2.0358484E0,2.151617E0,4.3444734E0,7.598904E1,1.9687151E1],"tree_param":{"num_deleted":"0","num_feature":"2048","num_nodes":"9","size_leaf_vector":"1"}},{"base_weights":[2.0242853E-2,6.107183E-2,-6.0092974E-1,9.293152E-2,-5.3505946E-2,-7.9530366E-2,3.7876717E-3,1.3432568E-2,-5.578922E-2],"categories":[],"categories_nodes":[],"categories_segments":[],"categories_sizes":[],"default_left":[0,0,0,0,0,0,0,0,0],"id":88,"left_children":[1,3,5,7,-1,-1,-1,-1,-1],"loss_changes":[2.9664059E0,2.0699573E0,6.773858E-1,2.1416786E0,0E0,0E0,0E0,0E0,0E0],"parents":[2147483647,0,0,1,1,2,2,3,3],"right_children":[2,4,6,8,-1,-1,-1,-1,-1],"split_conditions":[1E0,1E0,1E0,1E0,-5.3505946E-2,-7.9530366E-2,3.7876717E-3,1.3432568E-2,-5.578922E-2],"split_indices":[456,110,594,1991,0,0,0,0,0],"split_type":[0,0,0,0,0,0,0,0,0],"sum_hessian":[1.0746409E2,1.0412061E2,3.3434687E0,1.01472015E2,2.6486034E0,2.3227494E0,1.0207193E0,9.962619E1,1.8458213E0],"tree_param":{"num_deleted":"0","num_feature":"2048","num_nodes":"9","size_leaf_vector":"1"}},{"base_weights":[-8.3166E-3,3.0498879E-2,-5.9504677E-2,6.3471355E-2,-6.4251855E-2,1.1849578E-2,-4.7708385E-2],"categories":[],"categories_nodes":[],"categories_segments":[],"categories_sizes":[],"default_left":[0,0,0,0,0,0,0],"id":89,"left_children":[1,3,-1,5,-1,-1,-1],"loss_changes":[2.3224967E0,2.2827153E0,0E0,2.4953585E0,0E0,0E0,0E0],"parents":[2147483647,0,0,1,1,3,3],"right_children":[2,4,-1,6,-1,-1,-1],"split_conditions":[1E0,1E0,-5.9504677E-2,1E0,-6.4251855E-2,1.1849578E-2,-4.7708385E-2],"split_indices":[1745,1991,0,1349,0,0,0],"split_type":[0,0,0,0,0,0,0],"sum_hessian":[1.0470616E2,1.01046074E2,3.6600893E0,9.923441E1,1.8116635E0,9.384724E1,5.387171E0],"tree_param":{"num_deleted":"0","num_feature":"2048","num_nodes":"7","size_leaf_vector":"1"}},{"base_weights":[-3.328431E-2,-9.764122E-2,3.0843785E-1,-3.4232906E-1,1.1225632E-2,4.4663155E-1,-3.8994823E-2,-7.5075954E-2,3.44531E-2,-1.2345721E-2,3.8118266E-2,5.65065E-2,-4.7027465E-4],"categories":[],"categories_nodes":[],"categories_segments":[],"categories_sizes":[],"default_left":[0,0,0,0,0,0,0,0,0,0,0,0,0],"id":90,"left_children":[1,3,5,7,9,11,-1,-1,-1,-1,-1,-1,-1],"loss_changes":[2.5318568E0,2.5550194E0,2.3031688E0,7.5084877E0,3.0724623E0,5.423062E-1,0E0,0E0,0E0,0E0,0E0,0E0,0E0],"parents":[2147483647,0,0,1,1,2,2,3,3,4,4,5,5],"right_children":[2,4,6,8,10,12,-1,-1,-1,-1,-1,-1,-1],"split_conditions":[1E0,1E0,1E0,1E0,1E0,1E0,-3.8994823E-2,-7.5075954E-2,3.44531E-2,-1.2345721E-2,3.8118266E-2,5.65065E-2,-4.7027465E-4],"split_indices":[1267,935,197,294,1160,1928,0,0,0,0,0,0,0],"split_type":[0,0,0,0,0,0,0,0,0,0,0,0,0],"sum_hessian":[1.0592746E2,9.1472984E1,1.4454479E1,2.5603094E1,6.586989E1,1.302271E1,1.4317688E0,1.6693024E1,8.91007E0,5.0040703E1,1.5829187E1,1.0782885E1,2.2398252E0],"tree_param":{"num_deleted":"0","num_feature":"2048","num_nodes":"13","size_leaf_vector":"1"}},{"base_weights":[2.7771084E-2,7.1410805E-2,-7.432102E-2,2.6688752E-1,-8.029715E-2,3.889897E-2,-3.672484E-2,-1.7023416E-2,3.3532888E-2],"categories":[],"categories_nodes":[],"categories_segments":[],"categories_sizes":[],"default_left":[0,0,0,0,0,0,0,0,0],"id":91,"left_children":[1,3,-1,5,7,-1,-1,-1,-1],"loss_changes":[3.4987173E0,3.1830328E0,0E0,2.9551475E0,1.9879193E0,0E0,0E0,0E0,0E0],"parents":[2147483647,0,0,1,1,3,3,4,4],"right_children":[2,4,-1,6,8,-1,-1,-1,-1],"split_conditions":[1E0,1E0,-7.432102E-2,1E0,1E0,3.889897E-2,-3.672484E-2,-1.7023416E-2,3.3532888E-2],"split_indices":[14,1199,0,314,1087,0,0,0,0],"split_type":[0,0,0,0,0,0,0,0,0],"sum_hessian":[1.0336681E2,1.0064693E2,2.7198892E0,4.2691463E1,5.7955463E1,3.859739E1,4.0940742E0,5.0450226E1,7.5052376E0],"tree_param":{"num_deleted":"0","num_feature":"2048","num_nodes":"9","size_leaf_vector":"1"}},{"base_weights":[1.0270668E-2,4.7297332E-2,-8.194577E-2,8.7178454E-2,-7.0064515E-2,1.2809109E-2,-6.0703684E-2],"categories":[],"categories_nodes":[],"categories_segments":[],"categories_sizes":[],"default_left":[0,0,0,0,0,0,0],"id":92,"left_children":[1,3,-1,5,-1,-1,-1],"loss_changes":[3.1250024E0,3.0958781E0,0E0,2.225004E0,0E0,0E0,0E0],"parents":[2147483647,0,0,1,1,3,3],"right_children":[2,4,-1,6,-1,-1,-1],"split_conditions":[1E0,1E0,-8.194577E-2,1E0,-7.0064515E-2,1.2809109E-2,-6.0703684E-2],"split_indices":[987,1991,0,1999,0,0,0],"split_type":[0,0,0,0,0,0,0],"sum_hessian":[1.0234954E2,1.01062805E2,1.2867303E0,9.872896E1,2.3338504E0,9.7364296E1,1.3646585E0],"tree_param":{"num_deleted":"0","num_feature":"2048","num_nodes":"7","size_leaf_vector":"1"}},{"base_weights":[-5.9333503E-2,3.0931383E-3,-7.409936E-2,-6.1627652E-2,4.067724E-1,-1.032128E-2,5.382862E-2,-1.2644258E-2,5.301372E-2],"categories":[],"categories_nodes":[],"categories_segments":[],"categories_sizes":[],"default_left":[0,0,0,0,0,0,0,0,0],"id":93,"left_children":[1,3,-1,5,7,-1,-1,-1,-1],"loss_changes":[4.063144E0,2.69182E0,0E0,1.7931645E0,7.9694843E-1,0E0,0E0,0E0,0E0],"parents":[2147483647,0,0,1,1,3,3,4,4],"right_children":[2,4,-1,6,8,-1,-1,-1,-1],"split_conditions":[1E0,1E0,-7.409936E-2,1E0,1E0,-1.032128E-2,5.382862E-2,-1.2644258E-2,5.301372E-2],"split_indices":[1114,1693,0,192,1452,0,0,0,0],"split_type":[0,0,0,0,0,0,0,0,0],"sum_hessian":[1.0119797E2,9.542385E1,5.7741218E0,8.507353E1,1.0350318E1,8.3365295E1,1.7082328E0,1.1001192E0,9.250198E0],"tree_param":{"num_deleted":"0","num_feature":"2048","num_nodes":"9","size_leaf_vector":"1"}},{"base_weights":[-3.560172E-2,-1.0077239E-1,3.1982517E-1,-1.413362E-1,6.511251E-2,5.262071E-1,-3.3251222E-2,-2.0826798E-2,4.2567793E-2,7.437548E-2,-3.343438E-2],"categories":[],"categories_nodes":[],"categories_segments":[],"categories_sizes":[],"default_left":[0,0,0,0,0,0,0,0,0,0,0],"id":94,"left_children":[1,3,5,7,-1,9,-1,-1,-1,-1,-1],"loss_changes":[2.6269164E0,2.987161E0,2.8954475E0,2.6879604E0,0E0,2.687367E0,0E0,0E0,0E0,0E0,0E0],"parents":[2147483647,0,0,1,1,2,2,3,3,5,5],"right_children":[2,4,6,8,-1,10,-1,-1,-1,-1,-1],"split_conditions":[1E0,1E0,1E0,1E0,6.511251E-2,1E0,-3.3251222E-2,-2.0826798E-2,4.2567793E-2,7.437548E-2,-3.343438E-2],"split_indices":[1252,1631,1847,140,0,1701,0,0,0,0,0],"split_type":[0,0,0,0,0,0,0,0,0,0,0],"sum_hessian":[1.041248E2,9.034124E1,1.3783566E1,8.8290054E1,2.051184E0,1.0813693E1,2.9698727E0,8.309118E1,5.198878E0,9.724432E0,1.089261E0],"tree_param":{"num_deleted":"0","num_feature":"2048","num_nodes":"11","size_leaf_vector":"1"}},{"base_weights":[-1.7152466E-2,-1.0430412E-1,2.1028034E-1,-1.8357427E-1,2.751797E-1,2.91594E-1,-4.932416E-2,-3.3658966E-2,2.416596E-2,4.859573E-2,-3.994903E-2,2.5970282E-3,7.610375E-2],"categories":[],"categories_nodes":[],"categories_segments":[],"categories_sizes":[],"default_left":[0,0,0,0,0,0,0,0,0,0,0,0,0],"id":95,"left_children":[1,3,5,7,9,11,-1,-1,-1,-1,-1,-1,-1],"loss_changes":[2.2258484E0,2.6229613E0,2.1884708E0,3.7330806E0,2.308263E0,3.200013E0,0E0,0E0,0E0,0E0,0E0,0E0,0E0],"parents":[2147483647,0,0,1,1,2,2,3,3,4,4,5,5],"right_children":[2,4,6,8,10,12,-1,-1,-1,-1,-1,-1,-1],"split_conditions":[1E0,1E0,1E0,1E0,1E0,1E0,-4.932416E-2,-3.3658966E-2,2.416596E-2,4.859573E-2,-3.994903E-2,2.5970282E-3,7.610375E-2],"split_indices":[1855,694,184,561,41,191,0,0,0,0,0,0,0],"split_type":[0,0,0,0,0,0,0,0,0,0,0,0,0],"sum_hessian":[1.041192E2,7.679368E1,2.732552E1,6.5181915E1,1.161176E1,2.6265759E1,1.0597621E0,5.058363E1,1.4598287E1,1.0126263E1,1.4854971E0,1.8269785E1,7.995972E0],"tree_param":{"num_deleted":"0","num_feature":"2048","num_nodes":"13","size_leaf_vector":"1"}},{"base_weights":[-1.4582122E-2,1.8861853E-2,-6.741666E-2,6.209909E-2,-4.5220858E-1,1.0716929E-2,-5.278711E-2,1.801117E-2,-6.966472E-2],"categories":[],"categories_nodes":[],"categories_segments":[],"categories_sizes":[],"default_left":[0,0,0,0,0,0,0,0,0],"id":96,"left_children":[1,3,-1,5,7,-1,-1,-1,-1],"loss_changes":[2.2861104E0,2.3341246E0,0E0,2.2063894E0,1.5072669E0,0E0,0E0,0E0,0E0],"parents":[2147483647,0,0,1,1,3,3,4,4],"right_children":[2,4,-1,6,8,-1,-1,-1,-1],"split_conditions":[1E0,1E0,-6.741666E-2,1E0,1E0,1.0716929E-2,-5.278711E-2,1.801117E-2,-6.966472E-2],"split_indices":[14,227,0,1745,389,0,0,0,0],"split_type":[0,0,0,0,0,0,0,0,0],"sum_hessian":[1.0745987E2,1.05364784E2,2.0950823E0,9.959375E1,5.771035E0,9.642503E1,3.1687145E0,1.4271334E0,4.3439016E0],"tree_param":{"num_deleted":"0","num_feature":"2048","num_nodes":"9","size_leaf_vector":"1"}},{"base_weights":[-2.645436E-2,7.356168E-3,-6.904565E-2,-5.687604E-2,4.30182E-1,5.7921777E-3,-3.7445966E-2,6.869674E-2,-3.0826064E-2],"categories":[],"categories_nodes":[],"categories_segments":[],"categories_sizes":[],"default_left":[0,0,0,0,0,0,0,0,0],"id":97,"left_children":[1,3,-1,5,7,-1,-1,-1,-1],"loss_changes":[2.2465143E0,3.002129E0,0E0,3.0917659E0,2.7404015E0,0E0,0E0,0E0,0E0],"parents":[2147483647,0,0,1,1,3,3,4,4],"right_children":[2,4,-1,6,8,-1,-1,-1,-1],"split_conditions":[1E0,1E0,-6.904565E-2,1E0,1E0,5.7921777E-3,-3.7445966E-2,6.869674E-2,-3.0826064E-2],"split_indices":[1991,1693,0,656,1325,0,0,0,0],"split_type":[0,0,0,0,0,0,0,0,0],"sum_hessian":[1.0509176E2,1.0315979E2,1.9319711E0,9.2471954E1,1.0687828E1,6.906386E1,2.3408098E1,8.721224E0,1.9666044E0],"tree_param":{"num_deleted":"0","num_feature":"2048","num_nodes":"9","size_leaf_vector":"1"}},{"base_weights":[9.935789E-2,1.4279921E-1,-3.2862705E-1,1.7816918E-1,-4.3958405E-1,1.8499559E-2,-6.502066E-2,2.2921799E-2,-4.564826E-2,-5.9533242E-2,-3.8990696E-4],"categories":[],"categories_nodes":[],"categories_segments":[],"categories_sizes":[],"default_left":[0,0,0,0,0,0,0,0,0,0,0],"id":98,"left_children":[1,3,5,7,9,-1,-1,-1,-1,-1,-1],"loss_changes":[2.1236215E0,2.3125546E0,1.8193597E0,2.110512E0,2.9853463E-1,0E0,0E0,0E0,0E0,0E0,0E0],"parents":[2147483647,0,0,1,1,2,2,3,3,4,4],"right_children":[2,4,6,8,10,-1,-1,-1,-1,-1,-1],"split_conditions":[1E0,1E0,1E0,1E0,1E0,1.8499559E-2,-6.502066E-2,2.2921799E-2,-4.564826E-2,-5.9533242E-2,-3.8990696E-4],"split_indices":[1349,456,378,149,656,0,0,0,0,0,0],"split_type":[0,0,0,0,0,0,0,0,0,0,0],"sum_hessian":[1.0054082E2,9.362445E1,6.916367E0,9.080396E1,2.8204885E0,2.8996289E0,4.0167384E0,8.864497E1,2.1589913E0,1.4967791E0,1.3237092E0],"tree_param":{"num_deleted":"0","num_feature":"2048","num_nodes":"11","size_leaf_vector":"1"}},{"base_weights":[-2.4410743E-2,-6.1693106E-2,5.4257553E-2,-1.4207223E-1,1.8566237E-1,-2.1369362E-2,3.835457E-2,3.231184E-2,-4.419418E-2],"categories":[],"categories_nodes":[],"categories_segments":[],"categories_sizes":[],"default_left":[0,0,0,0,0,0,0,0,0],"id":99,"left_children":[1,3,-1,5,7,-1,-1,-1,-1],"loss_changes":[2.1322026E0,2.09605E0,0E0,2.3117304E0,2.1642966E0,0E0,0E0,0E0,0E0],"parents":[2147483647,0,0,1,